tree
version=v4
num_class=12
num_tree_per_iteration=12
label_index=0
max_feature_idx=513
objective=multiclass num_class:12
feature_names=Column_0 Column_1 Column_2 Column_3 Column_4 Column_5 Column_6 Column_7 Column_8 Column_9 Column_10 Column_11 Column_12 Column_13 Column_14 Column_15 Column_16 Column_17 Column_18 Column_19 Column_20 Column_21 Column_22 Column_23 Column_24 Column_25 Column_26 Column_27 Column_28 Column_29 Column_30 Column_31 Column_32 Column_33 Column_34 Column_35 Column_36 Column_37 Column_38 Column_39 Column_40 Column_41 Column_42 Column_43 Column_44 Column_45 Column_46 Column_47 Column_48 Column_49 Column_50 Column_51 Column_52 Column_53 Column_54 Column_55 Column_56 Column_57 Column_58 Column_59 Column_60 Column_61 Column_62 Column_63 Column_64 Column_65 Column_66 Column_67 Column_68 Column_69 Column_70 Column_71 Column_72 Column_73 Column_74 Column_75 Column_76 Column_77 Column_78 Column_79 Column_80 Column_81 Column_82 Column_83 Column_84 Column_85 Column_86 Column_87 Column_88 Column_89 Column_90 Column_91 Column_92 Column_93 Column_94 Column_95 Column_96 Column_97 Column_98 Column_99 Column_100 Column_101 Column_102 Column_103 Column_104 Column_105 Column_106 Column_107 Column_108 Column_109 Column_110 Column_111 Column_112 Column_113 Column_114 Column_115 Column_116 Column_117 Column_118 Column_119 Column_120 Column_121 Column_122 Column_123 Column_124 Column_125 Column_126 Column_127 Column_128 Column_129 Column_130 Column_131 Column_132 Column_133 Column_134 Column_135 Column_136 Column_137 Column_138 Column_139 Column_140 Column_141 Column_142 Column_143 Column_144 Column_145 Column_146 Column_147 Column_148 Column_149 Column_150 Column_151 Column_152 Column_153 Column_154 Column_155 Column_156 Column_157 Column_158 Column_159 Column_160 Column_161 Column_162 Column_163 Column_164 Column_165 Column_166 Column_167 Column_168 Column_169 Column_170 Column_171 Column_172 Column_173 Column_174 Column_175 Column_176 Column_177 Column_178 Column_179 Column_180 Column_181 Column_182 Column_183 Column_184 Column_185 Column_186 Column_187 Column_188 Column_189 Column_190 Column_191 Column_192 Column_193 Column_194 Column_195 Column_196 Column_197 Column_198 Column_199 Column_200 Column_201 Column_202 Column_203 Column_204 Column_205 Column_206 Column_207 Column_208 Column_209 Column_210 Column_211 Column_212 Column_213 Column_214 Column_215 Column_216 Column_217 Column_218 Column_219 Column_220 Column_221 Column_222 Column_223 Column_224 Column_225 Column_226 Column_227 Column_228 Column_229 Column_230 Column_231 Column_232 Column_233 Column_234 Column_235 Column_236 Column_237 Column_238 Column_239 Column_240 Column_241 Column_242 Column_243 Column_244 Column_245 Column_246 Column_247 Column_248 Column_249 Column_250 Column_251 Column_252 Column_253 Column_254 Column_255 Column_256 Column_257 Column_258 Column_259 Column_260 Column_261 Column_262 Column_263 Column_264 Column_265 Column_266 Column_267 Column_268 Column_269 Column_270 Column_271 Column_272 Column_273 Column_274 Column_275 Column_276 Column_277 Column_278 Column_279 Column_280 Column_281 Column_282 Column_283 Column_284 Column_285 Column_286 Column_287 Column_288 Column_289 Column_290 Column_291 Column_292 Column_293 Column_294 Column_295 Column_296 Column_297 Column_298 Column_299 Column_300 Column_301 Column_302 Column_303 Column_304 Column_305 Column_306 Column_307 Column_308 Column_309 Column_310 Column_311 Column_312 Column_313 Column_314 Column_315 Column_316 Column_317 Column_318 Column_319 Column_320 Column_321 Column_322 Column_323 Column_324 Column_325 Column_326 Column_327 Column_328 Column_329 Column_330 Column_331 Column_332 Column_333 Column_334 Column_335 Column_336 Column_337 Column_338 Column_339 Column_340 Column_341 Column_342 Column_343 Column_344 Column_345 Column_346 Column_347 Column_348 Column_349 Column_350 Column_351 Column_352 Column_353 Column_354 Column_355 Column_356 Column_357 Column_358 Column_359 Column_360 Column_361 Column_362 Column_363 Column_364 Column_365 Column_366 Column_367 Column_368 Column_369 Column_370 Column_371 Column_372 Column_373 Column_374 Column_375 Column_376 Column_377 Column_378 Column_379 Column_380 Column_381 Column_382 Column_383 Column_384 Column_385 Column_386 Column_387 Column_388 Column_389 Column_390 Column_391 Column_392 Column_393 Column_394 Column_395 Column_396 Column_397 Column_398 Column_399 Column_400 Column_401 Column_402 Column_403 Column_404 Column_405 Column_406 Column_407 Column_408 Column_409 Column_410 Column_411 Column_412 Column_413 Column_414 Column_415 Column_416 Column_417 Column_418 Column_419 Column_420 Column_421 Column_422 Column_423 Column_424 Column_425 Column_426 Column_427 Column_428 Column_429 Column_430 Column_431 Column_432 Column_433 Column_434 Column_435 Column_436 Column_437 Column_438 Column_439 Column_440 Column_441 Column_442 Column_443 Column_444 Column_445 Column_446 Column_447 Column_448 Column_449 Column_450 Column_451 Column_452 Column_453 Column_454 Column_455 Column_456 Column_457 Column_458 Column_459 Column_460 Column_461 Column_462 Column_463 Column_464 Column_465 Column_466 Column_467 Column_468 Column_469 Column_470 Column_471 Column_472 Column_473 Column_474 Column_475 Column_476 Column_477 Column_478 Column_479 Column_480 Column_481 Column_482 Column_483 Column_484 Column_485 Column_486 Column_487 Column_488 Column_489 Column_490 Column_491 Column_492 Column_493 Column_494 Column_495 Column_496 Column_497 Column_498 Column_499 Column_500 Column_501 Column_502 Column_503 Column_504 Column_505 Column_506 Column_507 Column_508 Column_509 Column_510 Column_511 Column_512 Column_513
feature_infos=none none none [0:1] [0:1] [0:1] none none none none none [0:1] none none none none none none none none [0:1] [0:1] [0:1] [0:1] [0:1] [0:1] [0:1] [0:1] [0:1] [0:1] [0:1] [0:1] none [0:1] none none [0:1] [0:1] [0:1] [0:1] [0:1] none [0:1] [0:1] [0:1] [0:1] none [0:1] [0:1] [0:1] [0:1] none [0:1] [0:1] [0:1] [0:1] none [0:1] [0:1] [0:1] [0:1] [0:1] [0:1] [0:1] [0:1] [0:1] [0:1] [0:1] [0:1] none none none none none [0:1] none none none [0:1] [0:1] none none none none none none none none none none none none none none none none none none none none none none [0:1] none none [0:1] none none none none [0:1] [0:1] [0:1] none none none none none none none none none none none none none none none none none none none none none none none none none none none none none none none none none none none none none none [0:1] none none none none none none none none none none none [0:1] none none none none none none none none none none none none none none none none none none none none none none none none none none none none none none none none none none none none none none none none none none none none none none none none none [0:1] [0:1] [0:1] [0:1] [0:1] [0:1] [0:1] [0:1] [0:1] [0:1] none none [0:1] [0:1] [0:1] [0:1] [0:1] [0:1] none none none none [0:1] [0:1] [0:1] [0:1] [0:1] [0:1] none none none none none none none none none none none none none none none none none none none [0:1] none none [0:1] [0:1] none [0:1] [0:1] none none none [0:1] [0:1] [0:1] none none [0:1] [0:1] none none [0:1] [0:1] [0:1] [0:1] [0:1] none none none none none none [0:1] [0:1] [0:1] none none [0:1] [0:1] [0:1] none [0:1] [0:1] [0:1] none none none [0:1] none none none none none none none [0:1] none none none none none none none none none none none none none none none none none none none none none none none none none none none none none none [0:1] [0:1] [0:1] none none none none none none none none none none [0:1] [0:1] [0:1] [0:1] [0:1] none [0:1] [0:1] none none none none none none none none none none none none none none none none none none none none [0:1] [0:1] [0:1] [0:1] [0:1] [0:1] [0:1] [0:1] [0:1] [0:1] [0:1] [0:1] [0:1] [0:1] [0:1] [0:1] [0:1] [0:1] [0:1] [0:1] [0:1] [0:1] [0:1] [0:1] [0:1] [0:1] none [0:1] [0:1] [0:1] [0:1] [0:1] none none [0:1] [0:1] [0:1] [0:1] [0:1] [0:1] [0:1] [0:1] [0:1] [0:1] [0:1] [0:1] [0:1] [0:1] none none none none none none none none none none none none none none [0:1] none none none [-1.4146088000000001:1.3779693] [-0.56454647000000002:3.1801170000000001] [-0.41133576999999999:5.8064746999999999] [-0.035296081999999999:212.82462000000001] [-0.02262451:222.21213] [-0.0075579480000000001:181.11804000000001] [-0.0086836410000000006:229.68119999999999] [-0.16318688000000001:48.465404999999997] [-0.25073099999999998:20.692253000000001] [-0.23507668000000001:57.387965999999999] [-0.12186705:38.494323999999999] [-0.15985984:60.69312] [-0.39811777999999998:18.522306] [-0.21404533000000001:60.518999999999998] [-0.13234915999999999:39.113810000000001] [-0.035186723000000003:78.489329999999995] [-0.11695821000000001:23.607405] [-0.34960350000000001:13.290851999999999] [-0.25660902000000002:13.899395999999999] [-0.39688307:8.9110510000000005] [-0.27510511999999998:13.947948999999999] [-0.40296273999999999:5.9075879999999996] [-0.35757773999999998:11.163956000000001] [-0.21582652999999999:15.790492] [-0.38992949999999998:8.9204629999999998] [-0.30619170000000001:11.551614000000001] [-0.26704254999999999:7.4864755000000001] [-0.18340291:14.324265] [-0.15822227:26.033940000000001] [-0.22631577999999999:12.446764999999999] [-0.15325169999999999:14.786509000000001] [-0.029997319000000001:227.60930999999999] [-0.019715842000000001:227.18441999999999] [-0.10207564399999999:28.166823999999998] [-0.099138959999999998:24.956302999999998] [-0.24538144000000001:19.057753000000002] [-0.17540064:48.123260000000002] [-0.26989940000000001:62.367595999999999] [-0.19730558000000001:39.507976999999997] [-0.049387359999999998:74.892799999999994] [-0.042179069999999999:130.00017] [-0.024015114000000001:220.47153] [-1.1826239000000001:15.014004] [-0.30211972999999998:53.213687999999998] [-0.23507668000000001:57.387965999999999] [-0.21404533000000001:60.518999999999998] [-0.0055361697000000003:242.41345000000001] [-0.0096606069999999999:241.09676999999999] [-0.03395215:133.21727000000001] [-0.24701192999999999:55.487369999999999] [-0.1731355:82.658209999999997] [-0.55659619999999999:2.2120880000000001] [-0.12805322:11.935495] [-0.048758570000000001:145.49277000000001] [-0.12006519:38.516734999999997] [-0.075841690000000003:63.569679999999998] [-0.12490451:33.457382000000003] [-0.10913800999999999:41.361559999999997] [-4.6749530000000004:0.36798573000000001] [-0.37041985999999999:2.8258277999999999] [-1.3135805:2.2021791999999998] [-2.6772580000000001:0.3739381]
tree_sizes=465 5161 1080 876 1310 1184 873 1507 993 2258 978 1500 478 4917 1227 789 1237 1116 786 1666 1018 2001 996 2222 479 3954 1666 686 1131 1012 782 1013 583 1778 1011 2001 479 3831 1116 689 920 1214 690 1010 1120 2213 1010 1988 475 4587 1116 899 1231 999 897 1672 799 2203 1112 2094 477 3510 1115 790 1240 1007 797 1997 898 2228 1103 2106 479 4401 1228 794 1242 1232 911 1014 1238 1769 1103 903 480 5136 1010 789 1350 1220 798 1119 1120 2097 1211 792 480 3953 1230 792 1355 1124 799 1124 484 1769 1441 2109 482 5363 1012 911 1353 1116 801 2100 805 1464 1220 908 482 5249 1013 905 584 1428 895 1990 484 1790 1320 1561 481 4606 1013 798 1356 1116 902 911 1239 1780 1219 587 483 4937 1012 902 1251 1222 1015 2546 1017 2100 1327 1017 483 5041 1127 905 692 1121 788 905 699 1777 1229 906 480 4831 1123 798 1356 900 789 1013 590 1985 1226 908 479 5265 1014 1013 815 1222 913 804 700 1125 1229 1778 482 5367 1012 1110 1131 1222 1013 801 699 2204 1227 905 483 5378 1016 692 1355 1335 1118 802 1014 1788 1336 1456 481 5355 1010 793 1357 1117 897 906 805 1455 1339 908 477 5377 1013 694 1468 1229 1001 1020 808 2116 1215 1012 478 4510 1119 899 691 1227 1113 806 919 1557 1226 1351 482 5384 1228 1116 691 1332 795 1014 917 2203 1226 2108 478 4923 1017 797 914 911 678 906 811 2211 1321 908 481 5046 1234 1116 591 1335 692 2215 916 2097 1322 905 482 5401 1342 691 697 1334 902 799 916 1688 1229 1012 478 5072 1668 691 690 908 794 802 806 2105 1437 907 482 5372 1225 692 587 1340 588 916 913 914 1338 909 482 4579 1558 693 691 901 681 805 914 1994 1635 1346 483 5168 1448 692 693 1024 910 696 920 1792 1648 906 476 5154 1234 689 690 1012 787 1008 1021 2008 1553 902 480 4489 1230 692 691 1444 682 799 1035 1684 1327 904 480 5378 1230 902 698 1553 587 907 1451 1775 1322 907 483 5358 1443 693 695 1781 578 906 697 1684 1555 909 479 5387 584 688 588 1445 578 906 915 1565 1542 1010 483 5366 1445 692 692 1336 577 1132 808 1660 1540 908 479 5366 1559 690 591 1233 584 802 917 1461 1535 908 478 3726 1341 692 592 1016 576 910 916 1779 1539 1009 479 3954 1333 692 692 1117 690 1008 1139 1677 1542 1682 476 3738 1227 693 589 1230 583 904 1134 811 1660 911 481 4173 1228 694 798 1228 576 1007 1022 2335 1649 803 481 5377 1448 694 701 1332 903 1236 1021 1460 2089 799 587 5388 1334 693 1357 1331 588 907 1021 1788 1549 910 586 4180 588 696 585 1011 578 1135 1144 2006 1986 911 477 5393 1338 689 590 1225 573 1235 1021 1567 1984 2334 481 4943 1348 796 590 800 908 908 1021 1786 1858 1450 589 5393 1565 692 589 1555 576 1017 1021 2230 1976 1686 590 3846 695 1009 913 1121 689 1131 1143 1664 1861 1795 589 5401 1238 796 589 1004 794 1117 1020 920 1533 1019 591 5188 1023 796 589 1313 577 1016 1125 2237 1982 1583 587 5430 1135 693 588 802 576 1021 1123 2223 1771 803 587 5444 693 904 588 802 572 1014 803 2001 1867 691 587 5418 911 795 701 1228 574 1122 1129 2686 1783 802 587 4731 1235 1230 586 909 799 1014 1126 921 1884 806 585 5440 914 905 589 911 574 1126 1138 2360 1991 697 586 5385 803 1022 585 908 575 1126 1129 1893 2008 799 589 4277 1142 906 590 1024 909 912 1139 1909 2087 913 589 4635 1353 1014 697 1130 576 1235 1464 1140 1666 697 589 5412 807 798 805 910 574 1019 920 2586 1873 693 586 5432 914 907 590 914 574 1012 1133 2041 2218 804 589 5457 911 906 589 1021 576 1019 1029 1796 1451 805 586 5091 914 1006 698 1119 800 2824 1030 1803 1891 694 590 5125 806 799 811 1127 802 1116 1136 2489 2537 693 589 5466 1358 1016 700 1132 576 1026 915 2252 1469 807 588 5330 916 798 699 1020 577 1235 802 2707 1681 806 585 4093 917 911 697 1127 912 1240 1137 2035 1580 919 587 5469 1030 807 809 1338 575 1917 1144 1687 1468 2518 587 5455 1023 909 696 1131 576 1242 806 920 1455 916 589 4923 1029 913 1016 1244 574 2144 1258 1914 910 908 586 5416 1367 916 696 1023 809 1021 918 809 1127 2053 586 4801 919 909 1018 910 573 1127 917 2713 1357 1942 586 5454 1029 910 690 1125 580 1921 922 2827 1239 911 587 5248 1364 1020 700 1122 574 1021 1021 2484 1455 906 587 5452 1251 911 701 1238 577 1247 1249 1029 1126 1014 588 5477 1368 1025 812 1023 578 1023 1251 587 1571 1022 700 5427 1138 1132 814 1121 577 3282 1023 3194 1673 1028 587 5496 1151 1246 1022 1030 576 1128 911 1367 1255 802 588 4261 1715 1139 1036 1028 690 1131 914 1473 1571 1712 590 5464 1602 1252 694 1135 907 1024 1029 590 1677 811 699 5517 1251 921 817 921 1025 1023 1140 589 2491 811 479 5494 1952 1028 699 1144 579 1360 914 2057 1468 1365 589 5492 1482 1140 699 1145 578 1359 915 588 1929 1025 593 5455 1949 1962 701 1028 576 1357 914 589 1700 1386 590 5468 1479 1477 816 1252 916 3882 1138 591 1694 1256 481 5483 1838 1726 817 1146 806 1131 1253 590 2273 700 592 5504 1030 1139 1032 1142 579 3884 920 591 1242 1036 585 5513 1262 1142 591 1147 586 1253 809 589 1929 1133 588 5539 1836 808 815 1367 1029 1135 1265 591 2051 702 593 5499 1487 916 820 1150 814 1366 916 1726 2405 697 594 5503 1150 1377 1053 1146 577 3231 1031 591 1699 1257 483 5532 1730 1032 820 1266 1032 1254 1035 2554 2051 1492 592 5523 1497 1036 818 1485 587 1039 921 590 1134 1137 588 5488 1266 1862 823 1269 1035 2080 925 591 1819 810 597 5527 1037 1147 822 813 587 1144 923 591 2410 1630 596 5551 1143 1765 706 1264 811 4194 921 590 1831 1496 485 5536 1857 1964 826 1147 1155 1251 816 593 2407 1045 595 5506 1974 1842 704 1950 582 1027 1033 593 2509 1030 703 5564 1046 1267 825 1487 1399 1365 816 591 2844 1042 595 5524 1045 1257 824 1834 696 2665 1495 707 1484 1382 486 5526 1733 1966 822 1039 587 1146 705 1963 2758 816 589 5542 1383 1732 1292 1946 694 4201 1383 594 2189 812 592 5567 1389 1732 821 1035 698 1251 1036 593 2163 1039 588 5543 1161 1281 709 1152 697 3269 1032 2456 2174 815 588 5575 1729 1043 824 1265 698 4311 1742 708 2524 816 595 5576 1057 2343 593 1148 713 1147 1516 2569 2399 1038 587 5564 933 1972 831 1840 925 1036 1380 705 2637 1499 594 5571 1151 2328 828 1730 589 1379 928 594 1261 1155 588 5575 1153 2090 829 1970 699 1368 818 705 2415 1154 598 5545 1502 1977 833 1153 940 4223 1152 706 2401 1147 599 5552 1615 1979 834 1945 922 1604 1392 708 2745 925 588 5546 1154 1279 709 1270 1510 1849 929 2218 2526 1265 486 5575 1164 1510 834 1158 807 3381 1276 592 2167 708 489 5581 928 1747 949 1612 474 1383 1162 705 2078 1151 590 5599 924 1865 836 1157 699 4265 1040 2463 1492 1141 602 5615 1282 1398 1308 1502 813 3043 1868 596 2644 1519 600 5611 1169 1271 835 1269 694 1263 1039 707 1605 931 600 5590 934 1510 833 1153 819 1261 1995 706 2177 705 600 5603 707 1276 716 1271 815 1494 1043 2470 1255 1034 597 5616 1282 1286 835 1159 478 3268 820 594 2315 1261 713 4476 1862 1279 834 1505 479 3527 927 2479 1376 821 601 5362 1639 1052 836 1273 1169 1485 1992 2603 2768 1161 713 5647 1161 1870 838 1160 820 3280 1041 714 1839 928 599 5609 933 1164 715 1280 479 3512 1280 595 1955 1149 593 5607 1280 2243 833 1158 1058 1152 1390 597 2427 927 596 5609 827 1164 1053 1980 480 3410 1282 2962 2574 1505 601 5609 1169 1511 716 1988 826 3401 1059 2005 2558 1285 601 4593 1631 1547 951 1157 480 2931 1167 2131 2772 1168 602 5623 1276 1275 837 1167 1062 2349 705 713 2534 825 603 5294 1052 701 837 1869 706 2587 1045 713 2561 1651 715 5636 1168 2116 838 1164 597 2950 821 709 2771 1152 714 5634 1167 1895 838 1281 594 1980 1044 600 2806 1171 593 5625 1054 1521 718 1165 478 2325 1524 714 2907 826 491 5616 1279 1280 716 1512 480 3314 1268 2729 2315 1049 597 5648 1513 1167 835 1278 480 2958 716 714 2784 1272 494 5630 1167 2001 951 1280 833 1265 1285 1428 2560 1048 492 5039 1286 2256 716 1279 479 1867 1045 2251 1384 1156 594 5673 1522 1526 1074 2095 477 2811 816 711 2781 1405 492 5616 1056 1894 1076 1752 1297 1861 935 715 1978 928

Tree=0
num_leaves=3
num_cat=0
split_feature=510 216
split_gain=36238.7 10344.9
threshold=0.36767955000000008 1.0000000180025095e-35
decision_type=2 2
left_child=-1 -2
right_child=1 -3
leaf_value=-2.5348934791851789 -2.5343646443839241 -1.9384039729079934
leaf_weight=3795.3334464430809 91.250002719461918 356.41667728871107
leaf_count=45544 1095 4277
internal_value=-2.48467 -2.05972
internal_weight=4243 447.667
internal_count=50916 5372
is_linear=0
shrinkage=1


Tree=1
num_leaves=48
num_cat=0
split_feature=512 472 3 284 495 512 486 302 510 453 512 472 481 453 460 452 512 3 220 512 298 468 504 510 512 490 512 452 489 504 452 510 510 461 460 506 510 455 512 512 454 492 486 454 484 476 469
split_gain=13438.6 3760.06 2673.02 2212.58 1745.22 4860.19 996.308 794.834 567.001 445.711 568.279 409.685 316.424 491.327 246.437 194.461 162.318 157.467 2125.1 314.549 1684.54 127.87 116.841 95.642 83.4104 272.928 44.9557 778.806 41.9703 28.1342 30.7003 18.045 19.1097 74.4388 8.84579 6.16776 4.86538 4.11536 3.28706 30.4355 2.59277 1.6863 1.49404 1.24898 1.0469 0.650522 0.323459
threshold=1.3271027000000002 -0.27510323999999992 1.0000000180025095e-35 1.0000000180025095e-35 0.35937248500000002 0.37540070500000006 10.340628500000003 1.0000000180025095e-35 -3.7580320499999993 -0.5611179449999999 0.4243380100000001 -0.27508234999999998 5.9498596500000014 -0.54008982499999991 0.47645594000000008 1.1802497500000002 0.41017195500000003 1.0000000180025095e-35 1.0000000180025095e-35 0.3625224700000001 1.0000000180025095e-35 -0.11695467499999999 0.58414438000000013 0.36766651000000006 0.43850408000000002 0.035908974500000003 0.39986935000000007 -1.4004815499999996 1.0208026000000003 5.2249338000000014 0.90481892500000016 0.36738099500000004 0.36738662500000002 0.49631408000000005 0.10903517000000001 0.97610397000000015 0.36682340000000008 0.35955600500000001 -1.2575601999999997 -1.3052096999999998 -0.4113312999999999 1.0000000180025095e-35 -0.098675946999999986 2.9488774500000003 -0.015980051999999998 -0.38992796999999996 -0.34960108999999995
decision_type=2 2 2 2 2 2 2 2 2 2 2 2 2 2 2 2 2 2 2 2 2 2 2 2 2 2 2 2 2 2 2 2 2 2 2 2 2 2 2 2 2 2 2 2 2 2 2
left_child=1 2 28 4 7 11 22 8 -3 23 21 -6 14 -14 15 17 -16 29 19 20 -19 35 -4 31 26 -26 27 -21 41 34 -31 -7 -33 -34 37 -11 -8 38 39 42 45 -1 -10 44 -28 46 -40
right_child=-2 3 6 -5 5 9 36 -9 12 10 -12 -13 13 -15 16 -17 -18 18 -20 24 -22 -23 -24 -25 25 -27 43 -29 -30 30 -32 32 33 -35 -36 -37 -38 -39 40 -41 -42 -43 -44 -45 -46 -47 -48
leaf_value=-2.5015733167195764 -1.9399104448204789 -2.1649818396202121 -1.9608525997516759 -1.9692678866504556 -2.4105164064333851 -2.46162420748822 -2.5272143422896725 -2.0178853752200006 -2.5080409783747557 -2.4717487554009847 -1.9943661116540681 -1.9557525752605711 -2.522906649938204 -2.007434124319869 -2.1322750721222969 -2.313368189393842 -2.4582149209307063 -1.9687528068827835 -1.9758157440147546 -2.5332165089645411 -2.5334932222518947 -2.3007603094973543 -2.2290242981848345 -2.3395578133777515 -2.1645362807074289 -2.5301822404205287 -2.5347120762312771 -2.0131675213581142 -2.3958822601371303 -2.3790624945553223 -2.5283132433651807 -2.5343665957925721 -2.3375382294535965 -2.5325810684587355 -2.4768421340125024 -2.5317816498753118 -2.4656758809275559 -2.4893370298378255 -2.5153944548637268 -2.4460177614252512 -2.5341657089535232 -2.532525697449707 -2.5312536817817581 -2.5059909873898243 -2.5139276290066026 -2.5271144421228384 -2.4990092141629199
leaf_weight=6.5000001937150946 108.91666991263628 10.083333633840082 60.666668474674225 17.916667200624943 5.833333507180213 9.9166669622063619 5.5000001639127714 6.8333335369825354 10.166666969656942 5.3333334922790554 8.2500002458691579 54.166668280959129 11.500000342726709 6.5833335295319548 5.3333334922790518 9.8333336263895017 10.083333633840082 15.250000454485415 17.333333849906921 117.33333683013916 69.750002078711987 9.2500002756714839 7.500000223517417 6.1666668504476538 5.7500001713633564 20.166667267680168 769.91668961197138 6.666666865348815 5.833333507180213 5.4166668280959112 6.5833335295319557 184.16667215526104 5.3333334922790554 20.500000610947609 6.7500002011656752 15.000000447034834 5.5000001639127731 5.5833334997296324 9.2500002756714839 10.250000305473803 2158.416730992496 41.000001221895218 327.50000976026058 5.9166668429970732 10.916666992008684 11.833333685994146 8.7500002607703227
leaf_count=78 1307 121 728 215 70 119 66 82 122 64 99 650 138 79 64 118 121 183 208 1408 837 111 90 74 69 242 9239 80 70 65 79 2210 64 246 81 180 66 67 111 123 25901 492 3930 71 131 142 105
internal_value=-2.48557 -2.50007 -2.23903 -2.50877 -2.51133 -2.40026 -2.05653 -2.52118 -2.52225 -2.4932 -2.33662 -1.99802 -2.52333 -2.32006 -2.52438 -2.52525 -2.33085 -2.52588 -2.50943 -2.51897 -2.42735 -2.44499 -1.98623 -2.51993 -2.52733 -2.44017 -2.52986 -2.50171 -2.51282 -2.53254 -2.45798 -2.52563 -2.52875 -2.48832 -2.53291 -2.51616 -2.49741 -2.53306 -2.53315 -2.52803 -2.53395 -2.52872 -2.53063 -2.53427 -2.53446 -2.51707 -2.50859
internal_weight=4243 4134.08 132.5 4001.58 3983.67 323.917 79.1667 3659.75 3652.92 263.917 37.8333 60 3642.83 18.0833 3624.75 3609.33 15.4167 3599.5 1039 1021.67 85 29.5833 68.1667 226.083 936.667 25.9167 910.75 124 53.3333 2560.5 12 219.917 210 25.8333 2548.5 20.3333 11 2541.75 2536.17 347.917 2188.25 47.5 337.667 786.75 780.833 29.8333 18
internal_count=50916 49609 1590 48019 47804 3887 950 43917 43835 3167 454 720 43714 217 43497 43312 185 43194 12468 12260 1020 355 818 2713 11240 311 10929 1488 640 30726 144 2639 2520 310 30582 244 132 30501 30434 4175 26259 570 4052 9441 9370 358 216
is_linear=0
shrinkage=1


Tree=2
num_leaves=9
num_cat=0
split_feature=464 464 282 482 510 510 510 510
split_gain=27562.3 17349.1 54.3113 205.56 67.751 678.049 31.5402 113.344
threshold=1.6183220000000003 1.6383860500000003 1.0000000180025095e-35 -0.15050387999999995 0.36738576000000006 0.36739097500000001 0.36738619000000006 0.36766172500000005
decision_type=2 2 2 2 2 2 2 2
left_child=2 -2 -1 4 -4 -6 -3 -8
right_child=1 6 3 -5 5 -7 7 -9
leaf_value=-2.5348632166395024 -1.9365082072188518 -2.5346145368463144 -2.5343435338903704 -2.2310105469188173 -2.0725213307380774 -2.5341264157406691 -2.2901698085309889 -2.5324476334642378
leaf_weight=3452.5834362283349 342.41667687147856 170.16667173802853 176.58333859592676 5.416666828095912 8.0833335742354375 63.083335213363171 5.3333334922790554 19.333333909511566
leaf_count=41431 4109 2042 2119 65 97 757 64 232
internal_value=-2.48467 -2.15033 -2.53322 -2.51071 -2.51782 -2.47671 -2.52699 -2.47452
internal_weight=4243 537.25 3705.75 253.167 247.75 71.1667 194.833 24.6667
internal_count=50916 6447 44469 3038 2973 854 2338 296
is_linear=0
shrinkage=1


Tree=3
num_leaves=7
num_cat=0
split_feature=510 510 3 484 456 484
split_gain=17585.5 26506.5 2217.48 9.95172 10.8595 0.347654
threshold=0.36739097500000001 0.36767259000000002 1.0000000180025095e-35 0.14714947500000003 0.17550938500000002 0.11767823500000002
decision_type=2 2 2 2 2 2
left_child=3 2 -2 5 -5 -1
right_child=1 -3 -4 4 -6 -7
leaf_value=-2.5348919575899953 -1.9389787346867713 -2.5347961932375296 -2.5320220344843936 -2.4401698081192462 -2.5284550370522383 -2.5124066500226938
leaf_weight=3402.1667680591345 355.08334391564131 451.66668012738228 16.333333820104599 5.333333492279051 6.7500002011656761 5.6666668355464926
leaf_count=40826 4261 5420 196 64 81 68
internal_value=-2.48475 -2.27741 -1.96511 -2.5347 -2.48905 -2.53486
internal_weight=4243 823.083 371.417 3419.92 12.0833 3407.83
internal_count=50916 9877 4457 41039 145 40894
is_linear=0
shrinkage=1


Tree=4
num_leaves=11
num_cat=0
split_feature=472 216 345 216 283 453 472 510 216 472
split_gain=35236.5 4559.51 3281.45 1396.79 105.715 625.534 21.6658 165.99 6.33588 417.921
threshold=0.25770861000000006 1.0000000180025095e-35 1.0000000180025095e-35 1.0000000180025095e-35 1.0000000180025095e-35 -0.55828942999999986 1.0000000180025095e-35 0.36737794000000007 1.0000000180025095e-35 -0.26744465499999998
decision_type=2 2 2 2 2 2 2 2 2 2
left_child=2 -2 4 -4 6 -6 8 -8 -1 -10
right_child=1 -3 3 -5 5 -7 7 -9 9 -11
leaf_value=-2.5348918831020848 -2.5335491837640092 -1.9391035871838547 -2.5316808434263218 -1.9506961273571697 -2.0153944564345094 -2.5336408270399597 -2.2621793780001869 -2.5338137536449961 -2.5347698508864576 -2.1466713570872527
leaf_weight=3385.0001008808613 35.833334401249886 308.75000920146704 14.500000432133673 33.833334341645241 5.833333507180213 38.500001147389412 5.416666828095912 44.750001333653927 364.50001086294651 6.0833335146307936
leaf_count=40620 430 3705 174 406 70 462 65 537 4374 73
internal_value=-2.48478 -2.00088 -2.52766 -2.12241 -2.53284 -2.4566 -2.53374 -2.5007 -2.53417 -2.52751
internal_weight=4243 344.583 3898.42 48.3333 3850.08 44.3333 3805.75 50.1667 3755.58 370.583
internal_count=50916 4135 46781 580 46201 532 45669 602 45067 4447
is_linear=0
shrinkage=1


Tree=5
num_leaves=10
num_cat=0
split_feature=452 512 510 504 512 505 512 512 512
split_gain=32589.1 12825.4 416.779 1.25153 4.43109 0.602128 0.189956 0.845611 34.9656
threshold=1.1037530500000001 -1.2060471999999998 0.36682297500000005 11.90098075 0.41017195500000003 0.86138165000000011 -1.2047593999999997 -1.2395305999999997 -1.2060471999999998
decision_type=2 2 2 2 2 2 2 2 2
left_child=3 2 -2 5 -5 6 7 -1 -9
right_child=1 -3 -4 4 -6 -7 -8 8 -10
leaf_value=-2.5347787452938277 -2.3588196940394877 -2.5345071824229795 -1.937335225621136 -2.4796434922214194 -2.5316457803136263 -2.5142169948215627 -2.5348901875282226 -2.4381324567896847 -2.5327423878764441
leaf_weight=389.91667828708887 6.666666865348815 124.1666703671217 349.00001040101051 5.3333334922790554 14.333333760499952 8.6666669249534589 3036.2500904873013 9.3333336114883405 299.33334225416183
leaf_count=4679 80 1490 4188 64 172 104 36435 112 3592
internal_value=-2.48485 -2.09723 -1.94486 -2.53436 -2.51797 -2.53444 -2.53448 -2.53262 -2.52974
internal_weight=4243 479.833 355.667 3763.17 19.6667 3743.5 3734.83 698.583 308.667
internal_count=50916 5758 4268 45158 236 44922 44818 8383 3704
is_linear=0
shrinkage=1


Tree=6
num_leaves=7
num_cat=0
split_feature=512 219 512 219 512 512
split_gain=44357.5 539.958 454.6 538.859 10.1921 5.97118
threshold=-1.3052096999999998 1.0000000180025095e-35 -1.2768775999999997 1.0000000180025095e-35 -1.2446818999999998 -1.2575601999999997
decision_type=2 2 2 2 2 2
left_child=1 -1 3 -2 5 -4
right_child=2 -3 4 -5 -6 -7
leaf_value=-2.4232787433346905 -2.5311330649863137 -1.9405141308043576 -2.5189066499584696 -2.0453066521423362 -2.5348936641807689 -2.4643184149037936
leaf_weight=6.1666668504476538 12.250000365078449 346.75001033395529 11.500000342726709 9.4166669473052025 3849.4167813882232 7.500000223517417
leaf_count=74 147 4161 138 113 46193 90
internal_value=-2.48467 -1.94875 -2.53342 -2.30991 -2.53471 -2.49741
internal_weight=4243 352.917 3890.08 21.6667 3868.42 19
internal_count=50916 4235 46681 260 46421 228
is_linear=0
shrinkage=1


Tree=7
num_leaves=13
num_cat=0
split_feature=452 452 219 512 513 298 467 452 513 512 346 512
split_gain=9525.12 28824.7 2240.74 184.721 3731.88 722.78 80.9734 11.6556 12.2146 4.35031 3.28424 13.3174
threshold=0.94085120000000011 0.95282643000000011 1.0000000180025095e-35 -0.7810652899999998 0.3733151850000001 1.0000000180025095e-35 0.043914352000000011 0.95996471500000013 0.37331808000000005 -1.1326412499999998 1.0000000180025095e-35 -0.7810652899999998
decision_type=2 2 2 2 2 2 2 2 2 2 2 2
left_child=3 2 -2 4 9 -6 7 8 -3 -1 11 -9
right_child=1 6 -4 -5 5 -7 -8 10 -10 -11 -12 -13
leaf_value=-2.5348350763677279 -2.5264954349460096 -2.4322750712988115 -1.9366661849835656 -2.5348861565855234 -2.4611361584280322 -1.960318418322951 -2.3961006804025597 -2.4613217445541284 -2.5278478264392588 -2.4899066500897487 -2.5340912309669346 -2.5330547979892941
leaf_weight=697.58335412293673 16.83333383500576 5.333333492279051 311.58334261924028 2438.8334060162306 9.1666669398546201 34.416667692363262 10.166666969656942 7.8333335667848578 6.0833335146307945 5.6666668355464926 673.50002007186413 26.000000774860382
leaf_count=8371 202 64 3739 29266 110 413 122 94 73 68 8082 312
internal_value=-2.48506 -2.3551 -1.96693 -2.52822 -2.50642 -2.06276 -2.53045 -2.53248 -2.48256 -2.53448 -2.53328 -2.51625
internal_weight=4243 1057.33 328.417 3185.67 746.833 43.5833 728.917 718.75 11.4167 703.25 707.333 33.8333
internal_count=50916 12688 3941 38228 8962 523 8747 8625 137 8439 8488 406
is_linear=0
shrinkage=1


Tree=8
num_leaves=8
num_cat=0
split_feature=238 281 452 292 267 219 469
split_gain=39692.8 2099.86 1653.8 789.167 629.058 576.504 541.968
threshold=1.0000000180025095e-35 1.0000000180025095e-35 -1.1304842999999998 1.0000000180025095e-35 1.0000000180025095e-35 1.0000000180025095e-35 -0.11100615749999999
decision_type=2 2 2 2 2 2 2
left_child=1 3 -2 4 -1 -5 -6
right_child=2 -3 -4 5 6 -7 -8
leaf_value=-2.5348289949645615 -1.9367929523316691 -1.9707275485767601 -2.5310604960476537 -2.5294521044782794 -2.5296434920336068 -1.9834360643099367 -1.9903688371952841
leaf_weight=3862.2501151040196 317.08334278315306 15.750000469386576 12.000000357627867 8.1666669100522995 8.5000002533197421 10.333333641290665 8.9166669324040395
leaf_count=46347 3805 189 144 98 102 124 107
internal_value=-2.48508 -2.52948 -1.95854 -2.53187 -2.53345 -2.21439 -2.24169
internal_weight=4243 3913.92 329.083 3898.17 3879.67 18.5 17.4167
internal_count=50916 46967 3949 46778 46556 222 209
is_linear=0
shrinkage=1


Tree=9
num_leaves=20
num_cat=0
split_feature=492 463 454 361 512 362 230 459 453 60 504 510 462 112 483 483 483 510 471
split_gain=17135.8 17187.7 2849.39 2514.31 1410.1 1285.78 877.648 490.05 406.204 111.084 709.564 58.0298 27.3571 7.64719 4.09502 9.76056 0.556411 0.159232 0.142578
threshold=-0.029815279999999996 -0.13075623999999997 -0.41079823999999993 1.0000000180025095e-35 0.37540070500000006 1.0000000180025095e-35 1.0000000180025095e-35 0.12493647500000001 -0.55746086999999989 1.0000000180025095e-35 -0.035738123499999989 0.36737403000000007 -0.055178839999999993 1.0000000180025095e-35 0.009654664000000002 0.011705629000000002 -0.0088040179999999985 0.36738662500000002 -0.39675490499999994
decision_type=2 2 2 2 2 2 2 2 2 2 2 2 2 2 2 2 2 2 2
left_child=3 2 7 5 -4 6 9 18 -8 13 17 -6 -3 14 -1 -16 -15 -11 -2
right_child=1 12 4 -5 11 -7 8 -9 -10 10 -12 -13 -14 16 15 -17 -18 -19 -20
leaf_value=-2.5348774242649204 -2.5328658335198084 -2.4312029465646496 -2.5305270878632933 -1.9651587540735131 -1.9390919220285974 -1.9856758832415562 -2.0234972564876719 -2.0454329670975162 -2.5274066499779901 -2.5137301794262212 -2.0997921481275812 -2.192049508185292 -2.5347287138502237 -2.5137922804610331 -2.4688516043149002 -2.5323961896080154 -2.4967248318884421 -2.5341364315821031 -2.5115300266511427
leaf_weight=3420.6667686104774 23.500000700354576 5.7500001713633528 10.416666977107523 18.833333894610405 297.66667553782463 9.8333336263895017 11.416667006909849 5.3333334922790518 5.6666668355464926 6.0833335146307936 9.9166669622063619 6.0000001788139334 280.00000834465027 27.416667483747005 8.0833335742354411 18.916667230427265 8.1666669100522977 63.916668571531773 5.4166668280959156
leaf_count=41048 282 69 125 226 3572 118 137 64 68 73 119 72 3360 329 97 227 98 767 65
internal_value=-2.48453 -2.24502 -2.00976 -2.52667 -1.96268 -2.52976 -2.53139 -2.44413 -2.18375 -2.53314 -2.47497 -1.94311 -2.53247 -2.53448 -2.53472 -2.51348 -2.51031 -2.53279 -2.52989
internal_weight=4243 634.083 348.333 3608.92 314.083 3590.08 3580.25 34.25 17.0833 3563.17 79.9167 303.667 285.75 3483.25 3447.67 27 35.5833 70 28.9167
internal_count=50916 7609 4180 43307 3769 43081 42963 411 205 42758 959 3644 3429 41799 41372 324 427 840 347
is_linear=0
shrinkage=1


Tree=10
num_leaves=8
num_cat=0
split_feature=487 512 512 277 464 512 512
split_gain=29339.6 6663.53 6636.46 1800.92 18.2075 231.582 674.147
threshold=0.19473000500000001 0.40759630500000005 0.42562584500000006 1.0000000180025095e-35 -0.33792555499999993 0.4243380100000001 0.40759630500000005
decision_type=2 2 2 2 2 2 2
left_child=3 -2 -3 4 -1 6 -6
right_child=1 2 -4 -5 5 -7 -8
leaf_value=-2.5348916815958558 -2.5342649385769329 -1.9410844542628083 -2.5340111274261514 -2.023901868096055 -2.5330773815478396 -2.53477855414706 -2.0508730386069969
leaf_weight=3339.4167661890388 76.916668958961964 330.83334319293499 54.833334967494011 16.416667155921459 26.333334118127823 389.33334493637085 8.9166669324040395
leaf_count=40073 923 3970 658 197 316 4672 107
internal_value=-2.48527 -2.10985 -2.02529 -2.5313 -2.53363 -2.52363 -2.40249
internal_weight=4243 462.583 385.667 3780.42 3764 424.583 35.25
internal_count=50916 5551 4628 45365 45168 5095 423
is_linear=0
shrinkage=1


Tree=11
num_leaves=13
num_cat=0
split_feature=221 236 111 512 512 504 477 485 483 510 306 472
split_gain=41099 1045.02 148.174 1927.39 828.181 55.4361 196.19 18.378 41.5448 95.9821 1.75949 6.16747
threshold=1.0000000180025095e-35 1.0000000180025095e-35 1.0000000180025095e-35 -1.1996080499999999 -1.2047593999999997 3.7515739500000005 -0.30567280999999996 0.32953578500000008 -0.017691530999999996 0.36737315500000006 1.0000000180025095e-35 -0.27509976999999991
decision_type=2 2 2 2 2 2 2 2 2 2 2 2
left_child=2 -2 5 4 -4 7 -7 10 -9 -10 -1 -12
right_child=1 -3 3 -5 -6 6 -8 8 9 -11 11 -13
leaf_value=-2.5345725255353275 -2.5290242970015071 -1.9376773058025658 -2.529864633116389 -2.5347599863848784 -1.9657890062704584 -2.2235142458048704 -2.5308525958045607 -2.5334948851230039 -2.2855560013112139 -2.5303264972402402 -2.5319509848462483 -2.472568987799431
leaf_weight=3440.8334358781576 7.500000223517417 323.83334298431873 8.9166669324040431 339.91667679697275 21.666667312383652 5.583333499729636 23.666667371988297 34.416667692363262 5.416666828095912 9.9166669622063619 15.9166671410203 5.416666828095912
leaf_count=41290 90 3886 107 4079 260 67 284 413 65 119 191 65
internal_value=-2.48498 -1.95116 -2.53032 -2.50018 -2.12646 -2.53347 -2.46549 -2.53404 -2.50338 -2.43695 -2.53447 -2.517
internal_weight=4243 331.333 3911.67 370.5 30.5833 3541.17 29.25 3511.92 49.75 15.3333 3462.17 21.3333
internal_count=50916 3976 46940 4446 367 42494 351 42143 597 184 41546 256
is_linear=0
shrinkage=1


Tree=12
num_leaves=3
num_cat=0
split_feature=510 216
split_gain=22977.1 4176.23
threshold=0.36767955000000008 1.0000000180025095e-35
decision_type=2 2
left_child=-1 -2
right_child=1 -3
leaf_value=-0.049701374810578486 -0.049158568660484334 0.32197273963745937
leaf_weight=3585.0811875239015 87.207115292549133 566.3174612224102
leaf_count=45655 1109 4270
internal_value=2.15719e-05 0.272449
internal_weight=4238.61 653.525
internal_count=51034 5379
is_linear=0
shrinkage=0.05


Tree=13
num_leaves=44
num_cat=0
split_feature=512 213 472 284 3 151 460 512 512 263 236 510 276 298 465 111 3 504 452 493 504 510 489 512 453 215 495 510 467 453 467 512 452 481 468 461 510 452 475 475 506 510 218
split_gain=7711.86 4535.27 2395.45 1367.32 1214.71 597.898 590.204 2456.34 599.865 414.987 408.649 399.174 384.458 129.882 121.848 119.507 1189.29 64.2481 72.0207 34.5848 43.8399 30.4816 28.7744 18.1384 14.6334 11.7962 135.993 19.6264 9.9201 44.7404 9.68055 7.21435 546.146 5.91701 4.59658 1.13412 1.11663 1.03381 0.943281 3.71624 0.603599 0.416996 0.150225
threshold=1.3271027000000002 1.0000000180025095e-35 -0.27510323999999992 1.0000000180025095e-35 1.0000000180025095e-35 1.0000000180025095e-35 0.18558117000000005 0.40759630500000005 1.1905933000000002 1.0000000180025095e-35 1.0000000180025095e-35 -3.7580320499999993 1.0000000180025095e-35 1.0000000180025095e-35 0.92018080000000013 1.0000000180025095e-35 1.0000000180025095e-35 0.5718111800000002 0.34257857500000005 -0.021791211499999998 0.58414438000000013 0.36766912000000007 1.0208026000000003 0.41403542500000007 -0.5611179449999999 1.0000000180025095e-35 -0.18742073999999997 -2.3831331999999996 -0.032276839999999994 -0.50429057999999982 -0.035160713499999989 -1.2524088999999998 0.321142435 5.9498596500000014 1.2398270000000002 0.62610335000000006 0.36738576000000006 1.1727918500000001 0.47262526500000007 0.53573813500000012 6.5904415000000007 0.3668021150000001 1.0000000180025095e-35
decision_type=2 2 2 2 2 2 2 2 2 2 2 2 2 2 2 2 2 2 2 2 2 2 2 2 2 2 2 2 2 2 2 2 2 2 2 2 2 2 2 2 2 2 2
left_child=1 5 4 6 22 -1 9 13 24 11 19 -4 14 -8 15 17 21 25 -19 -6 -21 34 35 -7 36 27 -27 -13 31 -30 -20 32 41 37 -17 -3 -9 38 42 -40 -25 -29 -33
right_child=-2 2 3 -5 10 23 7 8 -10 -11 -12 12 -14 -15 -16 16 -18 18 30 20 -22 -23 -24 40 -26 26 -28 28 29 -31 -32 33 -34 -35 -36 -37 -38 -39 39 -41 -42 -43 -44
leaf_value=0.34641604371177359 0.32294158635882753 -0.047256753094684543 0.22463914162210413 0.31802332145287793 0.16669184052571862 0.085661461754813983 0.32839017347350197 -0.049215991644659791 0.29384850135267665 0.30100812146258715 -0.044949523573989861 0.019589404568053984 0.34413807349628411 0.10638354960226769 0.14523982043515657 -0.049113375128258682 0.3098679907073657 0.13951712972641545 -0.046600968920517086 0.3250770307516655 0.17415786984887244 0.054531080280964456 0.066324836757058706 -0.026831951288515166 0.0324111845009699 -0.048868555587870448 0.19089469230466435 -0.049572310767393483 0.096509426196892456 -0.046293570175072414 0.027475425327929844 -0.049197371549209598 0.42456651114347355 0.0016658830764339104 -0.0010710249694183954 -0.017455065087057492 -0.027148764412052578 -0.027697785761453011 -0.0076543024079114667 -0.045632199661669794 -0.0034910888554666158 -0.03111864050546408 -0.042957452559386142
leaf_weight=95.180067606270313 176.25783360749483 39.261012122035027 13.114573217928408 26.894071698188782 8.3562717363238317 5.9555499330163029 57.088200017809868 287.94724319130182 12.480744123458861 7.9100107103586188 9.1894427761435491 10.453538797795771 5.4446543157100669 8.8145303726196271 7.6481231749057761 235.75358495116234 25.068594098091125 8.7250054180622119 14.251362331211569 75.544572055339813 9.2080383077263814 6.6627741232514373 5.856352671980857 5.4803043082356435 5.035237953066825 56.622202403843403 5.6034395098686209 314.18437065184116 5.7943500801920882 27.964147359132767 5.4363301917910567 2473.7679327055812 5.2085651308298102 5.7549539953470221 5.1318313106894484 5.1693115532398215 9.9618309140205366 10.1174119412899 8.4064027890562993 34.846213601529598 5.4378368407487869 9.4638985320925695 72.497739888727665
leaf_count=767 1333 498 119 208 69 64 453 3653 125 63 114 124 50 83 75 2986 205 94 176 583 89 83 65 67 56 719 55 3988 64 355 64 31465 58 69 62 64 122 118 100 437 66 109 917
internal_value=0.000133572 -0.013996 -0.0229572 -0.0308064 0.170634 0.298246 -0.0333873 0.0255231 -0.0327456 -0.0400473 0.268758 -0.0409375 -0.0420423 0.300731 -0.0427726 -0.0432462 -0.011471 -0.046064 0.0279783 0.299869 0.310902 -0.045128 -0.0303304 0.0223495 -0.0471232 -0.0467649 -0.0246 -0.0472195 -0.0474613 -0.0197113 -0.025807 -0.0477738 -0.0403632 -0.0486933 -0.0480985 -0.04425 -0.0485714 -0.0488054 -0.0488771 -0.0385907 -0.0164752 -0.0491302 -0.0490366
internal_weight=4224.95 4048.69 3936.64 3784.05 152.585 112.054 3757.16 381.328 315.425 3375.83 102.298 3367.92 3354.81 65.9027 3349.36 3341.71 272.617 3069.1 28.4127 93.1089 84.7526 247.548 50.2867 16.8737 302.944 3040.69 62.2256 2978.46 2968.01 33.7585 19.6877 2934.25 328.857 2605.39 240.885 44.4303 297.909 2599.64 2589.52 43.2526 10.9181 323.648 2546.27
internal_count=51034 49701 48737 47255 1482 964 47047 4492 3956 42555 855 42492 42373 536 42323 42248 3336 38912 334 741 672 3131 627 197 3831 38578 774 37804 37680 419 240 37261 4155 33106 3048 562 3775 33037 32919 537 133 4097 32382
is_linear=0
shrinkage=0.05


Tree=14
num_leaves=10
num_cat=0
split_feature=465 495 282 463 512 510 472 510 510
split_gain=16808.4 9521.63 48.6245 139.588 64.3749 533.623 24.9228 2.35636 38.5455
threshold=0.45651185000000005 0.26305863500000004 1.0000000180025095e-35 0.015643685500000004 0.42562584500000006 0.36739097500000001 -0.27096216499999998 0.36738619000000006 0.36764651000000004
decision_type=2 2 2 2 2 2 2 2 2
left_child=2 -2 -1 4 -4 -6 7 -3 -9
right_child=1 6 3 -5 5 -7 -8 8 -10
leaf_value=-0.049667903460653223 0.32229553053570892 -0.04946132323311514 -0.04915422046100023 0.20908157727976906 0.33168492709765074 -0.048979515209743356 0.051482092845351594 0.080112779303063986 -0.048929055848814025
leaf_weight=3185.0030969455838 551.71009363234043 192.13673168420792 166.34258828312159 5.1595516875386229 9.8109187856316549 61.049170181155205 5.8814044892787924 5.5213508978486052 57.357115589082241
leaf_count=40563 4158 2445 2107 55 82 769 69 64 722
internal_value=0.000464844 0.204773 -0.0480209 -0.0262615 -0.0322369 0.00760757 -0.0440305 -0.0464258 -0.0365211
internal_weight=4239.97 812.607 3427.37 242.362 237.203 70.8601 260.897 255.015 62.8785
internal_count=51034 7458 43576 3013 2958 851 3300 3231 786
is_linear=0
shrinkage=0.05


Tree=15
num_leaves=6
num_cat=0
split_feature=510 510 3 492 501
split_gain=13373.2 12867.9 835.513 12.7591 10.387
threshold=0.36739097500000001 0.36767259000000002 1.0000000180025095e-35 0.46473634000000003 0.40228247000000006
decision_type=2 2 2 2 2
left_child=3 2 4 -1 -2
right_child=1 -3 -4 -5 -6
leaf_value=-0.04970088390442913 0.32313794458190881 -0.049598000034458557 -0.046765759350680731 0.019338906522957996 0.20634628166458324
leaf_weight=3224.8125307112932 557.14121980965137 426.46286166459322 15.568578772246836 6.2233815491199485 8.6422546803951246
leaf_count=41058 4205 5432 196 77 66
internal_value=4.34126e-05 0.158969 0.31179 -0.049562 0.321721
internal_weight=4238.85 1007.81 581.352 3231.04 565.783
internal_count=51034 9899 4467 41135 4271
is_linear=0
shrinkage=0.05


Tree=16
num_leaves=10
num_cat=0
split_feature=472 216 345 216 283 216 216 282 472
split_gain=21642.9 2675.75 1610.94 585.446 58.9627 304.08 10.3006 393.591 35.0553
threshold=0.097651757500000005 1.0000000180025095e-35 1.0000000180025095e-35 1.0000000180025095e-35 1.0000000180025095e-35 1.0000000180025095e-35 1.0000000180025095e-35 1.0000000180025095e-35 -0.27394313999999992
decision_type=2 2 2 2 2 2 2 2 2
left_child=2 -2 4 -4 6 -6 -1 8 -8
right_child=1 -3 3 -5 5 -7 7 -9 -10
leaf_value=-0.049699975416454378 -0.048860965809896045 0.32254201811242694 -0.046548829783664772 0.31903373809817698 -0.04839561824902959 0.29981334277173499 -0.049569009132976682 0.33564343607506608 0.073910128033034372
leaf_weight=3220.5434229373932 53.26789279282093 513.8799384534359 14.594822272658346 40.234706461429596 36.673400700092316 6.5225716829299918 342.04837998747826 5.8429728597402564 4.9990486726164809
leaf_count=41012 671 3883 185 306 467 52 4357 52 49
internal_value=0.000449406 0.287634 -0.0439797 0.22263 -0.048082 0.00977781 -0.048784 -0.0403073 -0.0475831
internal_weight=4238.61 567.148 3671.46 54.8295 3616.63 43.196 3573.43 352.89 347.047
internal_count=51034 4554 46480 491 45989 519 45470 4458 4406
is_linear=0
shrinkage=0.05


Tree=17
num_leaves=9
num_cat=0
split_feature=452 512 228 68 512 512 505 504
split_gain=21045.2 5383.21 94.4353 2.89951 11.8084 19.271 0.741416 0.714898
threshold=1.1037530500000001 -1.2060471999999998 1.0000000180025095e-35 1.0000000180025095e-35 -1.2047593999999997 -1.2086228999999997 0.86138165000000011 11.90098075
decision_type=2 2 2 2 2 2 2 2
left_child=3 2 -2 6 5 -5 7 -1
right_child=1 -3 -4 4 -6 -7 -8 -9
leaf_value=-0.049513974220670304 0.32274578137885918 -0.049310175099650418 0.14215283067929857 -0.045761642187557128 -0.048956424684504209 0.048174241438171582 -0.027525213570607832 -0.035040276774476083
leaf_weight=3445.9855992421508 548.14435245841742 119.61266445368528 9.5708822011947614 11.513012364506721 64.611829079687595 8.6948128342628479 7.9598968327045432 19.316828899085522
leaf_count=43868 4138 1521 88 146 823 109 99 242
internal_value=-0.000510081 0.254728 0.319907 -0.049156 -0.0386589 -0.00497815 -0.0494011 -0.0494434
internal_weight=4235.41 677.328 557.715 3558.08 84.8197 20.2078 3473.26 3465.3
internal_count=51034 5747 4226 45287 1078 255 44209 44110
is_linear=0
shrinkage=0.05


Tree=18
num_leaves=6
num_cat=0
split_feature=512 452 219 512 512
split_gain=25817.9 840.434 313.394 7.39712 2.71198
threshold=-1.2768775999999997 0.321142435 1.0000000180025095e-35 -1.2446818999999998 -1.2575601999999997
decision_type=2 2 2 2 2
left_child=1 2 -1 4 -2
right_child=3 -3 -4 -5 -6
leaf_value=0.021353558382549185 -0.032621877638933587 -0.048064794627988565 0.32435652300822182 -0.049701254242566946 0.0044795978215651676
leaf_weight=8.8151861876249296 10.631546430289747 15.727688387036322 554.1844357252121 3638.4550412893295 8.1693784147500974
leaf_count=107 133 166 4193 46338 97
internal_value=-0.000410806 0.309599 0.319659 -0.0495383 -0.0170885
internal_weight=4235.98 578.727 563 3657.26 18.8009
internal_count=51034 4466 4300 46568 230
is_linear=0
shrinkage=0.05


Tree=19
num_leaves=14
num_cat=0
split_feature=452 452 219 512 510 3 467 452 467 469 477 512 512
split_gain=7903.54 15057.9 807.627 182.164 2446.47 289.841 56.9359 9.57129 10.0576 3.93604 10.2016 2.36077 0.767491
threshold=0.94085120000000011 0.95282643000000011 1.0000000180025095e-35 -0.7810652899999998 0.36686383000000006 1.0000000180025095e-35 0.043914352000000011 0.95996471500000013 -0.035180704999999993 -0.34937713499999995 -0.30619056499999991 -1.1326412499999998 0.41145977000000006
decision_type=2 2 2 2 2 2 2 2 2 2 2 2 2
left_child=3 2 12 4 11 -6 7 8 -3 10 -9 -1 -2
right_child=1 6 -4 -5 5 -7 -8 9 -10 -11 -12 -13 -14
leaf_value=-0.049641653419850697 -0.016941438788176815 0.044148284960443158 0.32241224371765809 -0.049693235780735812 0.31782622684281558 0.009747490932274951 0.064874777292950145 -0.046990967594771019 -0.042694303510011668 -0.048628988054072356 0.019982299644966561 -0.015605797233169261 -0.045517311860029469
leaf_weight=655.97643522173166 5.0850977376103392 5.365982860326767 503.36843627691269 2307.6431825757027 53.871606968343258 8.9431579858064634 10.721496582031248 17.215346641838554 6.0012707710266096 639.61198892444372 7.5892990082502356 6.2729547321796408 10.757130391895769
leaf_count=8350 64 63 3790 29390 422 99 121 219 75 8135 94 76 136
internal_value=0.000228322 0.108462 0.311367 -0.0428236 -0.0209215 0.274804 -0.0452274 -0.0470675 -0.00144471 -0.0478447 -0.0265194 -0.0493433 -0.0378954
internal_weight=4238.42 1205.72 519.211 3032.71 725.064 62.8148 686.505 675.784 11.3673 664.417 24.8046 662.249 15.8422
internal_count=51034 12697 3990 38337 8947 521 8707 8586 138 8448 313 8426 200
is_linear=0
shrinkage=0.05


Tree=20
num_leaves=8
num_cat=0
split_feature=238 281 452 292 267 237 105
split_gain=23672.6 1314.49 618.694 592.447 495.596 279.369 266.497
threshold=1.0000000180025095e-35 1.0000000180025095e-35 -1.1304842999999998 1.0000000180025095e-35 1.0000000180025095e-35 1.0000000180025095e-35 1.0000000180025095e-35
decision_type=2 2 2 2 2 2 2
left_child=1 3 -2 4 -1 -5 -6
right_child=2 -3 -4 5 6 -7 -8
leaf_value=-0.049646928376484288 0.32234597268033949 0.31757389420396587 -0.045766226350541082 -0.043969196317526466 -0.044007773569671185 0.31598374171074778 0.31522505019035485
leaf_weight=3645.056753501296 513.43792966008186 23.959630191326141 11.435372434556482 7.6685167402029046 7.7033982053399095 15.537289068102837 13.401333078742027
leaf_count=46417 3866 185 144 98 98 121 105
internal_value=0.00027597 -0.044177 0.314254 -0.0466118 -0.0482277 0.200132 0.188043
internal_weight=4238.2 3713.33 524.873 3689.37 3666.16 23.2058 21.1047
internal_count=51034 47024 4010 46839 46620 219 203
is_linear=0
shrinkage=0.05


Tree=21
num_leaves=17
num_cat=0
split_feature=492 463 361 512 512 362 230 26 60 504 462 58 483 483 483 510
split_gain=12293.4 8315.49 1565.55 1221.1 969.877 841.364 661.354 110.544 109.777 468.836 15.5557 7.105 13.8369 4.33768 12.3754 0.195265
threshold=-0.029815279999999996 -0.13075623999999997 1.0000000180025095e-35 0.39343023000000005 0.37540070500000006 1.0000000180025095e-35 1.0000000180025095e-35 1.0000000180025095e-35 1.0000000180025095e-35 -0.035738123499999989 -0.055178839999999993 1.0000000180025095e-35 -0.020426149999999997 0.009654664000000002 0.011705629000000002 0.36738662500000002
decision_type=2 2 2 2 2 2 2 2 2 2 2 2 2 2 2 2
left_child=2 3 5 4 -2 6 8 -8 11 15 -3 13 -13 -1 -15 -10
right_child=1 10 -4 -5 -6 -7 7 -9 9 -11 -12 12 -14 14 -16 -17
leaf_value=-0.049638395857193651 -0.047163412321812266 0.027911545291085024 0.31841238414161932 -0.048176816818531532 0.32437173542677805 0.3161297948909354 0.088659987480536606 0.32276463081876433 -0.027769790926958082 0.26366801970461412 -0.04952958767994195 -0.047310450965326649 0.022490226683967648 0.028569056958064803 -0.047238657337223725 -0.048876995979499689
leaf_weight=3242.6180899962783 17.987378753721714 6.0449249520897856 29.013224303722382 24.607087306678295 478.32410181313753 15.125179395079611 10.08827218413353 11.65724241733551 5.7623239606618872 13.886798836290835 264.24417992681265 19.698122836649421 10.068822063505648 6.6331982538104084 18.768297299742699 58.207206726074219
leaf_count=41292 226 70 223 295 3624 118 104 94 70 119 3364 251 127 79 237 741
internal_value=-0.000349265 0.177238 -0.0412162 0.29382 0.310839 -0.0443662 -0.0460636 0.222831 -0.0478613 0.0106968 -0.0477011 -0.0492466 -0.0237364 -0.0494716 -0.0271104 -0.0474324
internal_weight=4232.73 791.208 3441.53 520.919 496.311 3412.51 3397.39 21.7455 3375.64 77.8563 270.289 3297.79 29.7669 3268.02 25.4015 63.9695
internal_count=51034 7579 43455 4145 3850 43232 43114 198 42916 930 3434 41986 378 41608 316 811
is_linear=0
shrinkage=0.05


Tree=22
num_leaves=8
num_cat=0
split_feature=487 512 512 277 503 487 512
split_gain=19363.4 2931.21 2673.99 1298 19.7513 13.939 386.912
threshold=0.19473000500000001 0.40759630500000005 0.42562584500000006 1.0000000180025095e-35 2.2041667000000005 0.102074965 0.4243380100000001
decision_type=2 2 2 2 2 2 2
left_child=3 -2 -3 4 5 -1 -7
right_child=1 2 -4 -5 -6 6 -8
leaf_value=-0.049700429849951634 -0.049066247871333984 0.32105429789068851 -0.048825767870221422 0.30363421722189537 0.022038885093199241 0.21481497882632353 -0.04956692694047516
leaf_weight=3194.8552729263902 72.7107317969203 528.49275198578835 53.56074234098196 25.38905380666256 9.3850248828530294 13.450302354991434 338.32132761925459
leaf_count=40682 921 3996 679 206 112 128 4310
internal_value=-0.000140097 0.249656 0.286992 -0.0458656 -0.0484456 -0.0486382 -0.0388778
internal_weight=4236.17 654.764 582.053 3581.4 3556.01 3546.63 351.772
internal_count=51034 5596 4675 45438 45232 45120 4438
is_linear=0
shrinkage=0.05


Tree=23
num_leaves=19
num_cat=0
split_feature=221 486 49 48 111 510 510 504 477 503 485 483 510 218 485 485 485 499
split_gain=24089.3 349.326 276.827 145.416 99.5345 353.161 954.338 18.1463 59.292 14.8011 10.4171 21.6894 46.5478 0.532505 10.7837 0.570461 0.887313 0.417206
threshold=1.0000000180025095e-35 -0.09909001499999999 1.0000000180025095e-35 1.0000000180025095e-35 1.0000000180025095e-35 0.36683687500000001 0.36683601000000005 3.7515739500000005 -0.30555857499999994 2.1573566000000004 0.32953578500000008 -0.017691530999999996 0.36737315500000006 1.0000000180025095e-35 -0.096518004999999976 -0.10207439499999998 -0.10207480999999997 0.099574442000000013
decision_type=2 2 2 2 2 2 2 2 2 2 2 2 2 2 2 2 2 2
left_child=2 -2 3 4 7 6 9 10 -9 -6 13 -12 -13 17 15 16 -15 -1
right_child=1 -3 -4 -5 5 -7 -8 8 -10 -11 11 12 -14 14 -16 -17 -18 -19
leaf_value=-0.049572585317988055 -0.043126243735371876 0.32187821551882795 0.26288655573029485 0.16852764350735139 -0.048839512888966562 -0.049531967418058688 0.31926591942201732 0.1255232638805108 -0.045410491512188254 0.021582689196358432 -0.048179423326644252 0.12221963571876299 -0.045024113273756994 -0.045969627973696359 0.022990864534608611 -0.049247554718641048 -0.023009923165354943 -0.025996558926021374
leaf_weight=3136.730125322938 6.4141973927617064 516.09757597744465 6.3100708052515975 6.9610976204276076 54.640675909817219 263.44293688237667 25.190380707383156 5.5165897607803371 21.945760793983936 8.0350078344345075 31.279546976089478 5.9341500848531714 9.5106776356697065 12.16989851742983 5.1803042814135543 103.15527945756912 12.070389874279497 5.303337149322032
leaf_count=39939 80 3893 58 70 694 3352 195 55 277 94 398 60 120 154 65 1311 152 67
internal_value=-0.000207874 0.317324 -0.0449614 -0.0455561 -0.0460043 -0.0206045 0.0657082 -0.048662 -0.00786986 -0.0396142 -0.0489968 -0.0247453 0.0227582 -0.0493352 -0.0441207 -0.0470075 -0.0359015 -0.0495411
internal_weight=4235.89 522.512 3713.38 3707.07 3700.11 351.309 87.8661 3348.8 27.4624 62.6757 3321.33 46.7244 15.4448 3274.61 132.576 127.396 24.2403 3142.03
internal_count=51034 3973 47061 47003 46933 4335 983 42598 332 788 42266 578 180 41688 1682 1617 306 40006
is_linear=0
shrinkage=0.05


Tree=24
num_leaves=3
num_cat=0
split_feature=510 216
split_gain=17337.4 2403.14
threshold=0.36767955000000008 1.0000000180025095e-35
decision_type=2 2
left_child=-1 -2
right_child=1 -3
leaf_value=-0.049451467672245904 -0.048879962483023752 0.23628991213027239
leaf_weight=3389.1650552600622 81.826915927231312 730.88555529713631
leaf_count=45665 1100 4301
internal_value=0.000295026 0.207553
internal_weight=4201.88 812.712
internal_count=51066 5401
is_linear=0
shrinkage=0.05


Tree=25
num_leaves=35
num_cat=0
split_feature=512 213 490 102 306 3 512 486 512 151 263 487 220 235 218 461 504 452 509 48 487 455 464 512 452 454 510 509 512 468 486 510 510 500
split_gain=5316.91 3252.21 1506.43 1047.13 995.969 607.713 2254.74 1523.5 1244.22 353.872 300.432 208.192 194.743 161.892 41.9605 52.607 39.2852 48.5739 18.2252 17.9364 13.2591 6.97355 9.01239 4.14437 317.184 3.452 8.56541 2.14317 1.93758 48.8169 1.23285 1.09707 0.604422 0.340678
threshold=1.3271027000000002 1.0000000180025095e-35 1.9817973500000001 1.0000000180025095e-35 1.0000000180025095e-35 1.0000000180025095e-35 0.3625224700000001 -0.072944029999999979 0.43979191500000003 1.0000000180025095e-35 1.0000000180025095e-35 0.79698780000000002 1.0000000180025095e-35 1.0000000180025095e-35 1.0000000180025095e-35 0.062930077000000015 5.2249338000000014 0.38359701500000004 5.6481601500000007 1.0000000180025095e-35 0.11751747500000001 1.0000000180025095e-35 0.20380452000000002 -1.2524088999999998 0.321142435 -0.4113312999999999 0.36765608500000008 0.14537109500000003 0.39986935000000007 -0.11692247999999998 -0.098974454999999975 -4.2165560999999991 0.36736750000000007 0.10057027500000001
decision_type=2 2 2 2 2 2 2 2 2 2 2 2 2 2 2 2 2 2 2 2 2 2 2 2 2 2 2 2 2 2 2 2 2 2
left_child=1 9 3 4 5 11 7 -7 10 -1 12 16 14 -9 21 -16 19 -18 31 20 23 28 -23 24 30 26 32 -17 29 -8 -3 -11 -25 -27
right_child=-2 2 -4 -5 -6 6 8 13 -10 18 -12 -13 -14 -15 15 27 17 -19 -20 -21 -22 22 -24 25 -26 33 -28 -29 -30 -31 -32 -33 -34 -35
leaf_value=0.24970463192326875 0.23747670893643066 -0.021014133748373822 0.24238276061533731 0.23921838599406692 0.24432126239621044 0.25225072536050902 -0.048027982821286334 -0.048142269757954229 0.2683581861609487 -0.042365806163421643 0.2241487602086196 0.17867729482074479 0.20881656881038643 0.22389975390063899 0.13383371312084899 -0.0070721356735001812 0.12947701814150384 -0.04455270185428007 0.069186751664715038 0.041076157856850565 0.0060132193755218707 0.023026797868835911 -0.045295779931364397 -0.021173179617600665 0.30701675398160067 -0.048896334117739609 0.026045019522424426 -0.045063551943891611 -0.048885118030201499 0.10068647186656038 -0.049325741218440751 -0.0092858705700732021 -0.045480200511138956 -0.026395345900475639
leaf_weight=124.86128276586533 222.15902677178383 5.9688122421503058 52.081951186060905 35.900471389293671 32.172361120581627 129.13306403905153 100.62588357180357 72.010782212018967 32.424656197428703 5.7780474200844774 9.560142830014227 9.3301582857966405 6.5831599161028853 4.9239202439784995 6.2285333946347263 7.0426386296749106 6.1947709470987311 8.2383804619312269 6.8958087339997283 5.0244463309645644 11.338710501790045 7.8793567121028927 9.8050903901457769 5.9402097687125233 5.4049968793988219 2012.2379572466016 4.9352285638451567 8.0376781895756704 893.13919841498137 4.9162129089236251 302.85146713256836 5.1054768487811097 22.200742095708847 5.4133751392364493
leaf_count=769 1312 77 349 217 206 809 1348 962 222 74 60 70 42 32 51 78 59 103 74 60 125 97 122 73 45 26989 63 89 11968 51 4060 60 281 69
internal_value=1.61663e-05 -0.0133615 -0.022144 -0.0258662 -0.0284814 -0.0309205 -0.00326222 0.147959 -0.0320597 0.220206 -0.0415488 -0.0457745 -0.0441934 -0.0280817 -0.045998 0.0225593 -0.0467228 0.0336913 0.0107796 -0.0472241 -0.047428 -0.0474562 -0.0152513 -0.0476867 -0.0417724 -0.0485721 -0.0307411 -0.0288644 -0.0480106 -0.0402208 -0.0488481 -0.0289352 -0.0412519 -0.0488491
internal_weight=4182.34 3960.18 3817.54 3765.46 3729.56 3697.39 1292.31 206.068 1086.24 142.641 1053.82 2405.08 1044.26 76.9347 1037.67 21.3089 2395.75 14.4332 17.7793 2381.32 2376.29 1016.37 17.6844 2364.95 314.225 2050.73 33.0762 15.0803 998.681 105.542 308.82 10.8835 28.141 2017.65
internal_count=51066 49754 48777 48428 48211 48005 15931 1803 14128 977 13906 32074 13846 994 13804 218 32004 162 208 31842 31782 13586 219 31657 4182 27475 417 167 13367 1399 4137 134 354 27058
is_linear=0
shrinkage=0.05


Tree=26
num_leaves=14
num_cat=0
split_feature=464 495 464 459 472 510 512 466 457 487 460 510 510
split_gain=14487.7 4380.28 47.9316 272.844 131.705 27.5275 91.5864 10.4394 4.82278 0.60435 23.2149 0.499841 5.80172
threshold=1.6183220000000003 0.31193440000000006 0.11351617000000001 -0.10411123249999998 -0.27328461499999995 0.36738619000000006 1.2253645500000003 -0.095751977999999988 -0.0073188373499999985 0.17928750000000002 0.36929154500000005 0.36738576000000006 0.36764998000000004
decision_type=2 2 2 2 2 2 2 2 2 2 2 2 2
left_child=2 -2 9 4 -4 -3 -7 8 -5 -1 -11 -10 -13
right_child=1 5 3 7 -6 6 -8 -9 11 10 -12 12 -14
leaf_value=-0.049450689702388535 0.23649495135516077 -0.049153370999296758 0.009242122588019059 -0.0073230941297776977 0.25793605577712353 0.16892313733656464 -0.047051195560030006 0.023174973145973273 -0.049137420534907446 0.044562559265590759 -0.049005088286168806 0.0054514883740866098 -0.047703746254139243
leaf_weight=2997.7167407311499 701.88194776326418 153.38121602684259 9.9180178940296191 8.3221760317683202 10.688274294137953 5.5855182483792332 18.299894228577614 5.1346677839756003 141.38217563927174 6.3029639273881903 107.71861761808395 6.0950893238186827 26.123791739344597
leaf_count=40382 4133 2063 121 104 73 53 239 63 1898 69 1454 66 348
internal_value=0.000116969 0.180474 -0.0476909 -0.0242585 0.144205 -0.0414211 0.00821217 -0.0434846 -0.0454824 -0.0492463 -0.0434903 -0.0472593 -0.0377866
internal_weight=4198.55 879.149 3319.4 207.664 20.6063 177.267 23.8854 187.058 181.923 3111.74 114.022 173.601 32.2189
internal_count=51066 6488 44578 2673 194 2355 292 2479 2416 41905 1523 2312 414
is_linear=0
shrinkage=0.05


Tree=27
num_leaves=5
num_cat=0
split_feature=510 510 3 492
split_gain=10883.7 8187.16 493.834 24.7107
threshold=0.36739097500000001 0.36767259000000002 1.0000000180025095e-35 0.46473634000000003
decision_type=2 2 2 2
left_child=3 2 -2 -1
right_child=1 -3 -4 -5
leaf_value=-0.049450947355925326 0.23616839422015123 -0.04934249607492433 -0.04655424434967366 0.043023089521423308
leaf_weight=3047.941015869379 724.77664124965668 404.56487919762731 15.473110683262346 6.5260923206806174
leaf_count=41057 4273 5453 204 79
internal_value=4.23308e-05 0.131458 0.230204 -0.0492394
internal_weight=4199.28 1144.81 740.25 3054.47
internal_count=51066 9930 4477 41136
is_linear=0
shrinkage=0.05


Tree=28
num_leaves=9
num_cat=0
split_feature=472 216 345 216 283 216 216 472
split_gain=15733 1565.31 1223.82 356.063 55.5575 217.918 11.5856 343.63
threshold=0.097651757500000005 1.0000000180025095e-35 1.0000000180025095e-35 1.0000000180025095e-35 1.0000000180025095e-35 1.0000000180025095e-35 1.0000000180025095e-35 -0.26744465499999998
decision_type=2 2 2 2 2 2 2 2
left_child=2 -2 4 -4 6 -6 -1 -8
right_child=1 -3 3 -5 5 -7 7 -9
leaf_value=-0.049449916009291411 -0.048586451563305377 0.23650302973781595 -0.046246895984219827 0.23547834731341874 -0.048017681094847386 0.22868352555431995 -0.049314110900841993 0.21072954200157304
leaf_weight=3048.3475412353873 51.655147932469845 650.62379424273968 14.080304116010664 49.003049403429031 33.228521078824997 7.984948903322219 326.79541581869125 12.240828841924666
leaf_count=41073 688 3835 187 291 448 50 4404 90
internal_value=-0.000267859 0.215494 -0.0437132 0.172856 -0.0477472 0.00973944 -0.0484493 -0.0393332
internal_weight=4193.96 702.279 3491.68 63.0834 3428.6 41.2135 3387.38 339.036
internal_count=51066 4523 46543 478 46065 498 45567 4494
is_linear=0
shrinkage=0.05


Tree=29
num_leaves=8
num_cat=0
split_feature=452 512 452 68 512 512 457
split_gain=16347.9 3154.32 43.0105 2.68562 10.0906 15.5693 0.797026
threshold=1.1037530500000001 -1.2060471999999998 1.1409999500000001 1.0000000180025095e-35 -1.2047593999999997 -1.2086228999999997 0.038078043500000006
decision_type=2 2 2 2 2 2 2
left_child=3 2 -2 6 5 -5 -1
right_child=1 -3 -4 4 -6 -7 -8
leaf_value=-0.049194673862451133 0.23686904100949158 -0.049042004379334883 0.12900183583401154 -0.045425496888865879 -0.048651633161616491 0.038481263070069605 -0.026662840220830986
leaf_weight=3272.7378341592848 717.52733454853296 112.36765744537115 13.262431144714354 11.145356141030788 59.559598207473755 9.1738611236214638 7.704753451049327
leaf_count=44063 4226 1510 104 149 802 111 101
internal_value=0.000496588 0.197211 0.23509 -0.0489061 -0.0384097 -0.00751462 -0.0491499
internal_weight=4203.48 843.157 730.79 3360.32 79.8788 20.3192 3280.44
internal_count=51066 5840 4330 45226 1062 260 44164
is_linear=0
shrinkage=0.05


Tree=30
num_leaves=6
num_cat=0
split_feature=512 452 486 512 512
split_gain=18986.2 495.234 74.1983 3.11039 1.107
threshold=-1.2768775999999997 0.321142435 -0.099042357999999983 -1.2446818999999998 -1.2575601999999997
decision_type=2 2 2 2 2
left_child=1 2 -1 4 -2
right_child=3 -3 -4 -5 -6
leaf_value=0.081219182233741 -0.036447195651601767 -0.047870845604517237 0.23681940987056138 -0.049451267621109719 -0.010150511158271791
leaf_weight=9.0783402547240239 10.361795321106912 15.493492566049097 718.8205798342824 3437.751078017056 7.7778772190213195
leaf_count=84 135 168 4262 46324 93
internal_value=-1.36475e-05 0.229041 0.234993 -0.0493373 -0.0262912
internal_weight=4199.28 743.392 727.899 3455.89 18.1397
internal_count=51066 4514 4346 46552 228
is_linear=0
shrinkage=0.05


Tree=31
num_leaves=8
num_cat=0
split_feature=236 510 512 513 3 468 512
split_gain=5927.37 13082.2 80.3576 284.659 281.724 20.1287 0.351475
threshold=1.0000000180025095e-35 0.36683687500000001 -0.7810652899999998 0.37331083000000004 1.0000000180025095e-35 -0.11584720749999998 -1.1326412499999998
decision_type=2 2 2 2 2 2 2
left_child=2 -2 3 6 5 -5 -1
right_child=1 -3 -4 4 -6 -7 -8
leaf_value=-0.048577939707970773 -0.049415752230926722 0.23753533510516475 -0.04944988842600892 0.1655889645715434 -0.039713901697320669 0.32922816848849251 -0.025257823758995185
leaf_weight=101.68351489305496 917.66973884403706 698.94740515202284 2442.7167222499847 7.4230567216873178 13.553090572357178 8.0442700013518316 5.1050913333892813
leaf_count=1347 12356 4121 32885 56 165 72 64
internal_value=-0.000315517 0.0747182 -0.047369 -0.00985258 0.126395 0.265519 -0.0477078
internal_weight=4195.14 1616.62 2578.53 135.809 29.0204 15.4673 106.789
internal_count=51066 16477 34589 1704 293 128 1411
is_linear=0
shrinkage=0.05


Tree=32
num_leaves=4
num_cat=0
split_feature=105 219 512
split_gain=14267.3 5196.4 5.39584
threshold=1.0000000180025095e-35 1.0000000180025095e-35 0.39986935000000007
decision_type=2 2 2
left_child=-1 -2 -3
right_child=1 2 -4
leaf_value=-0.049405511023502151 -0.048755068323706637 0.18784163952067107 0.23747569793419659
leaf_weight=3266.6864061802626 205.81543492525816 28.191538788378239 693.6624606102705
leaf_count=44014 2766 199 4087
internal_value=-0.000256517 0.172683 0.2358
internal_weight=4194.36 927.669 721.854
internal_count=51066 7052 4286
is_linear=0
shrinkage=0.05


Tree=33
num_leaves=15
num_cat=0
split_feature=492 463 361 512 512 230 296 58 510 26 60 271 459 503
split_gain=9965.69 5257.71 1206.49 699.979 540.056 529.435 478.049 155.268 339.231 62.6914 39.7068 262.369 19.1684 4.35299
threshold=-0.029815279999999996 -0.13075623999999997 1.0000000180025095e-35 0.39343023000000005 0.37540070500000006 1.0000000180025095e-35 1.0000000180025095e-35 1.0000000180025095e-35 0.36736925000000004 1.0000000180025095e-35 1.0000000180025095e-35 1.0000000180025095e-35 -0.11654820999999999 -0.51544721999999987
decision_type=2 2 2 2 2 2 2 2 2 2 2 2 2 2
left_child=2 3 5 4 -2 6 7 10 -9 -7 -1 13 -3 -12
right_child=1 12 -4 -5 -6 9 -8 8 -10 -11 11 -13 -14 -15
leaf_value=-0.049160578698518781 -0.046800016255822342 0.044937296165752767 0.23582474989415322 -0.047813150354193451 0.23775454995510903 0.077663568162354576 0.24712303733162658 -0.047902815173508764 0.25172175936927477 0.2416457893978986 -0.048880483677830745 0.24847101942803307 -0.049277059633438348 -0.00011423215247239822
leaf_weight=3089.9107311330736 16.825305558741093 4.7809126153588286 38.023918092250824 23.155320934951305 619.55012463778257 11.359250038862228 12.896341577172278 28.993072926998138 12.84315015375614 14.823664382100105 60.147057339549065 7.5945008397102347 248.76199749112129 4.9512567967176428
leaf_count=41617 221 55 228 293 3658 107 83 383 84 93 788 52 3346 58
internal_value=3.93277e-05 0.146051 -0.0406199 0.220352 0.23017 -0.0439324 -0.0457762 -0.0470317 0.047807 0.175978 -0.0483009 -0.0115899 -0.047331 -0.0452293
internal_weight=4194.62 913.074 3281.54 659.531 636.375 3243.52 3217.34 3204.44 41.8362 26.1829 3162.6 72.6928 253.543 65.0983
internal_count=51066 7573 43493 4172 3879 43265 43065 42982 467 200 42515 898 3401 846
is_linear=0
shrinkage=0.05


Tree=34
num_leaves=8
num_cat=0
split_feature=487 512 512 277 464 512 512
split_gain=14737.8 1786.19 1529.64 926.551 22.377 213.386 360.003
threshold=0.19473000500000001 0.40759630500000005 0.42562584500000006 1.0000000180025095e-35 -0.33792555499999993 0.4243380100000001 0.40759630500000005
decision_type=2 2 2 2 2 2 2
left_child=3 -2 -3 4 -1 6 -6
right_child=1 2 -4 -5 5 -7 -8
leaf_value=-0.049449691434197952 -0.048800371499188956 0.2357677797446682 -0.048543493264365502 0.22652560350749537 -0.047836063398785787 -0.049321001099929415 0.24706378377427987
leaf_weight=2979.7090347148478 69.369782313704491 679.35700590908527 50.511016316711903 30.055350884795189 25.543515264987946 346.40948117524385 16.107904545962811
leaf_count=40146 927 4012 675 193 329 4670 114
internal_value=-1.57745e-05 0.193032 0.216052 -0.045468 -0.0479619 -0.0364405 0.0693296
internal_weight=4197.06 799.238 729.868 3397.83 3367.77 388.061 41.6514
internal_count=51066 5614 4687 45452 45259 5113 443
is_linear=0
shrinkage=0.05


Tree=35
num_leaves=17
num_cat=0
split_feature=221 486 49 111 512 510 504 477 485 483 510 218 485 499 485 485
split_gain=17456.5 205.327 184.387 114.889 919.996 161.419 33.8352 117.089 12.438 24.1449 43.4622 0.388852 11.3879 0.480807 0.263104 0.583202
threshold=1.0000000180025095e-35 -0.09909001499999999 1.0000000180025095e-35 1.0000000180025095e-35 -1.2021837999999998 0.36683601000000005 3.7515739500000005 -0.30610261999999994 0.32953578500000008 -0.017691530999999996 0.36737315500000006 1.0000000180025095e-35 -0.096049764999999995 0.099574442000000013 -0.10207439499999998 -0.10207480999999997
decision_type=2 2 2 2 2 2 2 2 2 2 2 2 2 2 2 2
left_child=2 -2 3 6 5 -5 8 -8 11 -10 -11 13 14 -1 15 -13
right_child=1 -3 -4 4 -6 -7 7 -9 9 10 -12 12 -14 -15 -16 -17
leaf_value=-0.049265478986543654 -0.04299953338411415 0.23627805215123693 0.18915108519320367 0.013032750046507648 -0.049314918482295113 0.24129192723365694 0.19368787937238413 -0.0454825941891275 -0.047890815716619982 0.11304428776726726 -0.044567183397731747 -0.045531257576623789 0.026592114742549196 -0.024641228615991405 -0.048976466518197911 -0.024204455639786432
leaf_weight=2968.3743878751993 6.3603354245424262 663.88468640297651 7.4518265798687926 10.045952573418615 301.18783223628998 34.656033053994179 5.5143931657075909 22.874444477260113 30.08267268538475 6.9010304734110823 8.9357158169150335 11.375576987862589 4.8820737376809111 4.9904813691973677 97.358390182256699 10.782961577177046
leaf_count=39983 81 3910 57 121 4048 212 47 298 404 63 118 151 60 65 1308 140
internal_value=-0.000138718 0.233568 -0.0446242 -0.045173 -0.0177431 0.191402 -0.0481575 0.00598483 -0.0486481 -0.0221276 0.0267486 -0.049034 -0.0439358 -0.0492324 -0.0470135 -0.0366463
internal_weight=4195.66 670.245 3525.41 3517.96 345.89 44.702 3172.07 28.3888 3143.68 45.9194 15.8367 3097.76 124.399 2973.36 119.517 22.1585
internal_count=51066 3991 47075 47018 4381 333 42637 345 42292 585 181 41707 1659 40048 1599 291
is_linear=0
shrinkage=0.05


Tree=36
num_leaves=3
num_cat=0
split_feature=510 216
split_gain=13695.9 1641.25
threshold=0.36767955000000008 1.0000000180025095e-35
decision_type=2 2
left_child=-1 -2
right_child=1 -3
leaf_value=-0.049218330362137609 -0.048635210248022226 0.1889386580699684
leaf_weight=3202.2167916931212 79.086264938116074 850.42503114044666
leaf_count=45670 1124 4257
internal_value=-0.000165724 0.168694
internal_weight=4131.73 929.511
internal_count=51051 5381
is_linear=0
shrinkage=0.05


Tree=37
num_leaves=34
num_cat=0
split_feature=512 213 4 512 512 236 263 487 151 484 463 463 492 504 452 463 512 452 509 487 48 454 510 460 512 512 511 453 453 460 452 457 510
split_gain=4129.97 2596.9 1370.21 2927.05 1589.74 1304.52 233.801 218.449 218.299 180.111 102.753 101.193 36.5146 34.4424 37.73 33.7179 14.7314 230.543 12.7928 11.9929 11.7328 3.88599 22.4543 3.46393 2.98566 26.2561 1.82691 1.5522 18.5537 1.20097 1.94778 0.964336 0.634466
threshold=1.3271027000000002 1.0000000180025095e-35 1.0000000180025095e-35 0.36381030000000009 0.43979191500000003 1.0000000180025095e-35 1.0000000180025095e-35 0.79698780000000002 1.0000000180025095e-35 -0.013904612999999998 -0.039035802999999994 0.17262673500000003 -0.029815279999999996 5.2249338000000014 0.38359701500000004 2.2107606000000009 0.39986935000000007 -1.4004815499999996 5.6481601500000007 0.11751747500000001 1.0000000180025095e-35 -0.41132871499999996 0.36765955500000008 0.44583754000000003 -1.2575601999999997 -1.3052096999999998 1.4747329500000002 -0.5074333849999999 -0.51291897999999991 0.36929154500000005 1.1508869500000001 -0.0072429294999999993 0.36736750000000007
decision_type=2 2 2 2 2 2 2 2 2 2 2 2 2 2 2 2 2 2 2 2 2 2 2 2 2 2 2 2 2 2 2 2 2
left_child=1 8 3 5 6 -3 9 13 -1 12 -11 -12 16 15 -15 19 17 -5 26 20 21 22 32 -21 25 27 -10 28 -23 -18 31 -31 -4
right_child=-2 2 7 4 -6 -7 -8 -9 18 10 11 -13 -14 14 -16 -17 29 -19 -20 23 -22 24 -24 -25 -26 -27 -28 -29 -30 30 -32 -33 -34
leaf_value=0.19906971418570196 0.19008048240123504 0.1995502904213696 -0.024251090383611645 -0.04830787056197746 0.20792500873947373 -0.047808814451566276 0.18745862036029903 0.15632885960664583 -0.041598427347683403 0.20302070598306027 -0.04777514557029492 0.15152094193402516 0.060257363621282638 0.10655408397144928 -0.044295182000110254 0.066088068684412637 -0.048884736649667887 0.22521413466969398 0.0589090319999169 0.026781703637140154 0.025355748399654383 -0.046692654508770574 0.062017157096104114 -0.022559036616149993 -0.048681750205015278 0.030084449304915148 -0.0010115061198502724 -0.047244894441480056 0.048924627097869426 -0.031049194746738836 -0.01107642080187861 -0.0454201886862588 -0.047943906726667693
leaf_weight=149.72121199965477 268.19313210248947 258.56023615598679 6.7925436645746222 98.640288583934307 69.349139869213104 66.64786908775568 10.413950428366659 12.429407246410845 5.223905451595785 9.1743878349661809 19.023703157901767 8.3541380614042264 7.4271133989095679 6.8801643028855306 7.8936439827084541 5.7684024199843398 663.20358774811029 7.3610719442367545 7.147566318511962 6.0668621063232404 4.9546601250767699 37.573383018374443 4.8115957528352729 6.1689218878746033 1893.3361525461078 11.310798428952692 5.0920255705714226 244.93889248371124 5.0118274465203276 22.998150743544102 5.4738754108548155 161.89550987631083 30.369058787822723
leaf_count=779 1347 1366 85 1389 379 941 56 79 69 52 226 51 73 58 101 49 9412 46 73 63 59 533 61 71 26858 125 61 3473 59 315 75 2260 407
internal_value=0.00072582 -0.0124763 -0.0212219 0.0175569 -0.0219625 0.148866 -0.0378748 -0.0451305 0.179677 -0.0403974 0.0672749 0.0162349 -0.0445326 -0.046301 0.0282568 -0.0468013 -0.0454056 -0.0273864 0.0116391 -0.0471198 -0.0473895 -0.0475621 -0.031008 0.00208062 -0.0478647 -0.0425433 -0.0234242 -0.0454947 -0.0345752 -0.0476087 -0.0429309 -0.0438093 -0.0443622
internal_weight=4128.21 3860.01 3692.83 1408.52 1083.31 325.208 1013.97 2284.31 167.185 1003.55 36.5522 27.3778 967 2271.88 14.7738 2257.1 959.572 106.001 17.4635 2251.33 2239.1 2234.14 41.9732 12.2358 2192.17 298.835 10.3159 287.524 42.5852 853.571 190.368 184.894 37.1616
internal_count=51051 49704 48722 16641 14334 2307 13955 32081 982 13899 329 277 13570 32002 159 31843 13497 1435 203 31794 31660 31601 553 134 31048 4190 130 4065 592 12062 2650 2575 492
is_linear=0
shrinkage=0.05


Tree=38
num_leaves=9
num_cat=0
split_feature=464 495 282 463 512 510 510 512
split_gain=11726.8 2982.16 51.1528 172.218 56.3255 310.885 26.3253 100.983
threshold=1.6183220000000003 0.31193440000000006 1.0000000180025095e-35 0.017407540000000003 0.42562584500000006 0.36739097500000001 0.36738619000000006 1.1970324000000001
decision_type=2 2 2 2 2 2 2 2
left_child=2 -2 -1 4 -4 -6 -3 -8
right_child=1 6 3 -5 5 -7 7 -9
leaf_value=-0.049201539917663503 0.18910238309799199 -0.048905861682929708 -0.048643713062685584 0.23566782120982879 0.20677693487038018 -0.048423855030248222 0.18499724399984108 -0.047101134893750889
leaf_weight=2915.4475362934172 821.76161397248507 145.37041340768337 149.93526047468185 5.2107060253620139 14.138493061065672 55.382728099822998 5.1035012155771282 19.202041141688824
leaf_count=41564 4116 2069 2110 35 79 780 40 258
internal_value=-8.8728e-05 0.149738 -0.0474265 -0.0242763 -0.0314893 0.00567237 -0.0409008 0.0070179
internal_weight=4131.55 991.438 3140.11 224.667 219.456 69.5212 169.676 24.3055
internal_count=51051 6483 44568 3004 2969 859 2367 298
is_linear=0
shrinkage=0.05


Tree=39
num_leaves=5
num_cat=0
split_feature=510 510 3 492
split_gain=9194.75 5810.88 316.891 19.9948
threshold=0.36739097500000001 0.36767259000000002 1.0000000180025095e-35 0.46473634000000003
decision_type=2 2 2 2
left_child=3 2 -2 -1
right_child=1 -3 -4 -5
leaf_value=-0.049217988022570838 0.18914879609324753 -0.049102615436029534 -0.046084881210493416 0.032490217968553808
leaf_weight=2881.4101851060987 849.06264984607697 380.7500482685864 14.203445143997667 6.8684108555316916
leaf_count=41081 4258 5433 198 81
internal_value=-6.48469e-05 0.113527 0.18523 -0.0490125
internal_weight=4132.29 1244.02 863.266 2888.28
internal_count=51051 9889 4456 41162
is_linear=0
shrinkage=0.05


Tree=40
num_leaves=7
num_cat=0
split_feature=472 216 345 216 216 105
split_gain=12479.5 1476.55 783.528 231.987 20.4142 430.964
threshold=1.0000000180025095e-35 1.0000000180025095e-35 1.0000000180025095e-35 1.0000000180025095e-35 1.0000000180025095e-35 1.0000000180025095e-35
decision_type=2 2 2 2 2 2
left_child=2 -2 4 -4 -1 -6
right_child=1 -3 3 -5 5 -7
leaf_value=-0.049216598224301397 -0.048605830037307944 0.18921450504573809 -0.045875171327967777 0.18795016185915142 -0.049110250825701023 0.20909448450256557
leaf_weight=2890.1043175570667 70.761562451720238 787.32486062496901 13.309386905282734 45.384696692228317 308.31676751002669 16.072510257363319
leaf_count=41220 997 3949 186 229 4380 90
internal_value=-4.2384e-05 0.169569 -0.0445453 0.135048 -0.0478655 -0.0357137
internal_weight=4131.27 858.086 3273.19 58.6941 3214.49 324.389
internal_count=51051 4946 46105 415 45690 4470
is_linear=0
shrinkage=0.05


Tree=41
num_leaves=10
num_cat=0
split_feature=452 512 452 68 512 510 504 512 457
split_gain=13023.6 2103.1 22.757 3.71516 12.879 18.3309 1.54591 4.71869 0.858942
threshold=1.1037530500000001 -1.2060471999999998 1.1409999500000001 1.0000000180025095e-35 -1.2047593999999997 0.36683383500000005 11.90098075 0.41017195500000003 0.038078043500000006
decision_type=2 2 2 2 2 2 2 2 2
left_child=3 2 -2 6 5 -5 8 -8 -1
right_child=1 -3 -4 4 -6 -7 7 -9 -10
leaf_value=-0.049026202794553123 0.1893958350445378 -0.048784134625337393 0.10936268319335581 -0.044974172611379849 -0.048384618539805933 0.046917999908944352 0.0098669877353176581 -0.045683574010986987 -0.025768865249828334
leaf_weight=3079.1072635017335 833.44587987661362 104.78976730629802 13.660449333488939 10.469819836318493 56.893046192824841 9.3021924719214439 4.8733448758721378 12.69160410761833 7.4264862760901442
leaf_count=43878 4175 1489 98 148 811 109 63 179 101
internal_value=-3.41673e-05 0.162119 0.188236 -0.048597 -0.0364851 -0.001564 -0.0488843 -0.0305699 -0.0489786
internal_weight=4132.66 951.896 847.106 3180.76 76.6651 19.772 3104.1 17.5649 3086.53
internal_count=51051 5762 4273 45289 1068 257 44221 242 43979
is_linear=0
shrinkage=0.05


Tree=42
num_leaves=5
num_cat=0
split_feature=512 228 512 512
split_gain=15024.8 330.141 10.5128 4.1506
threshold=-1.2768775999999997 1.0000000180025095e-35 -1.2446818999999998 -1.2575601999999997
decision_type=2 2 2 2
left_child=1 -1 3 -2
right_child=2 -3 -4 -5
leaf_value=0.18845397047694537 -0.030936295534324056 -0.046860809824439298 -0.049218097055249092 0.014932758731443965
leaf_weight=858.13567860424519 9.794732518494131 14.804268158972262 3245.7760330662131 8.2439971864223462
leaf_count=4340 134 181 46296 100
internal_value=0.000282975 0.184414 -0.0490062 -0.0102901
internal_weight=4136.75 872.94 3263.81 18.0387
internal_count=51051 4521 46530 234
is_linear=0
shrinkage=0.05


Tree=43
num_leaves=8
num_cat=0
split_feature=236 510 512 513 3 473 512
split_gain=5225.53 9634.87 87.5744 241.79 214.027 4.59279 3.07455
threshold=1.0000000180025095e-35 0.36683687500000001 -0.7810652899999998 0.37331083000000004 1.0000000180025095e-35 -0.40204109999999993 -1.1262021999999998
decision_type=2 2 2 2 2 2 2
left_child=2 -2 3 6 5 -5 -1
right_child=1 -3 -4 4 -6 -7 -8
leaf_value=-0.048294233351640958 -0.049179233204985996 0.18976144094076894 -0.049216208388124905 0.2525196155190485 -0.039847797715301413 0.15129317458528971 -0.005355042300741005
leaf_weight=95.152190484106541 863.8405077829957 823.04856397211552 2309.8953138291836 9.5909679085016268 14.043332517147062 9.5927006825804693 4.6357009783387175
leaf_count=1330 12313 4125 32915 68 179 61 60
internal_value=-0.000215272 0.0674455 -0.0469451 -0.00743342 0.107447 0.211906 -0.0463724
internal_weight=4129.8 1686.89 2442.91 133.015 33.227 19.1837 99.7879
internal_count=51051 16438 34613 1698 308 129 1390
is_linear=0
shrinkage=0.05


Tree=44
num_leaves=9
num_cat=0
split_feature=238 281 292 267 476 510 472 468
split_gain=13222.7 821.452 445.282 346.378 126.086 124.668 91.2178 35.6905
threshold=1.0000000180025095e-35 1.0000000180025095e-35 1.0000000180025095e-35 1.0000000180025095e-35 -0.22552964999999997 0.36737621000000004 0.59965077000000011 -0.11694306499999998
decision_type=2 2 2 2 2 2 2 2
left_child=1 2 3 -1 -5 6 -2 -4
right_child=5 -3 7 4 -6 -7 -8 -9
leaf_value=-0.049188574555157592 -0.045374163691075581 0.18941736009192189 0.16794315970852303 -0.043517165838193261 0.18975222990183499 0.18907988198699033 0.16813482692223444 0.042375374970064966
leaf_weight=3258.8046712316573 10.185110419988634 36.552013710141182 23.550085611641411 7.5659697651863125 19.898610785603523 755.25186045467854 8.2505950778722745 8.4361362382769567
leaf_count=46470 130 187 143 107 103 3778 43 90
internal_value=-0.000260716 -0.0432434 -0.0458625 -0.0476847 0.12622 0.185933 0.0539127 0.137114
internal_weight=4128.5 3354.81 3318.26 3286.27 27.4646 773.688 18.4357 31.9862
internal_count=51051 47100 46913 46680 210 3951 173 233
is_linear=0
shrinkage=0.05


Tree=45
num_leaves=19
num_cat=0
split_feature=492 463 361 362 230 3 485 60 271 503 495 457 112 468 490 483 483 483
split_gain=8207.82 3707.18 978.268 521.017 495.209 427.444 105.055 103.943 163.064 130.9 101.233 22.8309 9.56929 9.32173 8.45866 3.61747 8.45246 0.0347172
threshold=-0.029815279999999996 -0.13075623999999997 1.0000000180025095e-35 1.0000000180025095e-35 1.0000000180025095e-35 1.0000000180025095e-35 -0.095650167999999994 1.0000000180025095e-35 1.0000000180025095e-35 -0.51622881499999995 0.42562991000000006 -0.0074175179499999999 1.0000000180025095e-35 0.44133910000000004 -0.18686237999999997 0.009654664000000002 0.011705629000000002 -0.0088040179999999985
decision_type=2 2 2 2 2 2 2 2 2 2 2 2 2 2 2 2 2 2
left_child=2 5 3 4 7 6 14 12 9 -9 -8 -3 15 -6 -2 -1 -17 -14
right_child=1 11 -4 -5 13 -7 10 8 -10 -11 -12 -13 17 -15 -16 16 -18 -19
leaf_value=-0.049164637053473348 0.11961847794019659 0.053533007504611263 0.18904695958271625 0.18755918983802711 0.099021544477558135 -0.045213949945964484 -0.044813575257864752 -0.04863429286745987 0.19821825901738366 0.12679612681147387 0.18537653541447091 -0.049035182740659169 -0.022103960294165319 0.1735113655650895 0.1880923929732061 0.015141372160967156 -0.046561301022661872 -0.01317861067065737
leaf_weight=2888.8768077977002 11.177903160452841 4.7699957266449919 45.019434034824371 23.290312379598618 12.30894470959902 20.496476721018553 10.001479580998422 58.364434443414211 8.9973506629466993 11.96806441247463 7.6408172398805609 235.72703122720122 24.606318153440956 19.42098343372345 715.79859831929207 7.4567192494869259 16.927290566265583 7.2312564477324477
leaf_count=41199 80 52 229 119 90 267 141 807 51 97 41 3356 339 124 3633 92 237 97
internal_value=0.000124329 0.124297 -0.0398677 -0.0432746 -0.0450945 0.178064 0.184263 -0.0471742 0.00919721 -0.0174233 0.0594771 -0.0467876 -0.0486952 0.148523 0.187205 -0.0489958 -0.0278392 -0.0205398
internal_weight=4130.08 1005.61 3124.47 3079.45 3056.16 765.115 744.619 3024.43 79.3298 70.3325 17.6423 240.497 2945.1 31.7299 726.977 2913.26 24.384 31.8376
internal_count=51051 7570 43481 43252 43133 4162 3895 42919 955 904 182 3408 41964 214 3713 41528 329 436
is_linear=0
shrinkage=0.05


Tree=46
num_leaves=8
num_cat=0
split_feature=487 512 512 277 464 512 512
split_gain=11770 1256.17 1039.05 828.157 21.0655 182.913 259.344
threshold=0.19473000500000001 0.40759630500000005 0.42562584500000006 1.0000000180025095e-35 -0.33792555499999993 0.4243380100000001 0.40759630500000005
decision_type=2 2 2 2 2 2 2
left_child=3 -2 -3 4 -1 6 -6
right_child=1 2 -4 -5 5 -7 -8
leaf_value=-0.049216303531420258 -0.048561725502905981 0.18870549030110617 -0.048292320282229545 0.18769953787922497 -0.047536639588417424 -0.049079403902831997 0.19496362764660849
leaf_weight=2813.9599450901151 67.468599237501621 795.75104947388172 48.711513694375753 36.83537845313549 24.401678487658501 325.25341913849115 18.665951535105705
leaf_count=40131 952 3998 687 201 331 4642 109
internal_value=-4.84672e-05 0.158419 0.174994 -0.0449754 -0.0477267 -0.036244 0.0596046
internal_weight=4131.05 911.931 844.463 3219.12 3182.28 368.321 43.0676
internal_count=51051 5637 4685 45414 45213 5082 440
is_linear=0
shrinkage=0.05


Tree=47
num_leaves=17
num_cat=0
split_feature=221 49 486 111 512 298 510 504 503 485 483 510 60 454 485 454
split_gain=13622.7 153.251 128.883 110.761 756.906 59.5431 90.408 36.8531 151.231 15.7186 26.6827 45.8207 2.01715 14.9446 0.930551 1.84192
threshold=1.0000000180025095e-35 1.0000000180025095e-35 -0.09909001499999999 1.0000000180025095e-35 -1.2021837999999998 1.0000000180025095e-35 0.36683601000000005 3.7515739500000005 2.1573566000000004 0.32953578500000008 -0.017691530999999996 0.36737315500000006 1.0000000180025095e-35 -0.41117314999999993 0.05368651650000001 -0.4113312999999999
decision_type=2 2 2 2 2 2 2 2 2 2 2 2 2 2 2 2
left_child=1 3 -2 7 5 6 -5 9 -9 12 -11 -12 14 -14 -1 -16
right_child=2 -3 -4 4 -6 -7 -8 8 -10 10 11 -13 13 -15 15 -17
leaf_value=-0.049062631516573932 -0.042281153257306456 0.16323148554501221 0.18896946582522631 -0.0440611705959476 -0.049076414152138731 0.19821492576321789 0.17612679970174772 -0.047681113566004289 0.2285887470328227 -0.047582590965358398 0.11187281261542213 -0.044498843885135961 -0.04797015736668888 0.030397435342018941 -0.04498830201562351 -0.0099260184157514281
leaf_weight=2864.2827166095376 5.7375735864043227 7.9267316535115233 778.37398198246956 7.9689544290304211 285.90189816057682 33.21675306558609 9.2281578332185727 23.599677257239822 5.2038415893912306 28.458247750997543 7.8356584459543255 9.1305068731307966 37.9982890188694 6.5012246295809737 10.627911455929281 6.5559495463967314
leaf_count=40818 75 52 3899 105 4065 176 48 313 37 404 65 126 542 87 152 87
internal_value=-0.000212963 -0.0442012 0.187226 -0.0447428 -0.0174661 0.159267 0.0772798 -0.0477936 0.00822683 -0.0483393 -0.0186114 0.029927 -0.0487943 -0.0361045 -0.0489776 -0.0328929
internal_weight=4128.55 3344.44 784.112 3336.51 336.316 50.4139 17.1971 3000.19 28.8035 2971.39 45.4244 16.9662 2925.97 44.4995 2881.47 17.1839
internal_count=51051 47077 3974 47025 4394 329 153 42631 350 42281 595 191 41686 629 41057 239
is_linear=0
shrinkage=0.05


Tree=48
num_leaves=3
num_cat=0
split_feature=510 216
split_gain=11420 1182.66
threshold=0.36767955000000008 1.0000000180025095e-35
decision_type=2 2
left_child=-1 -2
right_child=1 -3
leaf_value=-0.048997480363094814 -0.048375551840935338 0.1585832548883786
leaf_weight=3018.7317590378225 73.951627414673567 956.5742070376873
leaf_count=45630 1114 4280
internal_value=6.67021e-05 0.143699
internal_weight=4049.26 1030.53
internal_count=51024 5394
is_linear=0
shrinkage=0.05


Tree=49
num_leaves=41
num_cat=0
split_feature=3 504 510 510 213 459 510 220 213 277 487 151 483 452 488 510 462 465 504 452 452 460 509 510 454 510 495 454 513 510 452 468 454 510 459 457 468 474 468 509
split_gain=2955.79 2522.31 1547.29 1658.59 874.67 817.253 336.116 272.758 254.283 202.716 173.953 144.767 117.409 120.982 47.7511 106.421 46.6264 30.3976 27.447 26.9655 14.8094 10.722 9.59752 8.33134 3.34029 14.6771 3.28784 3.18715 2.37049 31.5542 9.87573 146.396 1.52044 1.48287 1.15082 1.67645 7.55348 0.350673 0.321463 0.140469
threshold=1.0000000180025095e-35 -0.12740894499999997 0.36739097500000001 0.36737750500000005 1.0000000180025095e-35 -0.099965572499999988 0.36769041000000008 1.0000000180025095e-35 1.0000000180025095e-35 1.0000000180025095e-35 0.79698780000000002 1.0000000180025095e-35 -0.0067530532499999992 -1.1304842999999998 -0.16840083499999997 -2.3828425499999999 -0.09795187499999998 1.7577120500000001 5.2249338000000014 0.38359701500000004 0.10411759500000002 0.10903517000000001 5.6481601500000007 0.36737056000000007 -0.41132871499999996 0.36766130000000002 1.2335351500000002 2.0752427500000006 0.37329108000000005 0.3668021150000001 0.321142435 -0.11694007499999999 -0.41128363999999989 0.36736750000000007 -0.079237271999999984 -0.0072429294999999993 -0.11274137999999999 5.711084650000001 -0.11695216799999998 0.14537109500000003
decision_type=2 2 2 2 2 2 2 2 2 2 2 2 2 2 2 2 2 2 2 2 2 2 2 2 2 2 2 2 2 2 2 2 2 2 2 2 2 2 2 2
left_child=4 2 3 5 26 7 10 8 -2 -3 17 -7 14 -14 -10 -16 27 18 21 -20 -11 24 -13 -23 25 33 -1 32 29 30 37 -32 -5 -6 -34 36 -36 -26 -37 -22
right_child=1 9 -4 16 6 11 -8 -9 12 20 -12 22 13 -15 15 -17 -18 -19 19 -21 39 23 -24 -25 28 -27 -28 -29 -30 -31 31 -33 34 -35 35 38 -38 -39 -40 -41
leaf_value=0.1821789727103299 0.15684003672468666 0.1646685103262012 0.16356560610123647 -0.014309218811513764 -0.017840551728875997 0.16331068602572596 0.15312991345155771 0.16068188270282491 -0.047154580861539751 0.050235791830228319 0.12521960336747245 -0.038335823045855533 -0.045647898941880594 0.15003140336158804 -0.04602007885550826 0.17782169863906538 0.080121989141834118 0.071603594000818893 0.08694723218131073 -0.043458361115600697 -0.02197538914092707 0.035332594504246799 0.039908730158066771 -0.034776473762223994 -0.048811593061001718 0.043986524001032506 0.130936204154769 -0.0035995443663064497 -0.048517620300786324 0.034840781497777154 -0.04849632013555695 0.21369330335574899 -0.048786002448624362 -0.047608078867570625 0.023014900097803086 -0.022416520622027886 -0.04323613469510465 -0.026582740814401276 -0.045140483012189973 -0.042488479351103364
leaf_weight=29.80511374771595 21.268744975328445 390.19289915263653 156.43912010639906 4.5247055366635314 6.8117181435227385 179.67856451123953 20.695518746972084 27.460244715213776 150.68443608656526 7.586443893611432 13.999893106520174 7.8498977869749051 13.105190314352514 17.561632692813873 14.778322249650957 7.0446748733520499 6.4040499106049529 4.6312180161476126 6.8710132315754873 7.0977889522910118 6.0529196411371231 6.4741870909929267 6.0417545288801193 8.8079914823174459 440.34423112869263 4.8513091653585425 21.825505934655666 4.3654276207089415 1546.2070426791906 11.727449558675287 64.838144421577454 4.8053862601518622 609.14897713065147 28.250876426696777 5.057724297046664 4.5869672149419776 15.916653260588644 5.6402451023459426 147.70187645405531 5.8179303929209709
leaf_count=149 97 1799 719 59 87 825 93 129 2239 59 79 105 192 98 218 37 46 36 53 97 69 60 59 107 6621 59 121 56 23264 124 942 36 9176 400 62 68 236 85 2188 75
internal_value=0.000383581 0.0478718 0.0158908 -0.00280881 -0.0380857 0.074376 -0.0429263 0.0148611 -0.00361347 0.156834 -0.0448735 0.151352 -0.021096 0.0676088 -0.0371639 0.0308635 -0.0459513 -0.0460402 -0.0463277 0.0222093 -0.000651471 -0.0467877 -0.00391096 -0.0047294 -0.0470894 -0.0311524 0.163417 -0.0470714 -0.047381 -0.0439631 -0.0458194 -0.0276364 -0.0473077 -0.0424801 -0.04748 -0.042635 -0.0269401 -0.0485906 -0.0446067 -0.0345489
internal_weight=4042.95 1809.27 1399.62 1243.18 2233.68 445.473 2182.05 251.903 224.443 409.65 2161.36 193.57 203.174 30.6668 172.507 21.823 797.706 2147.36 2142.73 13.9688 19.4573 2128.76 13.8917 15.2822 2113.48 39.9139 51.6306 791.302 2073.56 527.355 515.628 69.6435 786.937 35.0626 782.412 173.263 20.9744 445.984 152.289 11.8709
internal_count=51024 18611 16609 15890 32413 3999 32143 3010 2881 2002 32050 989 2784 290 2494 255 11891 31971 31935 150 203 31785 164 167 31618 546 270 11845 31072 7808 7684 978 11789 487 11730 2554 298 6706 2256 144
is_linear=0
shrinkage=0.05


Tree=50
num_leaves=9
num_cat=0
split_feature=464 459 282 481 510 510 512 512
split_gain=9801.84 2180.1 45.8637 121.931 52.3854 245.652 24.3784 91.2272
threshold=1.6183220000000003 -0.10411123249999998 1.0000000180025095e-35 0.81371392500000017 0.36738619000000006 0.36739097500000001 0.42562584500000006 0.43979191500000003
decision_type=2 2 2 2 2 2 2 2
left_child=2 -2 -1 4 -4 -6 -3 -8
right_child=1 6 3 -5 5 -7 7 -9
leaf_value=-0.048961216591981993 0.15877574352744242 -0.048676369373605907 -0.04839099685026732 0.18829062914999681 0.17137943919323337 -0.048149033402132987 0.16237376186352756 -0.047090684500898594
leaf_weight=2749.9279775507748 914.48349593579769 135.33160101622343 142.68093699961901 5.5293056517839423 15.799301594495772 51.787578292191029 5.8581293225288418 20.480075120925903
leaf_count=41552 4104 2037 2126 31 77 772 36 289
internal_value=-0.000309764 0.128879 -0.0472153 -0.0248438 -0.0313132 0.00491908 -0.0401676 0.00373356
internal_weight=4041.88 1076.15 2965.73 215.797 210.268 67.5869 161.67 26.3382
internal_count=51024 6466 44558 3006 2975 849 2362 325
is_linear=0
shrinkage=0.05


Tree=51
num_leaves=7
num_cat=0
split_feature=513 512 503 464 484 455
split_gain=7882.62 4397.24 144.716 25.3813 10.8775 20.7491
threshold=0.37360826000000008 1.2743019000000002 -0.5358527649999999 0.81575887000000014 0.12058385000000002 0.29028371500000005
decision_type=2 2 2 2 2 2
left_child=4 2 3 -2 -1 -6
right_child=1 -3 -4 -5 5 -7
leaf_value=-0.048997545812690904 -0.047168967503261633 -0.048874352580574869 0.15842158484331592 0.073486430354624044 0.071664638111831033 -0.04502271681977435
leaf_weight=2709.5575527213514 9.0794096291065198 359.9127159267664 944.0473643951118 6.6855049282312384 4.7585536241531363 10.278301313519476
leaf_count=40938 106 5445 4275 56 62 142
internal_value=-0.000182901 0.100071 0.155915 0.00532928 -0.0487621 -0.00592979
internal_weight=4044.32 1319.72 959.812 15.7649 2724.59 15.0369
internal_count=51024 9882 4437 162 41142 204
is_linear=0
shrinkage=0.05


Tree=52
num_leaves=10
num_cat=0
split_feature=472 216 345 216 283 452 216 472 512
split_gain=10342.9 1056.36 675.601 170.157 33.699 114.381 6.8455 175.127 0.251116
threshold=1.0000000180025095e-35 1.0000000180025095e-35 1.0000000180025095e-35 1.0000000180025095e-35 1.0000000180025095e-35 -1.4145875499999998 1.0000000180025095e-35 -0.26744465499999998 0.36123463500000008
decision_type=2 2 2 2 2 2 2 2 2
left_child=2 -2 4 -4 6 -6 -1 -8 -3
right_child=1 8 3 -5 5 -7 7 -9 -10
leaf_value=-0.048995397454042272 -0.0483394233225811 0.12110747634099801 -0.045458501270342754 0.15805599106425769 0.15216473623459206 -0.047412931909830452 -0.048840847028135265 0.13089561883783207 0.15948138771850046
leaf_weight=2695.0635484047234 65.666485570371151 16.91290707886219 12.38361471891403 49.942362546920776 8.3670981377363187 29.734439544379711 289.58549976348877 13.271380625665186 864.91032434999943
leaf_count=40740 979 77 182 225 39 450 4381 75 3876
internal_value=8.8317e-06 0.144486 -0.0442053 0.11754 -0.0475634 -0.000815003 -0.048157 -0.0405598 0.158883
internal_weight=4045.84 947.49 3098.35 62.326 3036.02 38.1015 2997.92 302.857 881.823
internal_count=51024 4932 46092 407 45685 489 45196 4456 3953
is_linear=0
shrinkage=0.05


Tree=53
num_leaves=8
num_cat=0
split_feature=512 512 3 512 512 512 68
split_gain=8392.77 4093.1 27.376 21.8431 45.669 9.86753 0.817632
threshold=-1.2060471999999998 -1.2446818999999998 1.0000000180025095e-35 -1.2408183999999998 -1.2395305999999997 -1.2086228999999997 1.0000000180025095e-35
decision_type=2 2 2 2 2 2 2
left_child=1 -1 5 -4 -5 -3 -2
right_child=6 2 3 4 -6 -7 -8
leaf_value=-0.048930733410380484 -0.049000483000879544 0.1589560268050253 0.14375170540515642 0.13490767708856474 -0.027684543337449963 0.20447615861945112 -0.040575130935217057
leaf_weight=316.72187177836895 2717.6442523375154 887.23291914910078 19.555331289768219 8.1397383473813516 7.6490886136889449 23.988539226353168 62.829293005168438
leaf_count=4741 41026 3978 96 39 94 131 919
internal_value=-0.000272736 0.106543 0.158562 0.10864 0.0591807 0.160377 -0.0488248
internal_weight=4043.76 1263.29 946.566 35.3442 15.7888 911.221 2780.47
internal_count=51024 9079 4338 229 133 4109 41945
is_linear=0
shrinkage=0.05


Tree=54
num_leaves=7
num_cat=0
split_feature=513 454 3 453 513 513
split_gain=7475.26 4897.74 30.4983 47.1535 9.22966 9.05387
threshold=0.37328722500000006 -0.32218652499999995 1.0000000180025095e-35 -0.5563466199999999 0.37329301500000006 0.37329108000000005
decision_type=2 2 2 2 2 2
left_child=1 2 -1 -4 5 -2
right_child=4 -3 3 -5 -6 -7
leaf_value=0.158026390281919 -0.037888598747807742 -0.048798540895675473 -0.022075863728375791 0.12958548088881769 -0.048994243357886678 0.042172299987516121
leaf_weight=931.41783612966537 7.6911161318421346 416.48187519237399 5.8947781622409812 28.201522961258888 2655.5063988529146 4.9614766836166382
leaf_count=4211 108 6272 73 152 40149 59
internal_value=9.24669e-05 0.094437 0.156209 0.103483 -0.0487912 -0.00570478
internal_weight=4050.16 1382 965.514 34.0963 2668.16 12.6526
internal_count=51024 10708 4436 225 40316 167
is_linear=0
shrinkage=0.05


Tree=55
num_leaves=14
num_cat=0
split_feature=452 452 453 236 513 467 485 477 452 513 513 513 452
split_gain=4969.97 5499.38 156.051 141.159 1214.79 66.0043 5.77461 12.8967 5.84088 4.86389 168.317 1.88981 0.555794
threshold=0.94085120000000011 0.95282643000000011 -0.5594893999999998 1.0000000180025095e-35 0.3733151850000001 0.043914352000000011 -0.092440707499999983 -0.30619056499999991 0.95996471500000013 0.37337977000000006 0.37332144000000006 0.37331301500000008 0.96759310000000009
decision_type=2 2 2 2 2 2 2 2 2 2 2 2 2
left_child=3 2 -2 9 -5 6 8 -8 -3 10 11 -1 -10
right_child=1 5 -4 4 -6 -7 7 -9 12 -11 -12 -13 -14
leaf_value=-0.048458596088881097 -0.039901450772446487 -0.0074266082938568498 0.1578326067694576 -0.048910572843396838 0.16023307568780934 0.069967539199554091 -0.045940865092905715 0.030406456453943159 -0.028046375231448289 -0.048982573760510698 0.12618871357560402 -0.021621151034946787 -0.047906637547688348
leaf_weight=435.66363597288728 9.7310082986950857 9.5890224650502187 840.66746160387993 490.09037347882986 79.874652855098248 11.698375180363653 14.911290261894466 7.6330025270581237 8.4322528466582281 1577.5122171863914 13.383197247982023 8.9694378562271577 533.04087850451469
leaf_count=6564 144 126 3789 7413 364 116 225 92 125 23844 87 101 8034
internal_value=-0.00025577 0.0744114 0.155526 -0.0414123 -0.019372 -0.0435052 -0.0459371 -0.0198978 -0.0469644 -0.0475713 -0.0426143 -0.0479669 -0.0476496
internal_weight=4041.2 1435.7 850.398 2605.49 569.965 585.305 573.606 22.5443 551.062 2035.53 458.016 444.633 541.473
internal_count=51024 12651 3933 38373 7777 8718 8602 317 8285 30596 6752 6665 8159
is_linear=0
shrinkage=0.05


Tree=56
num_leaves=6
num_cat=0
split_feature=238 105 219 510 472
split_gain=10940.8 503.599 1114.03 87.1638 76.3124
threshold=1.0000000180025095e-35 1.0000000180025095e-35 1.0000000180025095e-35 0.36737621000000004 0.59965077000000011
decision_type=2 2 2 2 2
left_child=1 -1 -3 4 -2
right_child=3 2 -4 -5 -6
leaf_value=-0.048962487291669556 -0.045173795415120566 -0.048243347564684874 0.16465915271649104 0.1586880242646892 0.14576480045318854
leaf_weight=2895.9022897519171 10.123295001685621 186.72407573089004 90.362230248749256 861.11258577555418 9.0983766168355924
leaf_count=43771 135 2807 418 3851 42
internal_value=0.000474579 -0.0428018 0.02153 0.156327 0.0479439
internal_weight=4053.32 3172.99 277.086 880.334 19.2217
internal_count=51024 46996 3225 4028 177
is_linear=0
shrinkage=0.05


Tree=57
num_leaves=19
num_cat=0
split_feature=492 463 361 362 230 512 512 296 26 484 457 110 271 472 483 483 512 512
