tree
version=v4
num_class=12
num_tree_per_iteration=12
label_index=0
max_feature_idx=16
objective=multiclass num_class:12
feature_names=Column_0 Column_1 Column_2 Column_3 Column_4 Column_5 Column_6 Column_7 Column_8 Column_9 Column_10 Column_11 Column_12 Column_13 Column_14 Column_15 Column_16
feature_infos=[-1.4132368564605713:1.3727619647979736] [-0.56637465953826904:3.1732172966003418] [-0.41183158755302429:5.7634105682373047] [-0.0086222700774669647:145.10179138183594] [-0.25125625729560852:20.15167236328125] [-0.16013482213020325:84.85809326171875] [-0.27390724420547485:14.287200927734375] [-0.30762219429016113:12.177189826965332] [-0.044751960784196854:238.5574951171875] [-0.10050466656684875:26.285633087158203] [-0.17727164924144745:68.435325622558594] [-0.19681711494922638:38.581657409667969] [-0.71812248229980469:13.670368194580078] [-0.560577392578125:2.1946074962615967] [-0.13040626049041748:11.121438026428223] [-4.6618070602416992:0.36750110983848572] [-1.3154065608978271:2.2043607234954834]
tree_sizes=464 5144 1709 1077 1079 1382 1279 2526 773 2124 2003 2529 476 5255 1960 1098 1104 1439 1320 1636 796 2191 1209 1114 478 5278 3389 1202 1108 1433 1320 3263 689 2185 1116 1224 477 5273 1108 1203 902 1977 1217 3041 794 2508 2385 1983 473 5262 2184 1099 1010 2175 1008 1642 583 1550 1216 1226 476 5264 1103 1204 903 1644 1009 2505 796 1553 1956 1328 476 5303 2191 1206 1116 1424 1007 2835 587 1659 1634 1537 478 5290 1861 1203 1110 1867 1009 1748 1520 3368 1319 1333 478 5294 2509 1319 586 1535 1013 3911 587 1774 1430 2194 481 5314 1978 1425 1224 1547 1117 1540 586 2623 1980 1332 477 5329 2404 1116 1119 1548 1007 1643 585 2832 1762 695 479 5311 2634 1416 917 1549 1111 3385 584 3473 1450 1879 480 5310 2729 1428 1119 1337 1007 1653 589 1568 2316 1336 479 5296 1222 1326 683 1543 1108 1867 586 1451 1974 800 481 5321 2625 1329 912 1543 907 1642 587 1567 1554 1437 480 5308 1327 1425 910 1753 1009 4139 588 1021 2067 1011 479 5309 2088 1531 911 1875 906 1649 590 1013 1546 1339 692 5330 1327 1323 911 1641 902 1857 587 1239 2281 1438 586 5312 2094 1224 914 1544 1005 4138 693 3500 1441 1334 693 5328 1117 1331 907 1652 1005 1545 694 1868 1975 1010 693 5323 1327 1327 1021 1010 798 1753 801 1236 1630 584 588 5329 1330 1438 1012 1548 1009 1850 588 1764 1644 1438 585 5332 3265 1223 916 1444 1008 1536 801 1980 1976 695 587 5349 1329 1434 913 1443 902 2070 590 906 2091 1113 589 5312 1332 1111 911 803 1114 1653 588 1015 1642 2199 587 5316 2955 1540 912 2098 802 1749 586 1236 1755 1335 585 5311 1324 1647 912 1439 908 1746 587 905 2389 694 588 5334 1222 1319 907 1645 902 1755 585 1659 1857 1544 588 5347 2952 1220 1125 1436 901 1843 588 1014 1549 1765 585 5310 1225 2313 1017 1549 907 1851 588 909 1877 1983 585 5318 1224 1224 1235 1010 901 1961 588 2079 2613 4867 585 5332 1219 1329 1228 1654 909 1959 588 899 2410 1973 586 5307 1226 1221 912 1546 690 1740 898 1012 1551 908 586 5308 1222 1439 918 1648 1010 2292 587 1117 2391 1332 581 5334 2188 1217 1023 1553 687 2060 590 1112 1555 1869 586 5330 1213 1439 920 1551 798 3805 588 1117 1859 1016 586 5320 1230 1954 1019 1545 685 3475 590 2197 1753 1011 587 5316 1229 1548 1019 1533 690 1748 584 1117 1769 1224 584 5310 1221 1431 1015 1545 689 1648 700 1232 1968 1119 586 5316 1760 1332 1017 1552 803 1747 589 1116 2070 908 586 5335 1330 2210 1762 1232 692 2079 588 1010 2073 1112 586 5308 1226 1753 1022 1972 581 2278 588 1003 1872 1118 588 5306 2081 1857 1017 1438 590 2297 698 1330 2177 1116 585 5310 1221 1649 1013 1651 585 1753 699 899 1880 1120 586 5339 1866 1434 1019 1654 586 2179 907 1333 1869 1118 588 5333 1221 1329 1021 1765 586 1757 584 1336 2175 1118 585 5308 2855 1007 904 1543 580 1762 585 1225 1855 1112 585 5335 3086 1549 1336 1125 585 4036 587 2109 2619 1117 586 5341 1434 1107 1127 1870 593 2076 588 1441 1963 1118 583 5326 1878 1428 695 1123 585 2500 588 1230 1869 4840 585 5332 1898 1645 1339 1656 586 1859 586 1776 2607 2643 584 5332 1874 1544 697 2101 586 1434 588 1553 1855 1119 687 5328 1436 1751 1024 2309 585 3933 588 1222 2629 905 692 5342 1979 1759 1441 1656 585 1761 583 1226 2089 1119 582 5339 1336 1648 1115 1122 700 2621 587 1660 2626 3744 584 5324 1764 1551 1231 1333 592 2397 695 1765 2625 897 692 5317 1444 1755 1443 1551 593 1975 587 1120 2296 907 585 5327 1652 1115 1223 1116 580 2722 591 1338 2080 1229 582 5341 1663 1219 804 1228 582 2078 588 1881 3280 1221 690 5327 1440 1872 1557 1543 586 2396 585 1445 2951 1442 584 5338 1444 1219 1445 1663 585 2397 585 1658 3385 1228 688 5357 1550 1664 1553 1772 581 2619 701 1547 2083 1446 582 5346 2092 1219 1555 1232 583 2860 588 1763 3065 1113 582 5355 1995 1222 693 2107 584 2741 589 1331 3055 1323 584 5377 2212 1109 1014 1232 582 2200 589 1669 2741 1229 689 5355 3121 1332 1768 1558 590 1863 586 1769 1760 1227 583 5356 1661 1220 1459 1659 580 2204 591 1234 3607 1108 691 5350 1334 1226 1776 1782 583 2186 591 1663 3285 2121 691 5349 2218 1111 1551 1556 699 2508 586 1664 3178 1445 691 5367 2359 1110 1452 1231 587 2196 591 1780 3178 1110 690 5355 1437 1116 1666 1671 583 2417 589 2328 4041 1006 585 5342 2461 1013 907 1781 698 2859 700 1781 3953 1218 588 5343 3932 1334 1667 1231 584 2634 589 1446 3193 1998 692 5353 1230 1777 1437 1996 703 2851 590 1996 2538 1120 584 5363 2564 2097 1560 1672 583 1656 701 1451 3874 1336 695 5361 2685 1226 2212 1127 803 2736 588 2002 3307 2357 694 5377 1884 1439 1121 1571 585 2848 587 1798 2528 1118 694 5374 3035 1325 1774 1017 584 2846 588 1557 1987 1554 699 5361 2595 1109 1008 1567 584 2630 590 1239 2966 2225 691 5363 1465 1327 2106 1233 580 2753 586 1798 2756 1116 697 5372 1013 905 1333 1676 1821 2414 590 1565 2865 2021 695 5394 2364 1114 1998 1017 806 2092 703 1560 3410 1116 695 5391 2350 1226 1451 1232 701 2845 587 1557 2660 1227 696 5377 3717 1329 1235 1464 816 2758 700 2009 2752 1232 698 5392 2254 1334 1911 1347 918 3196 702 1802 2315 1452 807 5361 1340 1012 1229 1358 1144 2541 593 1129 2759 2139 699 5412 1339 1333 1231 1232 1476 2977 597 1685 2648 1566 698 5413 2608 1231 1556 2021 1038 2868 592 1229 2645 2364 694 5410 2247 1921 1790 1794 700 2658 595 1686 2758 1675 697 5388 1125 1913 1232 1347 698 2546 703 1573 3197 1796 698 5400 1805 1694 2359 2463 1147 2654 589 2132 5023 2138 698 5430 2047 1240 1009 2022 1142 2766 707 1912 3444 1131 915 5422 1354 1352 1350 1458 921 2115 482 2026 2337 1565 699 5421 1243 2033 1897 1908 1145 3665 708 1134 2879 1456 699 5405 1127 2360 2242 2134 592 2651 703 1352 2009 913 700 5418 3061 2247 1369 1452 587 4886 705 1134 2659 2484 700 5384 1813 1238 1124 1682 1140 4006 706 2030 3251 2149 698 5408 2166 1918 1790 2037 1148 2575 590 1687 3585 1353 701 5419 1127 1911 2140 1696 924 4130 705 1574 3215 1672 701 5417 2146 1133 2025 1911 1267 5489 707 1692 3453 1465 701 5433 2722 2374 1025 2289 1152 3098 481 1469 2911 1237 701 5402 2717 2030 1918 1573 1265 5407 483 1799 4172 3092 809 5409 1572 2144 2357 1589 702 2883 1047 1575 4283 1574 702 5445 2145 1803 1485 1920 1382 4011 709 1351 4744 1351 701 5431 1809 1696 3526 1575 592 3906 483 1584 3373 1349 817 5445 2842 1820 2017 1691 589 4123 483 2150 3823 1800 699 5440 2274 1468 1353 1696 703 3694 818 1576 4845 1462 701 5452 2163 1702 2472 1929 1505 3471 483 2159 3010 1352 926 5475 2156 1701 1145 2280 1274 2999 482 3193 2686 2040 701 5460 1024 1821 2688 1362 591 5395 937 1351 3829 2046 700 5441 1363 1693 1034 2045 929 3013 483 1810 2360 2160

Tree=0
num_leaves=3
num_cat=0
split_feature=15 0
split_gain=116216 32695.3
threshold=0.36719447374343878 -1.4116423726081846
decision_type=2 2
left_child=-1 -2
right_child=1 -3
leaf_value=-2.5349025408745196 -1.9376283399126246 -2.5347329381544794
leaf_weight=12167.667029291391 1138.0000339150429 286.8333418816328
leaf_count=146012 13656 3442
internal_value=-2.48486 -2.05778
internal_weight=13592.5 1424.83
internal_count=163110 17098
is_linear=0
shrinkage=1


Tree=1
num_leaves=48
num_cat=0
split_feature=16 6 4 16 9 16 16 2 16 0 11 10 0 14 14 16 13 13 16 2 12 13 10 14 13 16 6 3 9 8 7 13 0 4 0 16 7 16 16 9 0 0 16 16 6 6 7
split_gain=39534.2 13401.5 5901.18 22122.6 5667.17 5521.88 2354.35 2169.33 1924.97 1704.6 1697.76 2173.97 970.268 819.88 8242.03 1846.44 1353.12 1068.77 794.908 783.088 758.188 696.938 574.396 396.51 499.586 386.839 381.149 366.718 171.552 158.602 328.594 150.438 113.506 466.349 103.335 84.5294 935.563 165.721 82.1515 76.0789 633.293 2704.28 847.495 687.076 254.325 385.701 148.186
threshold=1.3340815901756289 -0.27390661835670466 0.17380474507808688 0.40775918960571295 -0.094254240393638597 1.1949399113655093 0.3832805752754212 3.9438595771789555 1.0000000180025095e-35 1.1776859164237978 1.365332365036011 -0.074380379170179353 -0.019110686145722863 -0.12980534136295316 -0.054432500153779977 1.2748175263404848 2.1401429176330571 -0.54197409749031056 0.43996790051460272 -0.41180862486362452 1.0000000180025095e-35 -0.53949365019798268 0.68314796686172496 0.50167833268642437 -0.51754802465438832 0.42708441615104681 -0.2733789831399917 -0.0080617675557732565 -0.10046235844492911 0.040913423523306854 -0.25778466463088984 -0.53945159912109364 1.0037416815757754 -0.19159857183694837 1.227730453014374 0.37619465589523321 -0.30562818050384516 -1.0764179825782774 -1.2091178894042967 -0.10000119730830191 -1.4008851051330564 -1.0925390720367429 1.0000000180025095e-35 -1.1988111138343809 -0.27255576848983759 -0.27382162213325495 -0.30762146413326258
decision_type=2 2 2 2 2 2 2 2 2 2 2 2 2 2 2 2 2 2 2 2 2 2 2 2 2 2 2 2 2 2 2 2 2 2 2 2 2 2 2 2 2 2 2 2 2 2 2
left_child=1 4 7 19 6 25 -1 9 -9 13 11 -8 -6 29 16 17 -15 20 -10 -4 -16 -21 -14 35 26 -5 -25 -27 31 39 -31 -13 33 38 -11 36 37 -19 -26 40 42 43 -3 -42 45 46 -43
right_child=-2 2 3 5 12 -7 10 8 18 34 -12 28 22 14 15 -17 -18 23 -20 21 -22 -23 -24 24 32 27 -28 -29 -30 30 -32 -33 -34 -35 -36 -37 -38 -39 -40 -41 41 44 -44 -45 -46 -47 -48
leaf_value=-1.9670905619607295 -1.9366213852924545 -2.0387528057536017 -2.4772143424560982 -2.5310714225447977 -1.9913169087013776 -1.9684201671813015 -1.9956858741186787 -1.9718297304243759 -2.5047436065380366 -2.2703905218535594 -1.95011402696595 -2.2974066508124551 -2.526349890017384 -1.9491461361413895 -2.0182399861774516 -1.9705823286498032 -2.4310105465631899 -2.5273909922271529 -1.9971708030501212 -1.9483605419713625 -2.5309850812682546 -2.4749066501456283 -2.0488307020117853 -2.5037378188808002 -2.3274992431757302 -2.4465345573526514 -1.9885651889644484 -2.0174066514979083 -2.2599066509521535 -2.5314975589735811 -2.1163020001592474 -2.5263555809803959 -2.532603386873467 -2.0217487566362125 -1.975647393543722 -2.5337689467273949 -2.0465345591534434 -2.2699715857705294 -2.5193626084733776 -2.5327782656732696 -2.4472143426109731 -2.2838862427157904 -2.5342353058959772 -1.9626995690615581 -2.5232637003295224 -2.2336300558865845 -2.5100039262439746
leaf_weight=151.25000450760126 319.75000952929258 7.6666668951511374 7.6666668951511374 1055.0000314414501 8.7500002607703191 45.250001348555088 31.083334259688854 31.500000938773155 60.333335131406784 6.7500002011656788 35.166667714715004 7.0000002086162558 145.08333765715361 76.250002272427082 17.000000506639484 14.416667096316813 18.250000543892384 278.41667496412992 7.8333335667848578 229.41667350381613 11.750000350177286 6.5000001937150946 5.5833334997296324 5.416666828095912 5.7500001713633528 20.500000610947613 9.2500002756714803 5.6666668355464926 7.0000002086162558 13.666667073965074 6.1666668504476538 69.166668727993965 42.416667930781841 5.3333334922790518 12.500000372529028 1625.0833817645907 9.7500002905726415 5.416666828095912 31.166667595505714 5872.0001749992371 9.8333336263895017 7.1666668802499762 2754.6667487621307 29.583334214985371 385.50001148879528 18.583333887159824 63.250001884996891
leaf_count=1815 3837 92 92 12660 105 543 373 378 724 81 422 84 1741 915 204 173 219 3341 94 2753 141 78 67 65 69 246 111 68 84 164 74 830 509 64 150 19501 117 65 374 70464 118 86 33056 355 4626 223 759
internal_value=-2.48514 -2.49839 -2.50792 -2.40989 -2.23355 -2.50346 -2.10612 -2.51966 -2.28855 -2.52171 -2.24937 -2.34532 -2.47475 -2.52253 -2.49478 -2.5158 -2.04067 -2.51989 -2.44021 -1.97886 -2.2223 -1.96276 -2.5059 -2.52426 -2.42727 -2.52631 -2.16789 -2.33981 -2.48025 -2.52905 -2.39091 -2.50316 -2.47537 -2.41814 -2.0633 -2.52931 -2.50452 -2.52174 -2.48612 -2.52936 -2.52322 -2.47228 -2.5327 -2.07965 -2.50567 -2.42991 -2.4845
internal_weight=13592.5 13272.8 12812.7 1370 460.083 1126.42 300.667 11442.7 99.6667 11343 149.417 114.25 159.417 11323.8 2155.67 2061.17 94.5 2046.75 68.1667 243.583 28.75 235.917 150.667 2018 99.3333 1081.17 14.6667 26.1667 83.1667 9168.08 19.8333 76.1667 84.6667 42.25 19.25 1918.67 293.583 283.833 36.9167 9148.25 3276.25 513.917 2762.33 39.4167 474.5 89 70.4167
internal_count=163110 159273 153752 16440 5521 13517 3608 137312 1196 136116 1793 1371 1913 135885 25868 24734 1134 24561 818 2923 345 2831 1808 24216 1192 12974 176 314 998 110017 238 914 1016 507 231 23024 3523 3406 443 109779 39315 6167 33148 473 5694 1068 845
is_linear=0
shrinkage=1


Tree=2
num_leaves=15
num_cat=0
split_feature=5 5 6 4 4 15 9 15 15 6 16 16 16 5
split_gain=61544.2 83003.6 134.421 113.651 1159.36 1346.04 133.234 33.2029 292.458 10.1342 12.8246 4.03189 540.303 0.953768
threshold=0.0067185859661549338 0.013563854154199364 -0.26578746736049647 0.12906147912144664 0.17380474507808688 0.36690235137939459 -0.04615622200071811 0.36690278351306921 0.36690755188465124 -0.2697682231664657 0.43094944953918463 0.42579606175422674 0.43867954611778265 -0.085692528635263429
decision_type=2 2 2 2 2 2 2 2 2 2 2 2 2 2
left_child=3 -2 9 -1 5 13 7 -6 -9 11 -11 -3 -13 -5
right_child=1 2 -4 4 6 -7 -8 8 -10 10 -12 12 -14 -15
leaf_value=-2.5349017830160321 -1.9368045304152817 -2.5348329034775103 -2.3220034248932953 -2.5037378188808002 -2.5348447302851995 -2.0104311286111858 -2.3403120561371096 -2.253954270237883 -2.5342962734071897 -2.5293510943796167 -2.4405246277907224 -2.1526057665893692 -2.5348164513541231 -2.5326252810315957
leaf_weight=10272.750306151807 1105.5000329464674 677.00002017617226 6.7500002011656752 5.4166668280959156 806.50002403557301 22.833334013819695 8.2500002458691579 9.5000002831220609 80.916669078171253 8.0000002384185773 6.4166668578982344 8.4166669175028783 553.33334982395172 20.91666729003191
leaf_count=123273 13266 8124 81 65 9678 274 99 114 971 96 77 101 6640 251
internal_value=-2.48453 -2.25279 -2.53027 -2.53337 -2.5168 -2.28275 -2.52972 -2.53162 -2.50264 -2.53152 -2.4895 -2.532 -2.52851 -2.52759
internal_weight=13592.5 2365.42 1259.92 11227.1 954.333 49.1667 905.167 896.917 90.4167 1253.17 14.4167 1238.75 561.75 26.3333
internal_count=163110 28385 15119 134725 11452 590 10862 10763 1085 15038 173 14865 6741 316
is_linear=0
shrinkage=1


Tree=3
num_leaves=9
num_cat=0
split_feature=15 15 13 11 7 5 2 4
split_gain=56202.9 84103.2 4630.41 1043.15 482.007 268.747 254.074 166.654
threshold=0.36690755188465124 0.36718840897083288 -0.53959873318672169 1.6015195250511172 -0.30672702193260187 0.013563854154199364 -0.41074416041374201 -0.19159857183694837
decision_type=2 2 2 2 2 2 2 2
left_child=-1 2 5 4 7 -2 -7 -4
right_child=1 -3 3 -5 -6 6 -8 -9
leaf_value=-2.5349020899978867 -2.5334396571654008 -2.5348718994125727 -1.9385189628236845 -2.5290242970015071 -2.3537745751812484 -2.5274992425686458 -2.1063352230776964 -2.2185430148748257
leaf_weight=10964.416993431747 33.083334319293499 1437.8333761841059 1120.1667000502348 7.500000223517417 7.8333335667848578 5.7500001713633537 7.7500002309679967 8.1666669100522977
leaf_count=131573 397 17254 13442 90 94 69 93 98
internal_value=-2.48512 -2.2775 -1.96681 -1.94692 -1.94304 -2.4561 -2.27629 -1.94031
internal_weight=13592.5 2628.08 1190.25 1143.67 1136.17 46.5833 13.5 1128.33
internal_count=163110 31537 14283 13724 13634 559 162 13540
is_linear=0
shrinkage=1


Tree=4
num_leaves=9
num_cat=0
split_feature=6 0 0 6 15 15 16 16
split_gain=112567 18700.4 1473.21 14545.4 455.115 96.1678 7.64231 21.1975
threshold=0.14431785047054294 -1.4132155776023863 -1.4132155776023863 -0.27097961306571955 0.36667135357856756 0.36688545346260076 0.37426212430000311 -0.36396139860153193
decision_type=2 2 2 2 2 2 2 2
left_child=2 -2 3 6 -5 -6 7 -1
right_child=1 -3 -4 4 5 -7 -8 -9
leaf_value=-2.5319509848462483 -1.9362452759472109 -2.534575158085107 -2.534902160920526 -2.4285775363445783 -1.9410157449772099 -2.1730018896588756 -2.5348631179021894 -2.4243803344783772
leaf_weight=15.9166671410203 1007.5000300258398 149.83333779871464 11137.666998594999 5.5833334997296324 113.58333671838045 9.5000002831220609 1147.5833675339818 5.3333334922790518
leaf_count=191 12090 1798 133652 67 1363 114 13771 64
internal_value=-2.48512 -2.01368 -2.52903 -2.47861 -1.97617 -1.95626 -2.53431 -2.50345
internal_weight=13592.5 1157.33 12435.2 1297.5 128.667 123.083 1168.83 21.25
internal_count=163110 13888 149222 15570 1544 1477 14026 255
is_linear=0
shrinkage=1


Tree=5
num_leaves=12
num_cat=0
split_feature=0 16 0 16 0 8 16 4 13 4 3
split_gain=100570 43477.2 2350.16 10.9559 205.603 463.252 1014.59 46.9472 7.59949 3.2782 8.16033
threshold=1.0993450880050661 -1.2065411806106565 1.1371868252754214 -1.2052528262138364 0.047048494219779975 -0.029376122169196602 -1.2091178894042967 2.2319949865341191 -0.53959873318672169 0.38260664045810705 -0.0082920277491211874
decision_type=2 2 2 2 2 2 2 2 2 2 2
left_child=3 2 -2 4 5 6 -1 -7 -4 -6 -11
right_child=1 -3 8 -5 9 7 -8 -9 -10 10 -12
leaf_value=-2.5326678438815851 -1.9367413797667172 -2.5347913538652178 -2.46385401858055 -2.5349015245180087 -2.53488296152624 -2.5343817154202783 -1.9907206062773566 -2.3928013871966387 -2.5312481133036893 -2.5323961896080154 -2.4737955390540174
leaf_weight=21.333333969116211 1116.3333666026592 432.66667956113815 5.3333334922790554 9754.5836240425706 2109.7500628754497 94.250002808868885 13.33333373069763 5.3333334922790518 12.666667044162748 18.916667230427269 8.0000002384185773
leaf_count=256 13396 5192 64 117055 25317 1131 160 64 152 227 96
internal_value=-2.48504 -2.10841 -1.94587 -2.53415 -2.53088 -2.47095 -2.31622 -2.52596 -2.51122 -2.53465 -2.51521
internal_weight=13592.5 1567 1134.33 12025.5 2270.92 134.25 34.6667 99.5833 18 2136.67 26.9167
internal_count=163110 18804 13612 144306 27251 1611 416 1195 216 25640 323
is_linear=0
shrinkage=1


Tree=6
num_leaves=11
num_cat=0
split_feature=16 0 16 12 0 6 16 16 16 16
split_gain=141285 2617.93 1161.06 1980.3 951.769 122.025 19.6868 6.83435 6.98976 0.257999
threshold=-1.3057439923286436 0.31853072345256811 -1.2748236060142515 1.0000000180025095e-35 0.31848821043968206 -0.27046121656894678 -1.2439032793045042 -1.25549840927124 -1.2683818936347959 -1.2490566372871397
decision_type=2 2 2 2 2 2 2 2 2 2
left_child=1 4 3 -2 -1 -5 7 8 -4 -9
right_child=2 -3 6 5 -6 -7 -8 9 -10 -11
leaf_value=-2.5283849108265768 -2.5340281725077181 -2.5323750042900088 -2.4895012447056093 -2.308932624622241 -1.9354058600483675 -2.0017741231057737 -2.5349025906876181 -2.4781498934075823 -2.5330374909631184 -2.4887528039542204
leaf_weight=6.666666865348815 55.916668333113194 18.750000558793545 14.416667096316813 5.416666828095912 1100.7500328049064 26.666667461395264 12317.000367075205 11.333333671092987 25.750000767409801 9.8333336263895035
leaf_count=80 671 225 173 65 13209 320 147804 136 309 118
internal_value=-2.485 -1.94892 -2.53347 -2.35345 -1.93901 -2.04675 -2.53476 -2.50603 -2.5179 -2.48303
internal_weight=13592.5 1126.17 12466.3 88 1107.42 32.0833 12378.3 61.3333 40.1667 21.1667
internal_count=163110 13514 149596 1056 13289 385 148540 736 482 254
is_linear=0
shrinkage=1


Tree=7
num_leaves=23
num_cat=0
split_feature=0 0 16 15 16 15 12 15 2 8 0 16 15 16 2 4 2 7 7 16 15 4
split_gain=29232.4 91775.2 7020.05 1468.33 652.388 13036.3 1657 795.407 131.101 821.352 126.989 163.988 403.158 44.9642 10.1963 7.44315 5.09035 25.2299 1.86008 19.4062 253.36 0.37764
threshold=0.93590301275253307 0.94874367117881786 -1.1086267232894895 0.36635495722293859 -0.78138624131679524 0.3663818240165711 1.0000000180025095e-35 0.36639656126499182 -0.4118212610483169 -0.032670944929122918 0.95675846934318554 -1.1343936920166013 0.36637230217456823 -1.099608242511749 -0.41182889044284815 3.7830947637557988 -0.41173593699932093 -0.30762188136577601 -0.30761979520320887 -0.78138624131679524 0.36637230217456823 0.41243548691272741
decision_type=2 2 2 2 2 2 2 2 2 2 2 2 2 2 2 2 2 2 2 2 2 2
left_child=4 2 3 -2 5 13 7 21 9 -3 11 12 -10 15 -11 -1 17 -12 -18 20 -20 -7
right_child=1 8 -4 -5 -6 6 -8 -9 10 14 16 -13 -14 -15 -16 -17 18 -19 19 -21 -22 -23
leaf_value=-2.5348179678248499 -2.5304948852019975 -2.0091923663277433 -2.53397207037608 -1.9356106435088096 -2.534900171985464 -2.5318609645940522 -1.9442017740978152 -2.0485161199175979 -2.529864633116389 -2.5331341239707448 -2.5330939610183121 -2.5324273110152511 -2.0184509552651622 -2.4063352217867693 -2.4696892588618153 -2.4923534586028677 -2.534766789649805 -2.4251505527296398 -2.5334981991094181 -2.534784350566198 -2.2033277035062082 -2.5099066500208309
leaf_weight=2254.2500671818852 10.333333641290663 7.7500002309679976 52.500001564621925 993.33336293697357 7717.6668966710567 15.416667126119139 106.58333650976419 13.083333723247049 8.9166669324040395 55.416668318212032 26.583334125578403 19.166667237877846 5.5833334997296324 6.0000001788139334 6.666666865348815 10.750000320374964 1786.5000532418489 5.833333507180213 70.000002086162567 407.83334548771381 5.3333334922790518 7.0000002086162558
leaf_count=27051 124 93 630 11920 92612 185 1279 157 107 665 319 230 67 72 80 129 21438 70 840 4894 64 84
internal_value=-2.48494 -2.35953 -1.97123 -1.94177 -2.52781 -2.5051 -2.04219 -2.34313 -2.53015 -2.46291 -2.53217 -2.43683 -2.31555 -2.53425 -2.52619 -2.53462 -2.53358 -2.51246 -2.53387 -2.53047 -2.50674 -2.52637
internal_weight=13592.5 3461.75 1056.17 1003.67 10130.8 2413.08 142.083 35.5 2405.58 69.8333 2335.75 33.6667 14.5 2271 62.0833 2265 2302.08 32.4167 2269.67 483.167 75.3333 22.4167
internal_count=163110 41541 12674 12044 121569 28957 1705 426 28867 838 28029 404 174 27252 745 27180 27625 389 27236 5798 904 269
is_linear=0
shrinkage=1


Tree=8
num_leaves=6
num_cat=0
split_feature=6 13 0 6 1
split_gain=59856.3 83765.4 4585.49 142.739 722.295
threshold=-0.023014878854155537 0.56983251869678508 -1.123577833175659 -0.043078361079096787 0.64553752541542064
decision_type=2 2 2 2 2
left_child=3 -2 -3 -1 -5
right_child=1 2 -4 4 -6
leaf_value=-2.5349021328722849 -2.5348688402233064 -1.9353954707114545 -2.5334288173184261 -2.533651419698947 -2.0058743937749135
leaf_weight=11068.500329867005 1321.4167060479522 1124.1667001694441 32.833334311842918 38.833334490656853 6.7500002011656752
leaf_count=132822 15857 13490 394 466 81
internal_value=-2.48499 -2.26285 -1.95239 -2.53454 -2.44689
internal_weight=13592.5 2478.42 1157 11114.1 45.5833
internal_count=163110 29741 13884 133369 547
is_linear=0
shrinkage=1


Tree=9
num_leaves=19
num_cat=0
split_feature=8 5 11 16 16 8 13 16 16 8 9 2 16 16 13 2 8 7
split_gain=40859.3 42989.3 11948.7 6286.51 2721.18 2620.64 6807.89 18219.3 13287.8 244.439 1046.07 164.084 501.542 412.849 48.8065 39.3385 21.8914 6.30816
threshold=1.0000000180025095e-35 -0.13189809396862981 -0.18965648859739301 0.37619465589523321 0.39358735084533697 -0.029376122169196602 -0.5195239484310149 0.39358735084533697 0.37619465589523321 -0.0019192683103028683 -0.095683950930833803 1.084530293941498 0.37619465589523321 0.39358735084533697 -0.40922828018665308 -0.14176749438047406 0.12767708301544192 0.027506146579980854
decision_type=2 2 2 2 2 2 2 2 2 2 2 2 2 2 2 2 2 2
left_child=5 2 11 -4 -5 14 7 8 -7 -8 15 12 -2 -14 -1 -11 -13 -3
right_child=1 17 3 4 -6 6 9 -9 -10 10 -12 16 13 -15 -16 -17 -18 -19
leaf_value=-2.5349005101733417 -2.5332165089915972 -2.5348453940470979 -2.5338982464561024 -1.9358865460341637 -2.5324576702655741 -2.5345503552617261 -2.5348852449154617 -2.5348408603162742 -1.9446694781796325 -2.4024391178663493 -1.9860694431572459 -2.534321283951583 -1.9939230457853654 -2.5271144421918272 -2.3964451118951748 -2.5340111274261514 -2.4397846990258945 -2.4887528039482687
leaf_weight=8142.8335760086775 28.583334185183048 815.25002429634333 48.583334781229496 815.41669096797705 19.416667245328426 139.33333748579025 2334.9167362526059 759.00002261996269 301.16667564213276 5.416666828095912 9.7500002905726415 84.416669182479382 9.1666669398546201 5.416666828095912 5.5000001639127722 54.833334967494011 5.833333507180213 7.6666668951511374
leaf_count=97714 343 9783 583 9785 233 1672 28019 9108 3614 65 117 1013 110 65 66 658 70 92
internal_value=-2.48479 -2.26575 -2.04848 -1.98194 -1.9498 -2.51909 -2.48359 -2.38634 -2.13094 -2.53212 -2.44054 -2.48953 -2.41038 -2.18197 -2.5348 -2.52103 -2.52778 -2.53442
internal_weight=13592.5 1839.75 1016.83 883.417 834.833 11752.8 3604.42 1199.5 440.5 2404.92 70 133.417 43.1667 14.5833 8148.33 60.25 90.25 822.917
internal_count=163110 22077 12202 10601 10018 141033 43253 14394 5286 28859 840 1601 518 175 97780 723 1083 9875
is_linear=0
shrinkage=1


Tree=10
num_leaves=18
num_cat=0
split_feature=4 15 15 14 1 4 1 9 1 0 7 3 4 10 9 15 15
split_gain=92386.9 18372.5 19666.2 6978.75 3126.98 1470.72 1346.27 216.741 216.209 176.802 88.2684 149.72 36.6716 771.279 808.539 453.949 170.282
threshold=0.17380474507808688 0.36689671874046331 0.36690278351306921 11.089245796203615 -0.18596158176660535 -0.22888462245464322 -0.15648834407329557 -0.10049546882510184 -0.35735145211219782 -0.38309246301650995 3.9558285474777226 -0.0054440663661807767 0.08431821316480638 -0.049520742148160928 -0.096901718527078615 0.36689671874046331 0.36690148711204534
decision_type=2 2 2 2 2 2 2 2 2 2 2 2 2 2 2 2 2
left_child=3 4 8 12 10 -5 -6 -8 -3 -7 -2 -12 -1 14 -14 -16 -17
right_child=1 2 -4 5 6 9 7 -9 -10 -11 11 -13 13 -15 15 16 -18
leaf_value=-2.5349020372065527 -2.534698244097763 -1.9368125306797848 -2.534597211942601 -2.5316099465830684 -2.0386857230141295 -2.2719853025265015 -2.5327939737919647 -2.2033277035062082 -2.2462274058083689 -1.9471017758520346 -2.2272143431493547 -2.5304622054642367 -2.5332893991607848 -2.5348616520392278 -2.5283132433651807 -1.9691035442163294 -2.2972828884735854
leaf_weight=10838.916989691556 238.91667378693819 995.91669634729624 160.5833381190896 14.166667088866232 56.333335012197495 6.4166668578982344 22.666667342185978 5.3333334922790518 7.8333335667848578 60.500001803040504 5.5000001639127722 10.250000305473803 29.916667558252811 1110.1666997522116 6.5833335295319584 15.083333782851698 7.4166668877005568
leaf_count=130067 2867 11951 1927 170 676 77 272 64 94 726 66 123 359 13322 79 181 89
internal_value=-2.48487 -2.11535 -2.02111 -2.53085 -2.43947 -2.07135 -2.17748 -2.46249 -1.93899 -1.97466 -2.52708 -2.4155 -2.53399 -2.52546 -2.35074 -2.16759 -2.06469
internal_weight=13592.5 1503.33 1164.33 12089.2 339 81.0833 84.3333 28 1003.75 66.9167 254.667 15.75 12008.1 1169.17 59 29.0833 22.5
internal_count=163110 18040 13972 145070 4068 973 1012 336 12045 803 3056 189 144097 14030 708 349 270
is_linear=0
shrinkage=1


Tree=11
num_leaves=23
num_cat=0
split_feature=13 8 1 14 6 15 15 2 15 15 15 2 2 9 0 8 15 15 10 13 9 13
split_gain=65251.4 72251.9 1966.52 958.352 767.813 194.755 1471.2 137.049 394.767 1872.04 101.608 54.6092 51.4269 62.2246 51.4066 15.8327 77.8206 2583.35 9.2814 65.7524 6.85511 6.34402
threshold=1.1614604890346529 -0.010705460794270037 -0.53536072373390187 4.2840561866760263 -0.27379868924617762 0.36635495722293859 0.36635366082191473 -0.41182737052440638 0.36635495722293859 0.36635409295558935 0.36635452508926397 -0.41090744733810419 0.24908300489187243 -0.10006088018417357 0.62855622172355663 -0.029376122169196602 0.36635495722293859 0.36635409295558935 -0.17520000785589215 -0.47445555031299586 -0.10048713907599448 -0.47445555031299586
decision_type=2 2 2 2 2 2 2 2 2 2 2 2 2 2 2 2 2 2 2 2 2 2
left_child=7 -2 3 5 10 6 12 8 9 -1 -4 -5 13 -3 -12 21 17 18 19 -17 -14 -9
right_child=1 2 4 11 -6 -7 -8 15 -10 -11 14 -13 20 -15 -16 16 -18 -19 -20 -21 -22 -23
leaf_value=-2.5341452284905501 -1.936188705514964 -2.3138540189922927 -1.9847090247040708 -2.0036566519067591 -2.5309066498976729 -2.5348541333781851 -1.9788090918247563 -2.5349004144671712 -2.5346777295353484 -1.9692678866504556 -2.1261154425833575 -2.2822750717105542 -2.5344937110527863 -2.5283132433651807 -2.3634780790146377 -2.5339512358031908 -2.5348854138574373 -1.9845307133494523 -2.5348267775859039 -2.3849066505187304 -2.4827327370762067 -2.4824066501121007
leaf_weight=64.666668593883514 1052.0000313520432 5.3333334922790527 20.083333931863308 7.0000002086162567 11.500000342726706 951.08336167782545 12.666667044162748 8017.8335722833872 217.41667314618826 17.916667200624943 6.5833335295319539 5.333333492279051 120.08333691209555 6.5833335295319539 5.4166668280959129 51.333334863185883 2353.5000701397657 21.166667297482491 625.00001862645149 7.6666668951511374 6.666666865348815 5.6666668355464926
leaf_count=776 12624 64 241 84 138 11413 152 96214 2609 215 79 64 1441 79 65 616 28242 254 7500 92 80 68
internal_value=-2.48448 -2.23595 -2.50843 -2.52142 -2.18276 -2.52648 -2.47386 -2.53276 -2.49936 -2.40689 -2.06035 -2.09991 -2.52238 -2.42652 -2.21568 -2.53367 -2.53051 -2.51586 -2.53301 -2.51324 -2.53178 -2.53486
internal_weight=13592.5 2210.33 1158.33 1114.75 43.5833 1102.42 151.333 11382.2 300 82.5833 32.0833 12.3333 138.667 11.9167 12 11082.2 3058.67 705.167 684 59 126.75 8023.5
internal_count=163110 26524 13900 13377 523 13229 1816 136586 3600 991 385 148 1664 143 144 132986 36704 8462 8208 708 1521 96282
is_linear=0
shrinkage=1


Tree=12
num_leaves=3
num_cat=0
split_feature=15 0
split_gain=73428.9 13239.2
threshold=0.36719447374343878 -1.4100904464721677
decision_type=2 2
left_child=-1 -2
right_child=1 -3
leaf_value=-0.049708821022616277 0.32189763435944996 -0.049533467080662759
leaf_weight=11468.801943711936 1809.9633492901921 276.25970897078514
leaf_count=146116 13640 3520
internal_value=-6.92791e-05 0.272712
internal_weight=13555 2086.22
internal_count=163276 17160
is_linear=0
shrinkage=0.05


Tree=13
num_leaves=48
num_cat=0
split_feature=16 6 4 16 16 9 2 15 9 16 14 14 16 10 13 14 13 16 10 13 8 6 12 13 2 16 9 1 16 15 6 1 2 4 8 10 1 15 16 5 6 5 5 7 6 1 1
split_gain=22552.2 9832.87 5300.78 12066.5 3331.33 2744.04 1665.52 1100 967.992 886.274 855.425 5506.74 1191.71 706.547 689.904 488.827 473.423 449.3 434.026 430.288 385.665 442.663 376.449 325.431 310.042 297.771 167.81 160.894 125.866 116.724 97.2025 91.8271 80.6474 823.274 196.931 208.043 120.035 167.035 78.4582 667.505 212.801 75.462 63.4279 56.6441 56.4663 50.0568 164.785
threshold=1.3340815901756289 -0.27390661835670466 0.17380474507808688 0.40775918960571295 1.1949399113655093 -0.094254240393638597 3.9438595771789555 0.36688935756683355 -0.10023706406354903 0.36395534873008734 -0.12980534136295316 -0.054432500153779977 1.2748175263404848 -0.074380379170179353 -0.54197409749031056 0.50167833268642437 -0.51754802465438832 0.43996790051460272 1.3792177438735964 2.1401429176330571 0.040913423523306854 -0.043078361079096787 1.0000000180025095e-35 -0.51754802465438832 -0.4118212610483169 0.42708441615104681 -0.099732916802167879 -0.54112413525581349 -1.2439032793045042 -2.3761744499206539 -0.2732934951782226 1.1457837820053103 -0.41163240373134607 -0.19159857183694837 -0.012902009300887583 -0.10476437583565711 -0.56183812022209156 0.36635625362396246 0.37619465589523321 -0.15842350572347638 -0.27388668060302729 0.20865399390459063 -0.015528535470366476 -0.29157659411430353 -0.27341936528682703 -0.55946999788284291 -0.18596158176660535
decision_type=2 2 2 2 2 2 2 2 2 2 2 2 2 2 2 2 2 2 2 2 2 2 2 2 2 2 2 2 2 2 2 2 2 2 2 2 2 2 2 2 2 2 2 2 2 2 2
left_child=1 5 6 24 25 7 10 -1 13 -8 20 19 14 -9 22 38 27 43 -18 -12 29 -22 -13 30 -4 45 -27 -7 -25 -3 -17 -26 33 34 -31 36 -36 -38 39 -16 -41 -21 -30 -11 -28 -5 -47
right_child=-2 2 3 4 -6 16 9 8 -10 17 11 12 -14 -15 15 23 18 -19 -20 41 21 -23 -24 28 31 26 44 -29 42 32 -32 -33 -34 -35 35 -37 37 -39 -40 40 -42 -43 -44 -45 -46 46 -48
leaf_value=0.31531135500425517 0.32317428830203515 0.10616528522109854 -0.013814163803829617 -0.048542095337435226 0.3134378047192613 0.04165327246016691 0.31259328272107684 0.2798731695527108 0.33006025629004537 0.1241974890043399 0.32194519924204701 0.29401735417161101 0.31965595765440957 -0.021350502550829865 -0.044326101830001248 0.081810746500049658 -0.046303087541022067 0.31281420847896929 0.31153164002965794 -0.035623776249362811 -0.041391190185409273 0.33592011039327752 -0.045864423560150178 0.18873901842099028 0.31745574587581382 0.3118406867001664 -0.034221610484094195 0.33397443814241484 -0.017202302648301412 -0.045391605765549375 0.31712334260581732 0.12648296918417401 -0.045181391520142833 0.34351393500535887 -0.043499017561469275 -0.046562987965607337 0.061769324134816707 0.32295008708618272 -0.048481265041269477 0.057217259812610055 0.34666835057507589 0.15360650881619653 0.10919506265048598 -0.033874342478288917 0.12047853385948402 0.13329109416102677 -0.046974818588655126
leaf_weight=271.95131219178438 518.83794483542442 12.066283144056795 7.2852500081062308 926.80841482430696 69.93600994348526 7.6899710968136814 48.63929022103548 25.155023202300072 46.637579433619976 5.3173454478383055 125.87171126157045 23.519048988819122 23.150485649704933 75.655641488730907 256.03634078800678 7.6752848997712162 128.97653311491013 11.310664691030977 8.0698148533701879 9.3179262205958384 16.443628005683426 13.422189608216284 11.838131614029406 9.0123762637376768 368.86089108139277 6.9640257656574276 11.494810998439792 12.585035651922224 69.259521588683128 514.07127977907658 13.05907106399536 8.2084911391139013 8076.4854770973325 13.711835935711859 6.8923989981412914 29.090027950704098 13.721290387213232 10.995832234621046 1534.9706838205457 12.025423571467401 13.66634827852249 10.264587283134459 10.55812446027994 55.350901640951633 10.421988599002358 15.659561842679976 52.045107990503311
leaf_count=2124 3914 131 87 11771 541 89 378 200 364 65 962 189 179 916 3228 84 1628 89 66 108 201 111 150 91 2839 57 132 104 854 6506 103 65 102436 148 86 360 156 95 19535 139 116 112 114 686 119 197 651
internal_value=0.00023221 -0.0126684 -0.0220348 0.0668309 -0.0179497 0.18898 -0.0340236 0.255641 0.144203 0.150007 -0.0360855 -0.00768087 -0.0294989 0.0558237 -0.0337803 -0.0378351 0.0107771 0.0373628 -0.0231283 0.288203 -0.0430333 0.133568 0.182088 0.0643189 0.307417 -0.0408797 0.114857 0.230271 0.0216319 -0.0436564 0.237789 0.313644 -0.0438773 -0.0259333 -0.0353282 0.0492546 0.136159 0.186 -0.044028 -0.0196789 0.218406 0.0662091 0.000661546 -0.0182306 0.0413894 -0.0455132 -0.00394752
internal_weight=13531 13012.1 12435.4 1477.68 1093.33 576.721 10957.7 419.4 147.448 120.618 10837.1 2130.23 1984.77 100.811 1961.62 1926.26 157.321 71.9789 137.046 145.454 8706.9 29.8658 35.3572 109.564 384.355 1023.39 28.8808 20.275 88.83 8677.03 20.7344 377.069 8664.97 588.483 574.771 60.6995 31.6095 24.7171 1816.7 281.728 25.6918 19.5825 79.8176 60.6682 21.9168 994.513 67.7047
internal_count=163276 159362 153871 16459 13468 5491 137412 3604 1480 1218 136194 25964 24782 1116 24603 24264 1887 840 1694 1182 110230 312 339 1246 2991 12927 308 193 1059 109918 187 2904 109787 7351 7203 697 337 251 23018 3483 255 220 968 751 251 12619 848
is_linear=0
shrinkage=0.05


Tree=14
num_leaves=17
num_cat=0
split_feature=5 10 6 4 4 15 10 15 15 6 16 15 7 15 15 15
split_gain=45172 38373.2 128.317 105.627 873.49 705.41 160.166 18.8864 163.172 16.9187 20.3282 10.9362 5.40532 3.46229 346.179 0.183906
threshold=0.011852536816149952 -0.037090923637151711 -0.26578746736049647 0.12906147912144664 0.17380474507808688 0.36690235137939459 -0.13376728445291516 0.36690278351306921 0.36690755188465124 -0.2697682231664657 0.43094944953918463 0.36690582334995275 1.0576633810997011 0.36690278351306921 0.36690711975097662 -2.3757637739181514
decision_type=2 2 2 2 2 2 2 2 2 2 2 2 2 2 2 2
left_child=3 -2 9 -1 5 15 -6 -8 -9 12 -11 -7 13 -3 -15 -5
right_child=1 2 -4 4 6 11 7 8 -10 10 -12 -13 -14 14 -16 -17
leaf_value=-0.049707299114682718 0.32286461274886863 -0.049643851080842592 0.16145647327583246 -0.025378306671601854 0.15968167868978125 0.3304460634140845 -0.049656761948614569 0.15013136863556381 -0.049252076210955786 -0.044352325684768705 0.065387912461390918 0.20958840276056512 -0.0046817963949042042 0.23393226596929184 -0.04961220914562095 -0.047567000270386406
leaf_weight=9692.0717353373766 1743.3594220727682 665.30379960685968 6.5416604578495017 5.1180309951305416 8.5256631374359113 23.009177416563034 757.15673210471869 10.67698799818754 84.769996419548988 8.222348824143408 6.7902479469776145 10.633773885667322 7.8166137337684622 10.029832579195498 491.21014576405287 20.719919964671135
leaf_count=123498 13131 8469 68 63 98 183 9636 104 1060 104 79 85 94 90 6258 256
internal_value=-0.000123901 0.173301 -0.0448157 -0.0481671 -0.0319161 0.151843 -0.0447703 -0.0469994 -0.0256231 -0.0460849 0.00626728 0.299398 -0.0467589 -0.0470366 -0.043484 -0.0442812
internal_weight=13552 2939.27 1195.91 10612.7 920.61 59.4809 861.129 852.604 95.447 1189.37 15.0126 33.643 1174.36 1166.54 501.24 25.838
internal_count=163276 28293 15162 134983 11485 587 10898 10800 1164 15094 183 268 14911 14817 6348 319
is_linear=0
shrinkage=0.05


Tree=15
num_leaves=9
num_cat=0
split_feature=16 16 13 7 10 5 6 4
split_gain=41136.1 41765.8 1886.59 834.461 536.006 209.029 63.3556 24.7684
threshold=0.43996790051460272 1.2748175263404848 -0.53959873318672169 -0.30652512609958643 1.3163781166076662 0.013563854154199364 -0.27175298333168024 -0.19159857183694837
decision_type=2 2 2 2 2 2 2 2
left_child=-1 2 5 4 7 -2 -7 -4
right_child=1 -3 3 -5 -6 6 -8 -9
leaf_value=-0.049708409128811956 -0.048449345120314825 -0.049676281399779344 0.32183142870588227 -0.047027721279402371 -0.045144178756078311 0.073750953743934741 0.27449812790779227 0.2031486647677482
leaf_weight=10223.100395552814 37.503725484013557 1445.1103127151728 1795.415473215282 15.443270482122896 9.8057062327861768 11.05499888956547 6.2065335363149634 10.79499641060829
leaf_count=130242 475 18421 13549 184 124 121 56 104
internal_value=1.61272e-05 0.152578 0.307478 0.31612 0.319233 0.017964 0.15701 0.321235
internal_weight=13554.4 3331.34 1886.22 1831.46 1816.02 54.7653 17.2615 1806.21
internal_count=163276 33034 14613 13961 13777 652 177 13653
is_linear=0
shrinkage=0.05


Tree=16
num_leaves=9
num_cat=0
split_feature=6 0 0 6 15 15 7 15
split_gain=69310.5 7225.16 1430.95 8708.41 58.4429 12.7353 3.8578 7.19725
threshold=0.14431785047054294 -1.4132155776023863 -1.4132155776023863 -0.27097961306571955 0.36688111722469335 0.36688545346260076 -0.30672702193260187 0.36637403070926672
decision_type=2 2 2 2 2 2 2 2
left_child=2 -2 3 6 -5 -6 -1 -8
right_child=1 -3 -4 4 5 -7 7 -9
leaf_value=-0.049575173873517377 0.32230597756426699 -0.04937492063756712 -0.049708321271653998 0.16465576739116994 0.32185302181991321 0.21827654805760105 -0.045270981106120663 0.0229528901957427
leaf_weight=1084.4248546585441 1621.8920005857944 141.94095891714096 10495.055979661644 10.103136606514452 176.63257260620594 12.155660986900328 10.072164252400396 5.1765691563487044
leaf_count=13816 12208 1805 133713 98 1334 111 127 64
internal_value=0.000145335 0.292385 -0.0435825 0.0059264 0.309525 0.316369 -0.049215 -0.0221234
internal_weight=13557.5 1763.83 11793.6 1298.56 198.891 188.788 1099.67 15.2487
internal_count=163276 14013 149263 15550 1543 1445 14007 191
is_linear=0
shrinkage=0.05


Tree=17
num_leaves=12
num_cat=0
split_feature=0 16 16 16 0 8 16 13 3 3 12
split_gain=66803.6 17940.4 874.774 11.7224 207.784 364.706 553.614 27.127 4.44493 15.4834 2.29072
threshold=1.0993450880050661 -1.2065411806106565 -1.2439032793045042 -1.2052528262138364 0.047048494219779975 -0.029376122169196602 -1.2091178894042967 -0.56026211380958546 -0.0082920277491211874 -0.0080981245264410955 1.0000000180025095e-35
decision_type=2 2 2 2 2 2 2 2 2 2 2
left_child=3 2 -2 4 5 6 -1 -7 -6 -10 -4
right_child=1 -3 10 -5 8 7 -8 -9 9 -11 -12
leaf_value=-0.047393042331862159 -0.047440729573664478 -0.049591132332747402 0.24547316003954914 -0.04970753478926565 -0.049688960198215726 0.042458213315505866 0.31463165460197529 -0.049132348654824937 0.041854369519700042 -0.047348643033228804 0.32291736110713554
leaf_weight=20.308155417442322 15.89932821691036 403.66509939730167 17.455110058188438 9201.9632546305656 1989.6807157695293 8.186021260917185 20.498038724064827 82.724428996443748 5.5387102887034443 19.384900324046612 1770.8801906406879
leaf_count=258 184 5142 148 117241 25345 97 161 1051 68 243 13338
internal_value=5.89464e-05 0.251633 0.319016 -0.0489046 -0.0454407 0.0152999 0.137638 -0.0405129 -0.0494176 -0.0266754 0.322299
internal_weight=13556.2 2207.9 1804.23 11348.3 2146.32 131.717 40.8062 90.9105 2014.6 24.9236 1788.34
internal_count=163276 18812 13670 144464 27223 1567 419 1148 25656 311 13486
is_linear=0
shrinkage=0.05


Tree=18
num_leaves=11
num_cat=0
split_feature=16 0 16 12 9 16 16 16 16 16
split_gain=83000.2 1068.2 923.927 1067.34 171.463 58.4328 23.4722 8.43954 7.11138 1.62623
threshold=-1.3057439923286436 0.31853072345256811 -1.2748236060142515 1.0000000180025095e-35 -0.10045303776860236 -1.2877070903778074 -1.2439032793045042 -1.25549840927124 -1.2683818936347959 -1.2490566372871397
decision_type=2 2 2 2 2 2 2 2 2 2
left_child=1 4 3 -2 -1 -5 7 8 -4 -9
right_child=2 -3 6 5 -6 -7 -8 9 -10 -11
leaf_value=0.03930332601080655 -0.04878916375429148 -0.047488514923152807 -0.0030408202497547404 0.17300217125602479 0.3221259539521687 0.32321842425318592 -0.049708260969532021 0.018930083103840631 -0.047777067349619007 -0.007219559968001301
leaf_weight=5.6735285446047774 51.830152623355389 19.618386976420879 13.922672741115091 13.425210505723951 1763.7982990518212 30.926310271024704 11609.483055248857 11.330962255597115 24.260960400104523 10.702096968889236
leaf_count=64 658 240 169 113 13281 251 147927 136 307 130
internal_value=-1.71537e-05 0.317174 -0.0482713 0.105341 0.321242 0.282565 -0.0495463 -0.0180233 -0.0319591 0.00646645
internal_weight=13555 1789.09 11765.9 96.1817 1769.47 44.3515 11669.7 60.2167 38.1836 22.0331
internal_count=163276 13585 149691 1022 13345 364 148669 742 476 266
is_linear=0
shrinkage=0.05


Tree=19
num_leaves=14
num_cat=0
split_feature=16 15 12 15 2 6 8 16 2 4 6 2 9
split_gain=20775.8 61605.3 2558.13 598.186 441.556 165.704 34.7032 22.6463 7.28862 6.13139 4.47905 4.9327 0.249254
threshold=-0.78138624131679524 0.36635495722293859 1.0000000180025095e-35 0.36639656126499182 -0.41180557012557978 -0.27390611171722407 -0.029376122169196602 -1.099608242511749 -0.41166630387306208 0.41243548691272741 -0.26008106768131251 -0.41100151836872095 -0.094496205449104295
decision_type=2 2 2 2 2 2 2 2 2 2 2 2 2
left_child=1 7 3 4 5 -3 -4 -1 -6 12 11 -11 -10
right_child=-2 2 6 -5 8 -7 -8 -9 9 10 -12 -13 -14
leaf_value=-0.049699369437955304 -0.049707706300655304 0.015335803831601755 0.32290292582388325 0.30775418602869098 0.020262390662927357 0.31870411771568308 0.206305355932244 0.029746219630669812 -0.047670976498365297 -0.01961722170644932 -0.043063576052153635 0.039596215187489285 -0.02535541266762438
leaf_weight=3399.8954467624426 8264.2964867278934 6.641278192400935 1747.4207229837775 22.200220547616482 5.4083872213959685 13.68948972225189 13.124272137880324 8.3839620724320394 45.486457794904709 7.2727185264229783 6.2262970283627501 5.1476275920867929 5.1226836815476409
leaf_count=43309 105277 80 13159 190 66 116 117 97 570 91 76 64 64
internal_value=-0.000194876 0.0772095 0.307095 0.0800984 0.0242438 0.22497 0.322151 -0.0494953 -0.0326641 -0.0370269 -0.0117096 0.00604567 -0.0459472
internal_weight=13550.3 5286.02 1877.74 117.195 94.9949 20.3308 1760.54 3408.28 74.6642 69.2558 18.6466 12.4203 50.6091
internal_count=163276 57999 14593 1317 1127 196 13276 43406 931 865 231 155 634
is_linear=0
shrinkage=0.05


Tree=20
num_leaves=6
num_cat=0
split_feature=6 13 0 6 0
split_gain=45011.5 39958.6 1603.99 151.954 272.876
threshold=-0.023014878854155537 0.56983251869678508 -1.123577833175659 -0.043078361079096787 -1.3925088644027708
decision_type=2 2 2 2 2
left_child=3 -2 -3 -1 -5
right_child=1 2 -4 4 -6
leaf_value=-0.049708359512543265 -0.049672786013337765 0.32250207317107732 -0.048114953123711973 0.20376671032231475 -0.048098537583117058
leaf_weight=10426.040858104825 1253.4645997583866 1804.6965063512325 29.427105404436588 15.631902083754538 29.641466274857521
leaf_count=132832 15972 13575 372 148 377
internal_value=0.000159901 0.167897 0.316533 -0.0493106 0.0413892
internal_weight=13558.9 3087.59 1834.12 10471.3 45.2734
internal_count=163276 29919 13947 133357 525
is_linear=0
shrinkage=0.05


Tree=21
num_leaves=19
num_cat=0
split_feature=8 5 16 16 8 1 1 13 13 16 16 9 16 16 13 7 9 2
split_gain=30141.4 21842.9 4353.7 4398.96 2446.25 6009.69 10012.2 1041.45 4370.01 757.555 355.173 88.711 386.321 126.566 57.1338 6.07316 0.593945 7.57037
threshold=1.0000000180025095e-35 -0.13189809396862981 0.37619465589523321 0.39358735084533697 -0.029376122169196602 -0.56178107857704151 -0.56183812022209156 -0.5195239484310149 -0.52456891536712635 0.37619465589523321 0.39616405963897711 0.14725796133279803 0.3922989964485169 0.38199222087860113 -0.40922828018665308 0.027506146579980854 0.049204224720597274 -0.41181494295597071
decision_type=2 2 2 2 2 2 2 2 2 2 2 2 2 2 2 2 2 2
left_child=4 2 -2 -4 14 6 -6 8 11 -8 -11 16 13 -13 -1 -3 -7 -18
right_child=1 15 3 -5 5 7 9 -9 -10 10 -12 12 -14 -15 -16 -17 17 -19
leaf_value=-0.049706092103997936 -0.049215573382754944 -0.049651205353550748 0.32249524049385669 -0.049165115658725167 -0.049591618628628181 -0.049622153975500245 -0.046575715605440271 -0.049690555448812589 0.31825332267273543 0.32533086906220104 -0.043173186407474556 0.029963120760450282 -0.048986216214016533 0.29922716047398856 0.096334132211744528 -0.0048615262391608002 -0.0019959828547641014 -0.04878195846293671
leaf_weight=7676.8719004169106 95.040325216948986 767.67399549484253 1313.8524322658777 84.485207065939903 412.25663555413485 331.715934664011 14.502998135983942 2219.6268405243754 103.5666538849473 362.92928287386894 6.434053659439086 7.0817213132977495 66.504281252622604 11.489010125398636 5.8184245303273192 7.8748478442430487 10.420078903436659 52.425784699618816
leaf_count=97817 1206 9775 9902 1069 5254 4194 182 28280 790 2757 80 82 846 87 65 96 126 668
internal_value=-0.000203417 0.166039 0.277777 0.300021 -0.0336492 0.000368946 0.121512 -0.034072 0.0253542 0.304923 0.318813 -0.0384212 0.00781208 0.203324 -0.049583 -0.0492033 -0.0483846 -0.0411774
internal_weight=13550.6 2268.93 1493.38 1398.34 11281.6 3598.95 796.123 2802.83 583.203 383.866 369.363 479.637 85.075 18.5707 7682.69 775.549 394.562 62.8459
internal_count=163276 22048 12177 10971 141228 43346 8273 35073 6793 3019 2837 6003 1015 169 97882 9871 4988 794
is_linear=0
shrinkage=0.05


Tree=22
num_leaves=10
num_cat=0
split_feature=4 16 16 14 16 4 16 15 7
split_gain=60518 9933.93 9117.81 4927.59 780.128 38.9553 1108.51 553.678 1.03702
threshold=0.17380474507808688 0.40775918960571295 0.42579606175422674 11.089245796203615 0.40904752910137182 0.08431821316480638 0.42450770735740667 0.36689671874046331 0.62071907520294201
decision_type=2 2 2 2 2 2 2 2 2
left_child=3 -2 8 5 -5 -1 7 -7 -3
right_child=1 2 -4 4 -6 6 -8 -9 -10
leaf_value=-0.049707715672150446 -0.049601883525968365 0.32093927040618614 -0.049552760681096292 -0.047159699416002648 0.3198937083925672 -0.04653163209505444 -0.049669893015082407 0.33636054590511477 0.35876459130381116
leaf_weight=10223.371628925204 249.41607635468245 1593.6936416849494 181.95163825899363 16.489715099334717 105.02045574784279 13.752362459897993 1062.1765743046999 27.65380685031414 77.308853149414062
leaf_count=130264 3140 12018 2280 200 814 168 13525 222 645
internal_value=-4.34339e-05 0.246465 0.286322 -0.0453293 0.270104 -0.0487366 -0.039704 0.211091 0.322903
internal_weight=13550.8 2102.37 1852.95 11448.5 121.51 11327 1103.58 41.4062 1671
internal_count=163276 18083 14943 145193 1014 144179 13915 390 12663
is_linear=0
shrinkage=0.05


Tree=23
num_leaves=9
num_cat=0
split_feature=13 16 16 2 15 15 16 16
split_gain=47339.3 35669 809.193 139.025 355.773 1076.11 25.1013 1992.86
threshold=1.1614604890346529 -1.2000994086265562 -1.2065411806106565 -0.41182737052440638 0.36635495722293859 0.36635409295558935 -1.2026761174201963 -1.2052528262138364
decision_type=2 2 2 2 2 2 2 2
left_child=3 2 -2 4 5 -1 7 -5
right_child=1 -3 -4 6 -6 -7 -8 -9
leaf_value=-0.048906965338439898 -0.046933257668620602 -0.049686651554686753 0.32418642864735103 -0.049692468668417498 -0.049473041450686803 0.32295676182675398 -0.04970740108561391 0.31900939911900872
leaf_weight=60.202496930956841 14.574400030076502 1029.3583740070462 1737.5013214871287 2231.0902624726295 204.60596586018801 27.597035296261311 8210.6136079877615 36.275546118617058
leaf_count=766 174 13070 13128 28416 2606 215 104599 302
internal_value=3.97074e-05 0.183894 0.321074 -0.047453 -0.013393 0.0702974 -0.0484021 -0.0436556
internal_weight=13551.8 2781.43 1752.08 10770.4 292.405 87.7995 10478 2267.37
internal_count=163276 26372 13302 136904 3587 981 133317 28718
is_linear=0
shrinkage=0.05


Tree=24
num_leaves=3
num_cat=0
split_feature=15 0
split_gain=55094.7 7539.66
threshold=0.36719447374343878 -1.4116423726081846
decision_type=2 2
left_child=-1 -2
right_child=1 -3
leaf_value=-0.049458482395308964 0.23626839281499784 -0.049273058593076194
leaf_weight=10841.212490484118 2317.7566908299923 256.43667688220739
leaf_count=146170 13637 3456
internal_value=-8.01371e-05 0.207815
internal_weight=13415.4 2574.19
internal_count=163263 17093
is_linear=0
shrinkage=0.05


Tree=25
num_leaves=48
num_cat=0
split_feature=16 6 4 16 16 9 2 0 14 14 13 16 6 12 0 1 13 14 13 12 13 4 0 4 16 8 6 9 13 1 9 16 16 7 16 9 16 16 0 0 1 7 4 11 14 1 1
split_gain=15546.8 7861.58 4680.37 8071.87 2501.54 1692.74 1455.61 961.788 792.241 3849.01 910.32 598.883 579.587 428.404 398.914 801.196 543.735 331.895 281.218 260.003 235.81 231.727 216.805 356.208 185.402 147.521 204.234 141.675 141.462 159.277 138.258 88.3271 80.9676 451.736 116.606 77.0034 454.857 736.579 288.336 247.303 2256.28 137.582 125.506 75.8707 64.3217 60.2838 293.306
threshold=1.3340815901756289 -0.27390661835670466 0.17380474507808688 0.40775918960571295 0.42708441615104681 -0.094254240393638597 3.9438595771789555 1.1776859164237978 -0.12980534136295316 -0.054432500153779977 -0.54197409749031056 1.2748175263404848 -0.26245000958442682 1.0000000180025095e-35 -1.4091762900352476 -0.5634644329547881 -0.53945159912109364 0.50167833268642437 -0.51754802465438832 1.0000000180025095e-35 2.1401429176330571 -0.12448368221521376 1.0037416815757754 -0.19159857183694837 1.2091117501258852 0.040913423523306854 -0.043078361079096787 -0.099732916802167879 -0.54952052235603321 0.0048869126476347455 -0.10049546882510184 -1.2091178894042967 0.37619465589523321 -0.30614975094795221 -1.0764179825782774 -0.099733337759971605 1.0000000180025095e-35 -0.78138624131679524 -1.327391445636749 -1.4008851051330564 -0.54877063632011402 -0.30760982632637018 -0.2437990456819534 0.0040934367571026095 -0.10774290561676024 -0.54112413525581349 -0.18596158176660535
decision_type=2 2 2 2 2 2 2 2 2 2 2 2 2 2 2 2 2 2 2 2 2 2 2 2 2 2 2 2 2 2 2 2 2 2 2 2 2 2 2 2 2 2 2 2 2 2 2
left_child=1 5 6 28 45 14 7 8 25 20 19 17 21 -7 16 -16 -1 32 -15 -11 -10 30 23 31 27 35 -27 -6 29 -4 -8 -19 33 34 -12 36 37 38 41 -38 -41 -3 -40 -29 -22 -5 -47
right_child=-2 2 3 4 24 13 12 -9 9 10 11 -13 -14 18 15 -17 -18 22 -20 -21 44 -23 -24 -25 -26 26 -28 43 -30 -31 -32 -33 -34 -35 -36 -37 39 -39 42 40 -42 -43 -44 -45 -46 46 -48
leaf_value=0.23804983834747381 0.23725003960021157 0.012738694258753997 0.23703787795918291 -0.048186656484213192 0.2412651868869341 0.19337223671281009 0.24078922246171533 0.2323871202699721 0.23641558983553723 0.22722314967401844 -0.042042077689097637 0.23341641885254483 -0.04294600189731182 0.21807300575109367 -0.047827116296318965 0.23141814510996986 -0.047439996047667958 0.14732993758129848 -0.048282492693543413 -0.045246831579468162 -0.01525407958548841 -0.015486239315940077 -0.040767327649124219 0.26629491939534855 0.24302515817766773 -0.040124208545633831 0.24768078571814561 0.15478103282317024 0.040849486575634676 0.047620155838430628 0.041432274596814624 -0.015297792044208496 -0.048199229001731188 0.21074882943564277 0.15024423431070061 -0.047372916942434895 -0.04873330368266951 0.3420001452431391 -0.022130101460594437 -0.046490212176672069 0.32607805944403356 0.2967365698246508 0.18089054579311278 -0.011165130909121392 0.16626637697931179 0.24375898476274316 -0.046550271961622584
leaf_weight=29.263453587889671 656.75283767282963 6.8450296968221691 463.63197664171457 882.38994469493628 12.825897157192228 25.520097278058529 77.553404308855534 32.442597277462482 154.3073429018259 42.489061072468758 252.35805033147335 19.554703861474991 35.733069516718388 9.7961960881948453 27.010105833411217 423.40701159834862 36.550335198640823 9.7856404334306699 121.19984594732523 10.590455964207647 13.213663935661318 11.908792451024054 43.612181916832924 21.109185837209225 77.358225673437119 14.523952610790731 9.4219921678304654 9.3964709714055079 10.321719929575918 11.951432988047598 10.302693568170069 36.302080981433392 1451.9541502296925 18.947613172233105 7.1750871017575255 5105.1006858423352 2473.7399488613009 16.6018470749259 180.2035052254796 390.3657606318593 44.345877654850483 10.735420070588587 6.9511688351631156 20.050848416984081 6.6035040766000739 9.5411396175622922 48.830473884940147
leaf_count=178 3867 72 2778 11830 81 207 494 228 919 267 3347 118 458 64 353 2642 454 85 1618 141 147 145 562 141 468 186 62 88 93 103 110 438 19533 128 66 68441 33213 138 2319 5166 343 88 62 201 69 107 645
internal_value=0.00020934 -0.0120338 -0.0213172 0.0598784 -0.017491 0.154184 -0.0332623 -0.0353926 -0.0362546 -0.00873333 -0.0292491 -0.0351089 0.128981 0.0100466 0.197781 0.214604 0.0811632 -0.0380859 -0.0268626 0.173028 0.215644 0.190376 0.0454995 0.101265 0.196904 -0.0432106 0.0785074 0.10884 0.228411 0.232388 0.21814 0.0216279 -0.0434615 -0.0186757 -0.0361698 -0.0435741 -0.0373645 0.0316202 0.00491167 -0.0426234 -0.00782256 0.192797 -0.0136683 0.0451318 0.0503138 -0.0449347 0.00420867
internal_weight=13390.6 12733.8 12061.1 1546.3 1060.39 672.747 10514.8 10379.3 10346.8 2088 1913.88 1860.8 135.498 156.516 516.231 450.417 65.8138 1841.24 130.996 53.0795 174.125 99.7649 110.809 67.1969 119.631 8258.84 23.9459 42.2732 485.905 475.583 87.8561 46.0877 1730.43 278.481 259.533 8234.89 3129.79 221.337 204.735 2908.45 434.712 17.5804 187.155 29.4473 19.8172 940.762 58.3716
internal_count=163263 159396 153880 16394 13420 5516 137486 136279 136051 25961 24826 24418 1207 1889 3627 2995 632 24300 1682 408 1135 749 1226 664 838 110090 248 370 2974 2881 604 523 23074 3541 3413 109842 41401 2679 2541 38722 5509 160 2381 289 216 12582 752
is_linear=0
shrinkage=0.05


Tree=26
num_leaves=30
num_cat=0
split_feature=5 10 4 4 6 9 6 3 5 11 11 7 9 11 4 5 6 6 6 3 9 6 5 11 5 5 11 11 9
split_gain=36637.7 23825.4 118.315 819.644 457.191 191.786 108.737 26.3433 22.5832 21.1928 12.9681 8.99699 4.20677 10.1626 3.23659 7.57559 5.58499 3.12595 2.12716 1.94522 0.622148 1.98223 0.215598 0.761081 1.79752 0.246379 4.32946 0.149021 3.67729
threshold=0.011852536816149952 -0.037090923637151711 0.12906147912144664 0.21854801476001742 -0.27121040225028986 -0.080498911440372453 -0.26245000958442682 -0.0084495749324560148 1.0000000180025095e-35 1.0000000180025095e-35 -0.18081674724817273 1.0576633810997011 -0.083331771194934831 0.23225779086351397 0.42734991014003759 0.22747848927974704 -0.2697682231664657 -0.27230280637741083 -0.27242094278335566 -0.0084253367967903597 -0.03445665352046489 -0.27388368546962732 0.19581911712884906 0.12729369103908542 0.11110891774296762 0.15389184653759005 0.24307606369256976 0.11035856232047082 -0.098480407148599611
decision_type=2 2 2 2 2 2 2 2 2 2 2 2 2 2 2 2 2 2 2 2 2 2 2 2 2 2 2 2 2
left_child=2 -2 -1 4 5 10 7 -3 19 -10 -4 12 14 -14 27 16 22 -12 -11 -5 -15 -22 23 -16 -25 26 -26 28 -9
right_child=1 6 3 8 -6 -7 -8 11 9 18 17 -13 13 20 15 -17 -18 -19 -20 -21 21 -23 -24 24 25 -27 -28 -29 -30
leaf_value=-0.049456518096032624 0.23682120505212045 0.048992014053446775 0.025138896073860759 -0.026836902947455821 0.2314899716978509 0.21996387740356271 0.16449768101652928 -0.0010477181600149904 0.076297565146512036 -0.044362561264343334 -0.0481839897587681 0.0066638785310804615 0.033450709735249322 -0.04664200047635441 -0.046099388798714579 0.0021834327087172862 0.0072816468123874552 -0.0075988198636696399 -0.0039161400561950385 -0.048704527214788476 -0.04374779085909794 -0.0069718289814089578 -0.048798266858470926 -0.0097156734866636115 -0.046284243229717303 -0.042021720139622076 -0.0011712841063879693 -0.049050705095800791 -0.046045696108326442
leaf_weight=9156.8648347519338 2245.9727004319429 6.5758814737200728 8.1116296872496587 14.354240782558916 41.007787980139256 8.1921923086047155 5.2482238337397566 5.1262953132390967 6.104068927466872 7.922868214547635 31.667797207832333 7.8127691373229018 4.9573760628700247 16.356540210545067 87.156665273010731 9.5004647150635702 5.1209951862692824 6.0385357663035419 5.4437303692102406 754.03445911407471 7.6478683426976204 7.1369030028581601 73.753375075757504 6.4609233513474456 14.377974443137647 52.088645912706852 8.2109324410557729 773.96046325564384 42.194501981139183
leaf_count=123490 13199 81 79 190 271 73 47 65 72 100 411 94 59 220 1172 117 64 73 63 10114 103 91 995 83 193 696 104 10378 566
internal_value=0.000166334 0.142536 -0.0477687 -0.0302269 0.10777 0.0113335 -0.044299 -0.0454149 -0.0469852 0.00590832 -0.0298709 -0.0460114 -0.0463865 -0.0281767 -0.0469696 -0.0414104 -0.0430881 -0.0420487 -0.0293094 -0.0483314 -0.0387227 -0.0275616 -0.0441793 -0.0418788 -0.0368391 -0.0390264 -0.0306308 -0.0486545 -0.0412936
internal_weight=13419.4 3379.66 10039.7 882.877 95.0179 54.0102 1133.69 1128.44 787.859 19.4707 45.818 1121.86 1114.05 36.0987 1077.95 256.67 247.17 37.7063 13.3666 768.389 31.1413 14.7848 242.049 168.295 81.1385 74.6776 22.5889 821.281 47.3208
internal_count=163263 28327 134936 11446 907 636 15128 15081 10539 235 563 15000 14906 473 14433 3424 3307 484 163 10304 414 194 3243 2248 1076 993 297 11009 631
is_linear=0
shrinkage=0.05


Tree=27
num_leaves=10
num_cat=0
split_feature=15 15 13 11 7 2 14 6 11
split_gain=35121.3 26009.2 753.746 147.464 69.4944 27.0649 20.2994 16.9585 14.8119
threshold=0.36690755188465124 0.36718840897083288 -0.53959873318672169 0.0040934367571026095 -0.30672702193260187 -0.41054859757423395 -0.044731894508004182 -0.27386175096034998 -0.13160461932420728
decision_type=2 2 2 2 2 2 2 2 2
left_child=-1 2 3 -2 6 -5 7 8 -4
right_child=1 -3 4 5 -6 -7 -8 -9 -10
leaf_value=-0.049458195736249544 -0.047741385485041393 -0.04942095677038133 0.23248953047929619 0.057303663949828526 0.090140283295071497 0.1817995536071394 0.2370150451082732 0.14735553049635744 0.18915589429737079
leaf_weight=9767.576630808413 26.304417125880718 1278.0664856694639 133.5263109728694 9.1509545817971247 9.9575756788253766 10.524556785821913 2095.2284402996302 17.709087796509266 66.939259044826031
leaf_count=131689 348 17245 790 96 98 91 12354 111 441
internal_value=-1.98431e-05 0.132351 0.230382 0.0292315 0.234348 0.129469 0.23493 0.213911 0.21903
internal_weight=13415 3647.41 2369.34 45.9799 2323.36 19.6755 2313.4 218.175 200.466
internal_count=163263 31574 14329 535 13794 187 13696 1342 1231
is_linear=0
shrinkage=0.05


Tree=28
num_leaves=9
num_cat=0
split_feature=6 0 0 6 15 15 16 15
split_gain=50721.3 4122.49 1381.39 6292.27 45.9045 7.20014 2.94741 8.016
threshold=0.14431785047054294 -1.4132155776023863 -1.4132155776023863 -0.27249021828174586 0.36688111722469335 0.36688545346260076 0.37426212430000311 0.36636883020401007
decision_type=2 2 2 2 2 2 2 2
left_child=2 -2 3 6 -5 -6 7 -1
right_child=1 -3 -4 4 5 -7 -8 -9
leaf_value=-0.046214114845345142 0.23644419576786918 -0.049108346369376416 -0.049458003887150818 0.11714254730639413 0.23693967336386976 0.16458890469905083 -0.049412165685536559 0.022962990903944366
leaf_weight=13.572700060904028 2072.7119455188513 134.2653219550848 9918.7748016119003 11.971711680293081 227.50022725015879 13.702700234949587 1019.4079879969358 5.1647492796182624
leaf_count=177 12178 1806 133735 104 1344 106 13751 62
internal_value=1.41581e-05 0.219058 -0.0431255 0.00551546 0.228505 0.233526 -0.0490331 -0.0269489
internal_weight=13417.1 2206.98 11210.1 1291.32 253.175 241.203 1038.15 18.7374
internal_count=163263 13984 149279 15544 1554 1450 13990 239
is_linear=0
shrinkage=0.05


Tree=29
num_leaves=12
num_cat=0
split_feature=0 16 16 16 0 8 16 4 4 3 12
split_gain=50507.8 10658.4 511.058 11.4851 184.118 290.528 351.523 39.4598 5.57915 12.4263 1.38511
threshold=1.0993450880050661 -1.2065411806106565 -1.2439032793045042 -1.2052528262138364 0.047048494219779975 -0.029376122169196602 -1.2091178894042967 3.7830947637557988 0.38260664045810705 -0.0082920277491211874 1.0000000180025095e-35
decision_type=2 2 2 2 2 2 2 2 2 2 2
left_child=3 2 -2 4 5 6 -1 -7 -6 -10 -4
right_child=1 -3 10 -5 8 7 -8 -9 9 -11 -12
leaf_value=-0.04705132876269421 -0.047138479492054006 -0.049337557201551911 0.18412397524694119 -0.049457024005400918 -0.049438535505070352 -0.048924204952190395 0.2317318743326757 0.079436583950140513 -0.046690057709646668 0.027852864174510272 0.23682155677712136
leaf_weight=19.168419376015663 15.693520277738569 385.93544923514128 20.570237100124359 8687.091311391443 1880.6872882023454 85.199321113526821 25.599127918481827 5.5469313189387313 16.792258068919185 7.3619909286499015 2265.3727033138275
leaf_count=256 191 5201 145 117134 25348 1140 157 61 226 91 13313
internal_value=-7.26684e-05 0.193716 0.234475 -0.0486366 -0.045121 0.0111179 0.113944 -0.0402977 -0.0491256 -0.023766 0.236428
internal_weight=13415 2687.57 2301.64 10727.4 2040.36 135.514 44.7675 90.7463 1904.84 24.1542 2285.94
internal_count=163263 18850 13649 144413 27279 1614 413 1201 25665 317 13458
is_linear=0
shrinkage=0.05


Tree=30
num_leaves=11
num_cat=0
split_feature=16 16 12 0 9 16 15 15 16 16
split_gain=60238.3 794.445 716.324 593.11 102.436 27.4385 19.6187 8.84856 6.04653 4.6805
threshold=-1.3057439923286436 -1.2748236060142515 1.0000000180025095e-35 0.31853072345256811 -0.10045303776860236 -1.2439032793045042 0.36632679402828222 0.36633849143981939 -1.2683818936347959 -1.25549840927124
decision_type=2 2 2 2 2 2 2 2 2 2
left_child=3 2 -2 4 -1 7 -4 8 -3 -10
right_child=1 5 6 -5 -6 -7 -8 -9 9 -11
leaf_value=0.022477830940629905 -0.048517447218050208 0.0030874705019451436 0.14986975434073777 -0.047247903706742839 0.23637221931637181 -0.049457338594800872 0.23757896320149041 0.023302387779932876 -0.047518012822274296 -0.0070564207527912814
leaf_weight=5.8331444561481467 49.049377113580704 14.089541412889956 16.904407642781734 18.347120955586433 2266.1181775927544 10966.054846718907 37.182612545788288 11.279283449053763 23.520734280347821 10.643388301134111
leaf_count=65 655 172 120 229 13323 147891 232 136 312 128
internal_value=8.44803e-05 -0.0479787 0.0895599 0.233546 0.235833 -0.0492733 0.213384 -0.0151093 -0.0243789 -0.0354719
internal_weight=13419 11128.7 103.136 2290.3 2271.95 11025.6 54.087 59.5329 48.2537 34.1641
internal_count=163263 149646 1007 13617 13388 148639 352 748 612 440
is_linear=0
shrinkage=0.05


Tree=31
num_leaves=29
num_cat=0
split_feature=0 0 16 16 15 10 15 9 1 0 16 15 16 15 16 12 15 9 0 16 6 6 8 11 7 7 8 15
split_gain=20046.4 31721.8 1461.19 636.183 6325.46 296.65 173.379 87.8591 207.539 96.7372 97.0855 146.159 72.8557 195.545 42.4144 13.4732 6.07281 8.05554 2.31991 5.93357 0.805658 1.32861 3.50118 0.637237 0.612924 4.74014 0.563433 0.313898
threshold=0.93590301275253307 0.94874367117881786 -1.1086267232894895 -0.78138624131679524 0.3663818240165711 -0.13376728445291516 0.36639656126499182 -0.10050442069768904 -0.10801299288868903 0.95675846934318554 -1.1343936920166013 0.36637230217456823 -0.78138624131679524 0.36637403070926672 -1.099608242511749 1.0000000180025095e-35 0.36637403070926672 -0.1004161164164543 0.96309375762939464 -1.1459888219833372 -0.27387121319770807 -0.27388840913772577 0.0112600214779377 -0.11092396825551985 -0.30721181631088251 -0.30686067044734949 -0.029376122169196602 0.36636708676815039
decision_type=2 2 2 2 2 2 2 2 2 2 2 2 2 2 2 2 2 2 2 2 2 2 2 2 2 2 2 2
left_child=3 2 -2 4 14 15 23 8 12 10 11 -9 13 -3 16 -6 27 -18 19 -11 21 24 -23 -7 26 -26 -20 -1
right_child=1 7 -4 -5 5 6 -8 9 -10 18 -12 -13 -14 -15 -16 -17 17 -19 20 -21 -22 22 -24 -25 25 -27 -28 -29
leaf_value=-0.049442755936891958 0.23522297993903085 -0.047308950391454198 -0.048412554452695454 -0.049455726633647668 0.16463824139612018 -0.019793047951053033 0.20492230295678066 -0.04389256284413004 0.18890992063262246 0.0033277725795493596 -0.046850391383679191 0.23578852966535935 -0.048935028330699709 0.21167655982757105 0.066632274346866915 0.23703198642096621 0.031321331696181676 -0.043869391471838 -0.035146645756033081 -0.0468497377000653 -0.049311672331810025 -0.044470927625625795 0.0048580561308449802 -0.046088887417147936 0.0010936368800201245 -0.04704332106705806 -0.047906620512915721 -0.032996312072087884
leaf_weight=1997.8022456243634 2034.4586667343974 21.066114954650406 46.124789044260979 6876.0664727799594 17.099967584013939 5.6909885928034827 11.141157209873201 7.8388405442237881 11.574106141924856 8.3889243304729479 17.801609344780445 9.6559452116489393 84.164292007684708 9.934056915342806 7.1193285882472983 212.65490931272507 5.1483819782733917 7.6406741365790349 23.271011359989643 17.840592913329601 1659.009853951633 8.9046887010335904 5.3641312047839156 11.852713666856285 6.8181876540184048 18.939479127526283 251.95971164107323 10.979078844189642
leaf_count=26913 12018 279 622 92709 139 74 74 105 94 107 239 61 1122 77 79 1259 63 100 310 240 22374 120 67 149 86 253 3388 142
internal_value=-0.00025237 0.0895847 0.228915 -0.0418576 -0.0190028 0.213484 0.059397 -0.0445095 -0.00408322 -0.047023 0.0342659 0.114875 -0.0249384 0.0397047 -0.0487104 0.232381 -0.0491494 -0.0135242 -0.0484736 -0.0312687 -0.0486863 -0.0452496 -0.0268229 -0.0390862 -0.0460314 -0.0347366 -0.0469589 -0.0493693
internal_weight=13406.3 4243.12 2080.58 9163.2 2287.13 258.44 28.6849 2162.53 126.739 2035.79 35.2964 17.4948 115.164 31.0002 2028.69 229.755 2021.57 12.7891 2000.5 26.2295 1974.27 315.257 14.2688 17.5437 300.988 25.7577 275.231 2008.78
internal_count=163263 41562 12640 121701 28992 1695 297 28922 1572 27350 405 166 1478 356 27297 1398 27218 163 26945 347 26598 4224 187 223 4037 339 3698 27055
is_linear=0
shrinkage=0.05


Tree=32
num_leaves=5
num_cat=0
split_feature=7 13 0 7
split_gain=32543.1 29313 1016.32 4.15702
threshold=-0.099121153354644762 0.56983251869678508 -1.123577833175659 -0.10029014572501181
decision_type=2 2 2 2
left_child=3 -2 -3 -1
right_child=1 2 -4 -5
leaf_value=-0.049457947977975862 -0.049430333921571673 0.23679539496725321 -0.048121243749663707 -0.020353817903658769
leaf_weight=9547.1592254415154 1508.0394980944693 2318.647429510951 31.414364114403725 14.175882980227469
leaf_count=128724 20332 13621 406 180
internal_value=4.38461e-05 0.122601 0.232968 -0.0494169
internal_weight=13419.4 3858.1 2350.06 9561.34
internal_count=163263 34359 14027 128904
is_linear=0
shrinkage=0.05


Tree=33
num_leaves=19
num_cat=0
split_feature=8 5 16 16 8 1 1 13 13 16 9 15 13 6 7 6 9 9
split_gain=23998.5 14109.9 2621.62 2461.11 2426.25 5114.52 6621.25 1002.43 3128.68 437.566 81.7384 300.85 55.94 26.9281 8.15329 0.635331 0.410388 0.809638
threshold=1.0000000180025095e-35 -0.13189809396862981 0.37619465589523321 0.39358735084533697 -0.029376122169196602 -0.56178107857704151 -0.56183812022209156 -0.5195239484310149 -0.52456891536712635 0.37619465589523321 0.14725796133279803 0.36689065396785742 -0.40922828018665308 -0.27390560507774347 0.027506146579980854 -0.27389165759086603 0.049204224720597274 0.11403097212314607
decision_type=2 2 2 2 2 2 2 2 2 2 2 2 2 2 2 2 2 2
left_child=4 2 -2 -4 12 6 -6 8 10 -8 16 15 -1 -11 -3 -12 -7 -18
right_child=1 14 3 -5 5 7 9 -9 -10 13 11 -13 -14 -15 -16 -17 17 -19
leaf_value=-0.049454886542374121 -0.048971482267582148 -0.049399697490954603 0.23651991181793719 -0.048880790157868323 -0.049334322976243183 -0.049370615390273147 -0.046299723721485116 -0.049439045944622569 0.23523270222133583 0.13997357434109303 0.12726451481646053 -0.048721852308091979 0.087483679078332821 0.2369127062995644 0.0022813188655699916 0.19602176582845829 -0.032297633500028462 -0.04791997830164324
leaf_weight=7249.0086389668286 92.417975924909115 725.79852719604969 1683.282007291913 78.757412418723106 386.76438875496387 314.69786985963583 13.953585490584372 2097.3914295807481 134.52566752582788 12.385614760220049 12.533745020627977 63.975658118724823 6.5954425334930411 467.52724607288837 7.6252685338258734 8.9756536558270437 27.71429082006216 31.018084414303303
leaf_count=97764 1236 9776 9900 1053 5216 4203 182 28281 801 100 105 859 68 2781 94 64 362 418
internal_value=-1.65475e-05 0.136742 0.210133 0.223743 -0.0327141 0.00102255 0.105544 -0.0332109 0.0241306 0.22669 -0.0381284 0.00592098 -0.0493184 0.234707 -0.04886 0.16339 -0.048201 -0.0412123
internal_weight=13414.9 2587.88 1854.46 1762.04 10827.1 3571.46 880.631 2690.83 593.441 493.866 458.915 85.4851 7255.6 479.913 733.424 21.5094 373.43 58.7324
internal_count=163263 22059 12189 10953 141204 43372 8279 35093 6812 3063 6011 1028 97832 2881 9870 169 4983 780
is_linear=0
shrinkage=0.05


Tree=34
num_leaves=9
num_cat=0
split_feature=4 16 16 14 16 4 16 15
split_gain=45869.7 6008.42 5177.85 3773.21 468.961 39.4633 904.073 334.756
threshold=0.17380474507808688 0.40775918960571295 0.42579606175422674 11.089245796203615 0.40904752910137182 0.08431821316480638 0.42450770735740667 0.36689671874046331
decision_type=2 2 2 2 2 2 2 2
left_child=3 -2 -3 5 -5 -1 7 -7
right_child=1 2 -4 4 -6 6 -8 -9
leaf_value=-0.049457001448214126 -0.049339547717281412 0.23659844492667631 -0.049299688083970478 -0.046920891054072364 0.23539094542968397 -0.046262254106827827 -0.049415178755985667 0.24518398941398456
leaf_weight=9658.1349348686635 235.81209026277065 2136.8409631699324 170.70013947039843 16.195876143872738 132.32954455167055 13.040420427918432 1009.2003061398864 36.020815387368202
leaf_count=130245 3140 12627 2254 206 801 163 13605 222
internal_value=-0.000221123 0.190878 0.215437 -0.0449687 0.204498 -0.0484449 -0.0391706 0.168341
internal_weight=13408.3 2543.35 2307.54 10864.9 148.525 10716.4 1058.26 49.0612
internal_count=163263 18021 14881 145242 1007 144235 13990 385
is_linear=0
shrinkage=0.05


Tree=35
num_leaves=10
num_cat=0
split_feature=13 16 16 2 16 16 16 16 3
split_gain=38001.7 22095.2 482.817 123.619 291.889 711.888 24.7968 1485.88 0.806359
threshold=1.1614604890346529 -1.2026761174201963 -1.2065411806106565 -0.41182737052440638 -1.2026761174201963 -1.2052528262138364 -1.2026761174201963 -1.2052528262138364 -0.0085525861941277963
decision_type=2 2 2 2 2 2 2 2 2
left_child=3 2 -2 4 5 -1 7 -5 -9
right_child=1 -3 -4 6 -6 -7 -8 8 -10
leaf_value=-0.048619840310061835 -0.046731999096867746 -0.049432375875343909 0.2375608080188478 -0.049441659068427124 -0.049210952096178158 0.23877550876135231 -0.04945718257282565 0.2533674518814652 0.17836165972392737
leaf_weight=56.882776379585266 14.731242947280405 972.47106420993805 2237.6433693766594 2107.4843928962946 192.99947891384363 33.431687548756599 7756.0720910131931 32.361236982047558 13.343587592244146
leaf_count=765 185 13069 13180 28403 2601 204 104560 209 87
internal_value=0.000144516 0.149715 0.235682 -0.0471884 -0.0145603 0.0592151 -0.0481197 -0.0432812 0.235757
internal_weight=13417.4 3224.85 2252.37 10192.6 283.314 90.3145 9909.26 2153.19 45.7048
internal_count=163263 26434 13365 136829 3570 969 133259 28699 296
is_linear=0
shrinkage=0.05


Tree=36
num_leaves=3
num_cat=0
split_feature=15 1
split_gain=44067.5 5041.68
threshold=0.36719447374343878 -0.5634644329547881
decision_type=2 2
left_child=-1 -2
right_child=1 -3
leaf_value=-0.049225200026980602 0.1889527192014353 -0.049027970240834912
leaf_weight=10238.279719382524 2726.4367727488279 241.92705169692636
leaf_count=146145 13646 3453
internal_value=-4.42333e-05 0.169547
internal_weight=13206.6 2968.36
internal_count=163244 17099
is_linear=0
shrinkage=0.05


Tree=37
num_leaves=48
num_cat=0
split_feature=16 6 4 16 16 2 9 0 3 16 6 6 16 15 0 1 0 10 1 3 16 15 16 4 9 15 6 8 13 16 12 16 13 15 8 3 7 8 1 4 0 0 8 0 8 1 9
split_gain=11796.2 6449.48 4149.99 5905.2 2065.78 1213.72 1121.4 729.9 554.738 2774.86 422.877 385.886 353.58 324.635 372.238 455.878 320.649 277.689 176.026 558.484 171.793 170.723 170.124 157.404 109.555 102.597 97.2682 96.7222 566.413 349.807 336.92 267.814 252.542 193.062 146.433 82.0651 73.7481 66.0747 61.1231 236.207 53.7046 1108.62 86.0259 50.1752 47.1156 470.641 44.7719
threshold=1.3340815901756289 -0.27390661835670466 0.17380474507808688 0.40775918960571295 0.42708441615104681 3.9438595771789555 -0.094254240393638597 1.1776859164237978 -0.0084374556317925436 0.37619465589523321 -0.26245000958442682 -0.27387121319770807 1.2748175263404848 0.36688935756683355 -1.4091762900352476 -0.5634644329547881 -0.019110686145722863 1.3792177438735964 -0.54112413525581349 -0.0081920465454459173 -0.78138624131679524 -2.3761744499206539 -1.2052528262138364 -0.12448368221521376 -0.083331771194934831 0.36689846217632299 -0.27389040589332575 -0.029376122169196602 -0.54197409749031056 -1.2439032793045042 1.0000000180025095e-35 1.2748175263404848 -0.47550658881664271 -2.3760375976562496 -0.0019192683103028683 -0.0084798722527921182 2.6582883596420293 0.43519383668899542 -0.54112413525581349 2.5153689384460454 -1.4008851051330564 -1.0925390720367429 0.040913423523306854 1.0716229081153872 -0.024983026087284085 -0.54112413525581349 -0.088944468647241579
decision_type=2 2 2 2 2 2 2 2 2 2 2 2 2 2 2 2 2 2 2 2 2 2 2 2 2 2 2 2 2 2 2 2 2 2 2 2 2 2 2 2 2 2 2 2 2 2 2
left_child=1 6 5 26 38 7 13 8 21 11 23 20 18 -1 -15 -16 -8 -18 -11 -20 22 36 -10 37 -6 -17 43 32 30 -30 34 33 46 -31 -29 40 -3 -7 -5 -40 -35 -42 44 -4 45 -43 -23
right_child=-2 2 3 4 24 10 16 -9 9 12 -12 -13 -14 14 15 25 17 -19 19 -21 -22 27 -24 -25 -26 -27 -28 28 29 31 -32 -33 -34 35 -36 -37 -38 -39 39 -41 41 42 -44 -45 -46 -47 -48
leaf_value=0.18638713185074185 0.18981532204937057 0.0069867193992372307 0.13611285037459347 -0.048010766176914993 0.17482987416803009 0.19081564078804047 0.20199328840811481 0.18044895501817962 0.24872474305261086 -0.048603929372128624 -0.042534364297514331 0.20848643066896999 0.19587245334567349 -0.034653854708546587 -0.047510767513777918 0.066918377470173457 -0.039433985622353791 0.19761601535959836 0.2159673630593571 -0.034296482931905507 0.24100522025311399 -0.045810851854352165 -0.017768353309335263 -0.018193646610481506 0.007695422174633264 0.20321534930517268 0.1870501395698744 0.18858083452686947 0.18339304096679823 0.18284831361948772 -0.024487220202285366 0.19801506094930782 0.14738033862171596 -0.049004948922449498 -0.022022920997694147 0.10513448784032048 0.13181236306458721 0.062856969854741887 0.22905091622090501 -0.038758206220753766 0.2096063396975 -0.048988649307963525 0.11325388523365865 -0.034113373445762978 -0.046861166030690404 0.17198654231984212 -0.021961774854812464
leaf_weight=414.40831698477268 772.54488874971867 34.697602473199368 8.1195337250828725 841.42059890180826 127.98979956656694 88.827545687556267 18.218797884881496 38.332503139972687 5.9025357738137236 908.31938441097736 34.662044659256935 143.52316305786371 15.119701549410818 37.477467983961105 25.692633509635925 17.49808543920517 123.73990311473608 12.717995181679724 25.985258020460606 127.2291250154376 9.4356178566813451 5439.208460599184 44.483342185616493 11.48682029545307 10.71356203407049 98.701908014714718 552.15069890767336 51.330904945731163 16.854861736297607 8.7333019673824293 44.270153053104877 10.914297617971895 16.174769923090935 1208.2881867587566 9.5664982646703702 8.7055741474032384 17.051879152655602 12.785474605858324 8.825363561511038 49.829536639153957 44.053647257387638 192.76750965416431 7.9212800785899153 7.6263061687350264 1255.7084945365787 26.530260600149632 206.99986258149147
leaf_count=2155 3870 389 51 11932 733 477 99 230 41 12875 467 780 81 477 355 129 1703 70 147 1756 61 76839 503 144 107 526 2843 302 124 46 584 60 118 17166 117 75 122 120 94 668 299 2742 61 78 17669 149 2810
internal_value=0.000371556 -0.0114255 -0.020553 0.0540473 -0.016853 -0.0324646 0.130759 -0.0345878 -0.0354402 -0.00472611 0.109322 0.164207 -0.0367548 0.161949 0.104769 0.141579 0.0107529 -0.0160638 -0.0402494 0.00927363 0.056291 -0.0400107 0.0176832 0.155827 0.162068 0.183437 0.183538 -0.0405604 -0.0330815 -0.037398 0.0803198 -0.0388105 -0.0443652 -0.039821 0.155675 -0.0405961 0.0498369 0.175485 -0.0445743 0.00470115 -0.0410981 -0.0348136 -0.042211 0.0565522 -0.043122 -0.0215961 -0.0449405
internal_weight=13193.5 12421 11672.5 1606.68 1038.78 10065.9 748.455 9918.11 9879.78 1280 147.762 203.345 1076.65 593.778 179.37 141.893 154.677 136.458 1061.53 153.214 59.8215 8599.78 50.3859 113.1 138.703 116.2 567.897 8548.03 2885.64 2780.48 105.168 2763.62 5662.38 2752.71 60.8974 2743.97 51.7495 101.613 900.075 58.6549 2735.27 1526.98 1482.93 15.7458 1475.01 219.298 5646.21
internal_count=163244 159374 153860 16506 13534 137354 5514 136146 135916 16244 1208 1385 14859 3642 1487 1010 1872 1773 14778 1903 605 119672 544 741 840 655 2972 119161 39394 38391 1003 38267 79767 38207 419 38161 511 597 12694 762 38086 20920 20621 129 20560 2891 79649
is_linear=0
shrinkage=0.05


Tree=38
num_leaves=9
num_cat=0
split_feature=4 4 16 10 15 15 9 4
split_gain=29442.3 18751.8 392.609 141.041 73.9808 446.897 28.9989 6.22146
threshold=0.1588903218507767 0.17380474507808688 0.42450770735740667 -0.13376728445291516 0.36690278351306921 0.36690755188465124 -0.09638472273945807 0.12906147912144664
decision_type=2 2 2 2 2 2 2 2
left_child=7 2 -2 -3 -5 6 -6 -1
right_child=1 3 -4 4 5 -7 -8 -9
leaf_value=-0.04922638648754471 -0.046807929081554511 0.12455399765443963 0.18964072187912492 -0.049211354857698987 0.097695522213415084 -0.048954808085446652 0.23633107260028249 -0.0059338392061085987
leaf_weight=9200.3610035255551 17.312607318162918 11.455823905766009 2688.1830321475863 1138.4343229047954 8.0161979198455828 120.65377657115459 13.846631065011023 8.5993160083889943
leaf_count=131306 232 104 13496 16175 69 1683 104 75
internal_value=2.04904e-06 0.11329 0.188111 -0.0433643 -0.044962 -0.0109115 0.191996 -0.0491866
internal_weight=13206.9 3997.9 2705.5 1292.41 1280.95 142.517 21.8628 9208.96
internal_count=163244 31863 13728 18135 18031 1856 173 131381
is_linear=0
shrinkage=0.05


Tree=39
num_leaves=10
num_cat=0
split_feature=15 15 13 11 0 0 7 7 11
split_gain=29633.2 18420.6 491.236 120.607 38.7844 33.4682 21.4963 12.3896 0.460214
threshold=0.36690755188465124 0.36718840897083288 -0.53959873318672169 0.0040934367571026095 1.1692671775817873 0.10744638368487359 -0.30686067044734949 -0.30672702193260187 1.5161015987396242
decision_type=2 2 2 2 2 2 2 2 2
left_child=-1 2 3 -2 6 -5 8 -8 -4
right_child=1 -3 4 5 -6 -7 7 -9 -10
leaf_value=-0.049224813320277713 -0.047514290666632986 -0.049184497483592625 0.18886445514592495 0.16903106463362638 0.10119491645224435 0.041576148263521268 0.16297518610544839 0.077462322892696792 0.16177650403000735
leaf_weight=9222.2054896913469 25.902782388031483 1207.0066835656762 2642.6021662503481 10.653589472174646 16.666221611201763 10.782735474407671 12.707137644290926 10.977346681058405 49.896831274032593
leaf_count=131638 360 17248 13265 79 107 103 64 100 280
internal_value=1.67675e-05 0.113894 0.184686 0.0244405 0.187452 0.10963 0.187944 0.128085 0.188423
internal_weight=13209.4 3987.2 2780.19 47.3391 2732.85 21.4363 2716.18 23.6845 2692.5
internal_count=163244 31606 14358 542 13816 182 13709 164 13545
is_linear=0
shrinkage=0.05


Tree=40
num_leaves=7
num_cat=0
split_feature=7 0 0 16 16 16
split_gain=34765.5 9814.9 653.855 3395.72 422.114 5.70815
threshold=-0.084076203405857072 -1.4116423726081846 -1.4132155776023863 0.37619465589523321 1.0000000180025095e-35 0.3613786399364472
decision_type=2 2 2 2 2 2
left_child=2 5 3 4 -1 -2
right_child=1 -3 -4 -5 -6 -7
leaf_value=-0.047594460357293165 0.15836168304324025 -0.049145571659513332 -0.049224004785660087 -0.049205719261243293 0.19463627764889987 0.18919934950217077
leaf_weight=19.460419680923223 52.537127237766981 523.53061731159687 8972.85674309358 966.94763452187181 190.71481420099735 2475.1952436715364
leaf_count=241 297 7456 128099 13771 983 12397
internal_value=-0.000138042 0.147823 -0.0446279 -0.00958109 0.172089 0.188621
internal_weight=13201.2 3051.26 10150 1177.12 210.175 2527.73
internal_count=163244 20150 143094 14995 1224 12694
is_linear=0
shrinkage=0.05


Tree=41
num_leaves=17
num_cat=0
split_feature=16 16 10 4 9 6 16 9 9 9 9 9 9 9 9 9
split_gain=31239.2 17419.9 354.832 43.6011 17.2809 12.5198 2.82703 3.87083 23.9764 10.3637 1.66561 2.51639 1.08884 7.67147 2.68122 16.0987
threshold=-1.2065411806106565 -1.2439032793045042 -0.17036619037389752 2.3662247657775883 -0.097519461065530763 -0.27298867702484125 -1.2052528262138364 -0.093722462654113756 -0.093333538621664033 -0.093405861407518373 -0.093572799116373048 -0.093643099069595323 -0.091988880187273012 -0.092027187347412095 -0.092260286211967454 -0.092234440147876726
decision_type=2 2 2 2 2 2 2 2 2 2 2 2 2 2 2 2
left_child=1 -1 -3 4 -4 -6 7 -2 9 10 11 -9 13 14 -10 -16
right_child=6 2 3 -5 5 -7 -8 8 12 -11 -12 -13 -14 -15 15 -17
leaf_value=-0.049215101415674076 -0.048253042737886088 0.18923663429792659 -0.046641785412721341 0.13529030916791349 0.075938853347013668 -0.020050450506653442 -0.049223997080325273 0.0011679961690422411 -0.0485523647078272 0.044734762026496441 -9.9487946269663529e-05 -0.043689683951789252 -0.048890778897719284 0.013132615499565096 0.046045617078060964 -0.046951096266614673
leaf_weight=1084.880150206387 594.22422442957759 2720.3080975934863 13.696402959525589 5.4496906623244277 6.3516237959265709 5.6932464092969894 8504.5286388359964 4.7409661114215869 72.696844153106213 8.72191369533539 8.7988091185688955 7.8993439823389053 148.59239557385445 5.9493721798062316 5.060413762927058 20.734815582633018
leaf_count=15397 8480 13635 175 58 62 75 121400 59 1040 93 110 113 2126 71 53 297
internal_value=0.000246079 0.120431 0.187314 0.0189862 -0.00977497 0.0325087 -0.0489066 -0.0457772 -0.0404306 0.00166325 -0.0170719 -0.0280129 -0.0454349 -0.040101 -0.0434163 -0.0276698
internal_weight=13218.3 3836.38 2751.5 31.191 25.7413 12.0449 9381.95 877.419 283.195 30.161 21.4391 12.6403 253.034 104.441 98.4921 25.7952
internal_count=163244 29402 14005 370 312 137 133842 12442 3962 375 282 172 3587 1461 1390 350
is_linear=0
shrinkage=0.05


Tree=42
num_leaves=10
num_cat=0
split_feature=16 10 0 9 9 16 16 16 16
split_gain=47409.9 1193.69 518.301 18.6079 26.0361 18.5597 5.33278 5.8547 0.0298824
threshold=-1.2748236060142515 -0.17036619037389752 0.31853072345256811 -0.1004161164164543 -0.10043732821941374 -1.2439032793045042 -1.25549840927124 -1.2683818936347959 -1.2490566372871397
decision_type=2 2 2 2 2 2 2 2 2
left_child=1 2 3 4 -1 6 7 -2 -8
right_child=5 -3 -4 -5 -6 -7 8 -9 -10
leaf_value=0.051963876437859574 -0.0057865237061100524 -0.04873684098832292 -0.049742065913320886 0.18970019511814706 0.17672585625918455 -0.049223496438834495 0.00027597306961621909 -0.047268559187941678 -0.0032544725791293534
leaf_weight=8.6018708348274231 13.725629553198813 54.241797849535942 22.491014078259468 2702.5061684623361 10.025028586387634 10353.554362606257 11.914907440543175 22.782135777175426 10.775436796247959
leaf_count=91 168 729 232 13536 51 147847 142 317 131
internal_value=3.86567e-05 0.182732 0.187324 0.189301 0.124694 -0.0490631 -0.020667 -0.0322429 -0.00146721
internal_weight=13210.6 2797.87 2743.62 2721.13 18.6269 10412.8 59.1981 36.5078 22.6903
internal_count=163244 14639 13910 13678 142 148605 758 485 273
is_linear=0
shrinkage=0.05


Tree=43
num_leaves=27
num_cat=0
split_feature=0 0 15 12 0 0 8 2 8 0 15 15 15 15 4 15 2 13 15 15 6 15 15 1 13 1
split_gain=17423.3 23232.1 934.94 416.092 2138.48 2605.1 164.247 122.994 314.617 93.4226 49.9924 136.225 12.7757 605.626 10.3482 9.82266 9.76933 9.05205 27.3679 6.18265 2.57892 13.172 146.971 1.6901 0.363771 0.281605
threshold=0.93590301275253307 0.94874367117881786 0.36638225615024572 1.0000000180025095e-35 0.147222675383091 0.13859137147665027 -0.024983026087284085 -0.4118212610483169 -0.032670944929122918 0.95675846934318554 0.36637705564498907 0.36637230217456823 0.36649668216705328 0.36639656126499182 3.7830947637557988 0.3663818240165711 -0.41182889044284815 -0.53949365019798268 0.36649668216705328 0.36634802818298345 -0.27358286082744593 0.36649668216705328 0.36637316644191747 -0.56600376963615406 -0.55269464850425709 -0.40034872293472284
decision_type=2 2 2 2 2 2 2 2 2 2 2 2 2 2 2 2 2 2 2 2 2 2 2 2 2 2
left_child=3 2 25 12 5 24 -7 8 -3 10 11 -9 13 14 -1 -8 -10 18 -6 -16 21 22 -11 -19 -5 -2
right_child=1 7 -4 4 17 6 15 9 16 20 -12 -13 -14 -15 19 -17 -18 23 -20 -21 -22 -23 -24 -25 -26 -27
leaf_value=-0.048781520306806353 0.17032282000834059 0.20002761980315822 -0.048086624249032581 -0.033623508899977922 0.074770920144444017 0.18969327201615893 -0.041962889718125923 -0.045300608837705071 -0.048281516226326641 -0.04793381949045275 -0.045514826992850775 0.19093596620554976 -0.049220209513002516 0.1811419455314415 -0.031992076131029293 0.041190003730644305 0.014126742735907161 -0.021705497265552601 -0.046564217260964866 0.032078004181630933 -0.048838694170864679 -0.049041583965192974 0.1674449061724527 -0.049015554800178426 -0.048399713345180118 0.1889163947893705
leaf_weight=1382.70074211061 108.37120401859283 17.222868874669075 42.255912784487009 14.501370288431643 5.2775409221649197 240.79358913004398 5.7636487334966642 11.364552125334741 46.38295566663146 73.284637730568647 12.219189953058956 11.445715785026549 4979.929582297802 28.387411043047905 7.5898566097021085 6.4803092554211617 6.774205580353736 7.9147482588887206 17.147507824003696 5.7164627015590668 1625.2029912658036 241.40108032897115 7.8830874636769286 1774.4975550100207 230.7077881321311 2289.5340781584382
leaf_count=19658 590 94 604 199 53 1208 82 160 650 1037 174 61 71079 163 105 71 84 109 242 73 23177 3434 72 25308 3286 11471
internal_value=-0.000172073 0.0797818 0.184039 -0.0414356 -0.023194 0.0684133 0.180646 -0.0441543 0.0205545 -0.0464604 0.0337097 0.0762786 -0.0479909 -0.0436617 -0.0483594 0.00183417 -0.0402144 -0.0485072 -0.0160361 -0.00414898 -0.0479187 -0.0431471 -0.0252328 -0.0489065 -0.047666 0.188147
internal_weight=13200.8 4493.34 2440.16 8707.41 2303.08 498.247 253.038 2053.18 70.38 1982.8 35.0295 22.8103 6404.32 1424.39 1396.01 12.244 53.1572 1804.84 22.425 13.3063 1947.77 322.569 81.1677 1782.41 245.209 2397.91
internal_count=163244 41608 12665 121636 30558 4846 1361 28943 828 28115 395 221 91078 19999 19836 153 734 25712 295 178 27720 4543 1109 25417 3485 12061
is_linear=0
shrinkage=0.05


Tree=44
num_leaves=6
num_cat=0
split_feature=6 13 0 6 1
split_gain=30360.2 17586.5 637.717 131.218 287.176
threshold=-0.023014878854155537 0.56983251869678508 -1.123577833175659 -0.043078361079096787 0.64553752541542064
decision_type=2 2 2 2 2
left_child=3 -2 -3 -1 -5
right_child=1 2 -4 4 -6
leaf_value=-0.049224544766539591 -0.049182769659117179 0.1891471823933128 -0.047751637173084095 -0.048050463423255738 0.20914635954440042
leaf_weight=9314.1440809182823 1113.2170795761049 2693.6154447048903 28.344870805740356 33.988287676125765 14.766594395041464
leaf_count=132962 15900 13452 385 462 83
internal_value=-0.000260627 0.118211 0.186664 -0.0487956 0.0324857
internal_weight=13198.1 3835.18 2721.96 9362.9 48.7549
internal_count=163244 29737 13837 133507 545
is_linear=0
shrinkage=0.05


Tree=45
num_leaves=22
num_cat=0
split_feature=8 5 8 13 15 11 15 13 13 15 15 1 15 15 2 13 8 1 1 10 7
split_gain=19991 10186.3 2309.48 4253.39 5532.1 1644.49 1075.24 1245.99 630.403 520.375 247.837 247.293 327.574 148.805 146.735 60.9447 50.062 32.7519 359.282 31.4218 8.32026
threshold=1.0000000180025095e-35 -0.13189809396862981 -0.029376122169196602 -0.5195239484310149 0.36689195036888128 -0.18965648859739301 0.3668860942125321 -0.53949365019798268 -0.54197409749031056 -2.3760319948196407 0.36688761413097387 -0.56178107857704151 0.36688804626464849 0.36689195036888128 -0.41097255051136011 -0.40922828018665308 0.094728857278823866 -0.54112413525581349 1.4063922762870791 -0.10476437583565711 0.027506146579980854
decision_type=2 2 2 2 2 2 2 2 2 2 2 2 2 2 2 2 2 2 2 2 2
left_child=2 5 15 4 6 10 7 -4 -7 -9 16 12 -5 -12 19 -1 -2 -16 -19 -10 -3
right_child=1 20 3 11 -6 8 -8 9 14 -11 13 -13 -14 -15 17 -17 -18 18 -20 -21 -22
leaf_value=-0.04922129429082911 -0.048756261005935303 -0.049165236764568201 -0.048955089718901799 -0.047877379199894272 -0.049170019628167957 -0.048111819038085882 0.18959434608720993 0.18839235797796228 -0.043829186554769389 -0.047642377779089723 0.18946472102671758 -0.049202432070488293 0.18297029515397722 -0.044519211703681574 0.1892962405063236 0.087559762874085331 0.072670638690630743 -0.046704185291823311 0.18626992888297755 0.098251001079298586 0.0036222199303251866
leaf_weight=6856.2004819959402 92.348332196474075 689.9010234028101 125.11017898097634 34.756317108869553 613.07485324516892 28.846573144197464 546.74138115346432 160.08774376660585 7.6684191338717937 26.893513042479753 21.975647270679477 1965.8148548714817 26.106670774519444 9.1822720468044263 1795.6027270779014 7.2823881804943076 8.4545246511697751 18.049996796995401 159.81355865299702 6.1334588527679426 7.4123680219054213
leaf_count=97900 1304 9834 1745 494 8714 395 2772 810 106 374 118 28076 143 127 8978 69 79 254 812 48 92
internal_value=2.40825e-05 0.11739 -0.0322124 0.000850207 0.0655164 0.171272 0.147347 0.0729661 0.182459 0.154371 0.000267136 -0.0461238 0.0524998 0.121269 0.185828 -0.0490634 -0.0379582 0.186965 0.162498 0.0216824 -0.0485997
internal_weight=13207.5 2845.39 10362.1 3498.59 1471.91 2148.08 858.833 312.091 2016.11 186.981 131.961 2026.68 60.863 31.1579 1987.27 6863.48 100.803 1973.47 177.864 13.8019 697.313
internal_count=163244 22147 141097 43128 14415 12221 5701 2929 10593 1184 1628 28713 637 245 10198 97969 1383 10044 1066 154 9926
is_linear=0
shrinkage=0.05


Tree=46
num_leaves=21
num_cat=0
split_feature=3 8 15 7 15 1 14 8 0 5 3 14 7 15 5 5 15 15 3 2
split_gain=23040.5 13206 3723.71 2757.74 2453.31 1621.44 299.635 206.69 94.4509 106.05 94.1104 71.595 131.351 56.585 161.851 38.9141 673.558 265.469 4.33999 2.359
threshold=-0.0084495749324560148 -0.034867493435740464 0.36689671874046331 -0.25553180277347559 0.36690278351306921 -0.18596158176660535 11.089245796203615 -0.029376122169196602 -0.36179056763648981 0.088006146252155318 -0.000602531392360106 11.089245796203615 -0.20016554743051526 -2.3760288953781123 0.11282023787498476 -0.1216301955282688 0.36690235137939459 0.36689671874046331 -0.0014175331452861426 -0.41147522628307337
decision_type=2 2 2 2 2 2 2 2 2 2 2 2 2 2 2 2 2 2 2 2
left_child=11 2 13 6 -4 -5 7 10 9 -7 -3 15 -13 14 -2 -1 17 -17 -10 -12
right_child=1 3 4 5 -6 8 -8 -9 18 -11 19 12 -14 -15 -16 16 -18 -19 -20 -21
leaf_value=-0.049222090551288483 -0.047196220603391514 -0.045577236879955296 0.18924377681295493 -0.049100136506235556 -0.048850005094446494 -0.045245422673029494 0.15070736004965909 -0.049214631867984499 0.18936061123462455 0.19146861519987596 0.097555031834308109 -0.045990133123733047 0.21519154896955719 -0.048982272857428927 0.20220561107142798 -0.046472199384990753 -0.049170250011128375 0.19519730288422435 0.16103840350538862 0.15677247955241794
leaf_weight=7724.7192404940724 21.95593086630106 10.72797382250428 2383.1007130146027 116.66281240433455 112.95197356119752 10.35420171916485 18.622436515986919 1404.9193514995277 174.80848930776119 7.2779560163617125 13.070367425680159 13.047454148530962 6.3927294909954062 184.11412427946925 8.0954377502203005 15.22597214579582 854.33518940210342 40.238526538014412 77.670677341520786 10.183899693191053
leaf_count=110303 306 145 11933 1629 1593 140 105 20010 910 44 112 178 39 2620 48 204 12201 209 453 62
internal_value=6.18072e-05 0.0910784 0.161292 -0.012133 0.178454 0.106387 -0.0436353 -0.0462534 0.173477 0.0574943 0.0740786 -0.0478446 0.0462231 -0.0386288 0.0243376 -0.0480617 -0.0381659 0.129207 0.181317 0.128883
internal_weight=13208.5 4554.52 2710.22 1844.3 2496.05 386.774 1457.52 1438.9 270.111 17.6322 33.9822 8653.96 19.4402 214.165 30.0514 8634.52 909.8 55.4645 252.479 23.2543
internal_count=163244 40110 16500 23610 13526 3176 20434 20329 1547 184 319 123134 217 2974 354 122917 12614 413 1363 174
is_linear=0
shrinkage=0.05


Tree=47
num_leaves=17
num_cat=0
split_feature=8 8 7 15 15 15 3 9 2 15 10 8 14 15 15 15
split_gain=15372.5 26375.8 2342.2 752.125 3252.65 54.6757 177.779 46.0484 17.4639 203.672 14.2766 51.255 8.07003 24.739 312.029 4.06218
threshold=-0.024983026087284085 -0.021688203327357766 -0.30762208998203272 0.36635495722293859 0.36635366082191473 0.36635625362396246 -0.0085525861941277963 -0.10040245950222014 0.40177541971206671 -2.3761744499206539 -0.17520000785589215 0.0068669244647026071 -0.10868721082806586 0.36635625362396246 0.36635409295558935 -1.0000000180025095e-35
decision_type=2 2 2 2 2 2 2 2 2 2 2 2 2 2 2 2
left_child=12 2 7 4 8 6 -4 -2 9 -3 11 -10 -1 14 -14 -8
right_child=1 3 5 -5 -6 -7 15 -9 10 -11 -12 -13 13 -15 -16 -17
leaf_value=-0.049185587335733534 0.046645170909555417 0.15876529014002885 0.18456668204232066 -0.049215349090398527 0.20118805810280743 -0.048712316418679895 -0.04757858199021775 0.18869601485524734 0.10815829294517246 -0.048848519062685059 -0.049147308930439865 -0.047232740197867704 -0.048875226107364375 -0.04911907600376917 0.18878271603813379 0.0028032710938981037
leaf_weight=6753.1866191141307 6.4848552569746962 12.334849916398523 10.919969648122786 2425.3030947558582 168.83190556615591 89.990937568247318 27.678832978010174 2496.0453836619854 5.8891416117548969 103.67408540472388 529.87715591862798 22.213584244251251 135.25576554238796 390.60392846539617 14.382530227303503 4.5244230106472996
leaf_count=96413 66 94 57 34578 893 1278 390 12485 61 1454 7547 309 1929 5560 77 53
internal_value=-0.000146302 0.0598277 0.177479 -0.0350803 0.00560496 -0.0267038 0.0192873 0.188347 -0.0436134 -0.0256054 -0.0473049 -0.0120718 -0.0486946 -0.0424778 -0.0249311 -0.0406289
internal_weight=13197.2 5903.77 2635.64 3268.12 842.821 133.114 43.1232 2502.53 673.989 116.009 557.98 28.1027 7293.43 540.242 149.638 32.2033
internal_count=163244 59265 14329 44936 10358 1778 500 12551 9465 1548 7917 370 103979 7566 2006 443
is_linear=0
shrinkage=0.05


Tree=48
num_leaves=3
num_cat=0
split_feature=16 0
split_gain=35614 4607.94
threshold=1.2954310774803164 -1.4116423726081846
decision_type=2 2
left_child=-1 -2
right_child=1 -3
leaf_value=-0.049005316731317472 0.15831897372061129 -0.048840686738976048
leaf_weight=9570.3931943029165 3065.6913262754679 293.73401338979602
leaf_count=144791 13759 4448
internal_value=0.00016018 0.140197
internal_weight=12929.8 3359.43
internal_count=162998 18207
is_linear=0
shrinkage=0.05


Tree=49
num_leaves=48
num_cat=0
split_feature=10 1 15 15 15 0 6 15 2 8 10 13 6 1 0 7 7 13 15 1 8 13 12 15 15 15 7 0 15 3 0 13 1 3 3 13 11 8 3 15 5 4 15 15 12 15 8
split_gain=8273.11 9786.13 2493.93 2792.8 2995.16 2472.99 1323.21 929.486 550.575 433.849 310.083 266.238 180.944 521.075 247.518 118.644 93.0739 88.2457 86.432 726.904 82.475 418.965 332.599 151.337 208.32 116.069 66.8774 61.1282 50.1724 517.468 349.948 187.114 88.3939 48.9161 47.7788 47.4387 223.72 129.42 117.602 101.157 69.1987 47.9989 44.9708 115.84 41.2142 39.0503 87.8479
threshold=-0.17036619037389752 -0.55946999788284291 0.36718840897083288 0.3668860942125321 -2.3757637739181514 -1.4091762900352476 -0.27390661835670466 0.36720834672451025 3.6621193885803227 0.022242761217057708 0.23774617165327075 -0.53945159912109364 -0.25654220581054682 -0.18596158176660535 0.10140872001647951 -0.11541074886918067 0.62071907520294201 -0.54197409749031056 0.36716283857822424 -0.5634644329547881 -0.029376122169196602 -0.54197409749031056 1.0000000180025095e-35 0.36634108424186712 0.36631941795349127 0.36718840897083288 -0.3071193248033523 0.31853072345256811 0.36689412593841558 -0.0085919727571308595 -1.123577833175659 -0.53949365019798268 -0.45378857851028437 -0.0084313964471220953 -0.0084495749324560148 -0.37729781866073603 2.4522290229797368 -0.0019192683103028683 -0.0026688185753300782 0.36717151105403906 -0.095960434526205049 5.7816271781921396 0.36635625362396246 0.36635191738605505 1.0000000180025095e-35 -4.2046501636505118 -0.012902009300887583
decision_type=2 2 2 2 2 2 2 2 2 2 2 2 2 2 2 2 2 2 2 2 2 2 2 2 2 2 2 2 2 2 2 2 2 2 2 2 2 2 2 2 2 2 2 2 2 2 2
left_child=6 2 3 4 10 17 11 8 9 20 -2 -1 35 -14 -15 -11 -16 -3 -5 -20 -8 22 42 24 27 28 33 -23 29 31 -31 32 -25 34 -6 41 37 40 39 -39 -37 -7 43 -22 -13 -18 -47
right_child=1 5 -4 18 26 12 7 -9 -10 15 -12 44 13 14 16 -17 45 -19 19 -21 21 23 -24 25 -26 -27 -28 -29 -30 30 -32 -33 -34 -35 -36 36 -38 38 -40 -41 -42 -43 -44 -45 -46 46 -48
leaf_value=0.16452409517687258 -0.047083588540276736 0.14997370209205535 0.16012768962194346 -0.045719856983106488 0.3224906429293084 0.16241431868830741 -0.045494522417120264 0.16122079698894143 0.13685930192877174 -0.040437955707847216 0.17040466595444115 0.079043214997678024 0.16310517291537563 0.1484178955586358 -0.0419249038001476 0.1543753109686192 0.0034635712607688019 -0.046103564604594069 -0.048683302647187406 0.15957703507732302 0.20517569686019266 -0.03994392434420492 -0.041366754311535643 0.14873643548076762 0.21902519286151656 0.14991550632568154 0.059244958069775783 0.11483202940898263 -0.047466557494780438 -0.047045662514449436 0.19190214647936546 -0.045441254057948299 -0.018887295267081224 0.16148408261064795 0.14730965453704961 0.17022553603580412 0.16140660012956207 -0.030075841231546198 0.16023925246377069 0.15183967259495371 0.031865250822858453 0.090361680166836572 0.16797221912686916 -0.042867556544584524 -0.042530469197825396 0.0117066324274657 0.16374809932964854
leaf_weight=96.821143850684166 343.07003862410784 4.9622135609388343 211.27483378350735 2176.049835242331 10.67151665687561 1083.0547191128135 4503.5007385760546 57.276799663901329 43.112473219633102 9.5014683082699758 16.23992657661438 9.1459155231714266 236.91367220133543 42.296403646469116 50.935623832046986 35.298591047525406 29.51813680678606 188.4839540719986 286.01718274503946 48.071623168885708 7.3711381107568767 32.889194324612617 42.793951138854027 17.507273361086849 12.036257863044737 7.0465857535600653 16.481315895915031 6.8661963567137709 1296.9224663376808 23.812772519886494 40.361095681786537 972.25300379469991 13.324379459023474 356.94281080365181 10.466112688183784 39.592545889317989 317.17575146257877 45.851616986095905 13.436888843774794 8.1312180161476117 12.307853385806082 27.830035924911499 42.084944687783718 10.122914753854273 21.293400771915913 21.437059260904789 16.305142015218735
leaf_count=449 5038 24 951 32175 87 5263 67140 261 237 124 79 51 1130 219 708 196 360 2747 4304 240 43 439 604 114 74 33 116 48 19475 359 207 14371 175 1633 49 188 1454 476 68 38 115 174 210 109 314 252 77
internal_value=0.000211619 0.0458469 -0.00594229 -0.0167375 0.0675989 0.129984 -0.0348758 -0.037717 -0.0393405 -0.0404336 -0.036808 0.124339 0.146936 0.116102 0.046136 0.113077 0.00859637 -0.0403284 -0.0420832 -0.0183302 -0.041428 -0.0341611 0.0644869 -0.0383538 0.0455544 -0.040205 0.16253 -0.0110507 -0.0408348 -0.032739 0.103875 -0.0415739 0.0779776 0.166865 0.246324 0.154776 0.139385 0.0799923 0.0334806 -0.000411413 0.138637 0.160692 0.139946 0.0670887 -0.00464969 0.0469094 0.0799218
